%YAML:1.0
my_nn: !!opencv-ml-ann-mlp
   layer_sizes: !!opencv-matrix
      rows: 1
      cols: 4
      dt: i
      data: [ 300, 150, 75, 18 ]
   activation_function: SIGMOID_SYM
   f_param1: 5.9999999999999998e-001
   f_param2: 1.
   min_val: -9.4999999999999996e-001
   max_val: 9.4999999999999996e-001
   min_val1: -9.7999999999999998e-001
   max_val1: 9.7999999999999998e-001
   training_params:
      train_method: BACKPROP
      dw_scale: 1.0000000000000001e-001
      moment_scale: 1.0000000000000001e-001
      term_criteria: { epsilon:1.0000000000000000e-008, iterations:100 }
   input_scale: [ 2.8688675164259837e+002, -5.7838068376877805e-001,
       1.7081991491665104e+002, -9.3156966941743935e-001,
       2.7514019429761981e+002, -5.6426994235391392e-001,
       2.5069444791554747e+002, -6.4997678012705595e-001,
       2.6043660745348024e+002, -5.8371489444936908e-001,
       1.7944194889194881e+002, -7.4505036360430976e-001,
       3.1964986256623604e+002, -3.7248896826905853e-001,
       3.4583333775618888e+002, -4.3959070615643292e-001,
       2.7872378237082069e+002, -5.7647289619613096e-001,
       1.7006119166023700e+002, -5.8564087189847813e-001,
       2.2363366483755087e+002, -4.7071940568709913e-001,
       1.5848285336582077e+002, -5.8227200534407830e-001,
       5.9465309101422314e+001, -6.1899661543028206e-001,
       1.8389464744624738e+002, -6.4097825539681030e-001,
       2.7355868686136870e+002, -5.2722105292437593e-001,
       2.6304473379923570e+002, -5.9272346031249834e-001,
       9.6132573530995529e+001, -8.7397930323447792e-001,
       2.6487226896931645e+002, -4.6057273545616029e-001,
       1.5358077895969393e+002, -6.8032243112989998e-001,
       2.8947644816591242e+002, -5.8342357560753377e-001,
       2.3133839985381240e+002, -5.5020430375439955e-001,
       1.2929138157886001e+002, -5.9864510184969277e-001,
       2.4504815077173214e+002, -5.3028585613946166e-001,
       2.7475811703872449e+002, -6.2945547467455210e-001,
       2.3793463761930337e+002, -6.2089058885134396e-001,
       2.1705398846525154e+002, -6.1440038042245637e-001,
       1.1970008571450759e+002, -5.5538420542973888e-001,
       8.0263510172971522e+001, -7.7968100609842628e-001,
       3.5904789865429797e+002, -3.7320574370493331e-001,
       3.1515407378592323e+002, -4.5185391919523077e-001,
       1.0077920003882916e+002, -7.7537337860136890e-001,
       2.1744837893520980e+002, -5.1350909654127985e-001,
       2.6743718725308690e+002, -5.7177737920342864e-001,
       2.4178670803460332e+002, -6.2551164782080348e-001,
       2.7929131005990439e+002, -4.9986557032383427e-001,
       2.2845928455804943e+002, -5.3567874492739720e-001,
       3.0444563976590496e+002, -4.0420529740155398e-001,
       7.3449808308241231e+001, -4.9574448037688812e-001,
       2.5119463168079275e+002, -5.1361673608018432e-001,
       2.7975082434403362e+002, -5.2434207590970783e-001,
       2.3545947025157855e+002, -5.6493297488560335e-001,
       5.9697166237590935e+001, -7.8719617926430807e-001,
       2.8781849014014193e+002, -4.5860644264372180e-001,
       1.9263275012635773e+002, -7.6710801614229251e-001,
       2.6311416973851721e+002, -5.9755948120829139e-001,
       2.1548826040609930e+002, -5.8752091795378880e-001,
       2.4011023295203117e+002, -6.2406895161026277e-001,
       2.5663290773602546e+002, -5.2551414648141814e-001,
       2.5291524786899589e+002, -6.0531953912602077e-001,
       2.4400855920855406e+002, -5.7860537317113159e-001,
       2.9721903402514221e+002, -5.2376551787638792e-001,
       1.7326732219588757e+002, -5.5401402158465285e-001,
       2.9620706662839530e+002, -3.0800195674370856e-001,
       1.7963479337184359e+002, -6.3013119667339756e-001,
       2.3955909234562890e+002, -6.4412663457606090e-001,
       2.5072693763427239e+002, -5.7160186926384082e-001,
       1.1145774959714421e+002, -6.7400611934007415e-001,
       1.8273255526087067e+002, -5.8075345412769808e-001,
       2.6511853978189089e+002, -5.7955893347613607e-001,
       2.4202380225152049e+002, -5.6681907640049289e-001,
       2.0815552321728077e+002, -5.1512260356839390e-001,
       5.6572625808900163e+001, -9.2068052262106503e-001,
       2.8113444933868186e+002, -5.6796638141424027e-001,
       2.4104152615739230e+002, -6.3840484547849863e-001,
       2.1245922479637903e+002, -5.3951141207945319e-001,
       2.5275060571848942e+002, -6.4728461907253743e-001,
       1.3108087968071979e+002, -4.7437960126625728e-001,
       2.6864925310068281e+002, -6.2413062562988830e-001,
       2.1767360855081338e+002, -4.8865132074470208e-001,
       1.4369146595963642e+002, -5.4041847225832740e-001,
       1.5740602305118389e+002, -7.2446347895274654e-001,
       1.6005869960535006e+002, -7.5025893266706878e-001,
       1.9832106279462187e+002, -6.3388015278680931e-001,
       8.5804462209484953e+001, -2.2969342326133046e-001,
       2.9178767870464577e+002, -4.4547295674283105e-001,
       2.7298198869802752e+002, -4.9718983856940263e-001,
       3.0591309495920353e+002, -4.8611669103504412e-001,
       1.6338393318718460e+002, -7.1471848262117010e-001,
       1.8664782455512318e+002, -5.0478972081260776e-001,
       6.3798216217728069e+001, -6.0500404899962978e-001,
       1.2973089048078185e+002, -4.9053458414543410e-001,
       3.2013733503502516e+002, -5.0903963404513786e-001,
       2.4881701900259404e+002, -5.9568476318460450e-001,
       2.9907100260672104e+002, -5.8138403490329071e-001,
       2.3430028430917304e+002, -5.2927617104809854e-001,
       1.2448112504125680e+002, -9.8450604182897283e-001,
       1.2477801389692215e+002, -5.4209374165099666e-001,
       3.4170346486896381e+002, -5.3001183508639393e-001,
       2.4062965112922853e+002, -5.5365000964737288e-001,
       1.8575803309704514e+002, -7.2274728436869184e-001,
       8.8023760166423912e+001, -6.3659130832796862e-001,
       3.7347419981133214e+002, -4.6262426331675965e-001,
       2.0382574568594040e+002, -5.5633070905418924e-001,
       2.1818532763828472e+002, -5.5960075102684970e-001,
       2.6036754949160422e+002, -5.5481736452484864e-001,
       2.7331567786837712e+002, -5.6856927442661598e-001,
       1.9658656608601632e+002, -5.6813665569993987e-001,
       2.1946735063761096e+002, -6.2261398654502953e-001,
       1.6822250444327028e+002, -7.6347579385916919e-001,
       2.9586066020918804e+002, -4.7974721132052101e-001,
       2.5113178034781768e+002, -6.5354721758854595e-001,
       2.0366269930681872e+002, -6.9554564646793882e-001,
       2.6685672513557381e+002, -4.8587976137547922e-001,
       2.1997220106281807e+002, -4.5980034287568827e-001,
       2.3724611992646751e+002, -7.6455079043917107e-001,
       5.8602897635188810e+001, -8.3594132415355693e-001,
       1.7356111136120771e+002, -7.2275024823845013e-001,
       2.3621386278536716e+002, -5.2932845760290026e-001,
       2.1544699767858370e+002, -5.0343623092619683e-001,
       2.8328773159300704e+002, -5.7978414867617301e-001,
       6.3510843553424770e+001, -9.1058595249578311e-001,
       2.4688673042080217e+002, -6.5444232413080106e-001,
       3.4648650521307513e+002, -5.3348172730157939e-001,
       1.5031389503711262e+002, -4.9218538219813290e-001,
       1.7266513459130670e+002, -5.1799908305631170e-001,
       2.3805179460004911e+002, -5.4900858827106591e-001,
       1.4849908794223958e+002, -7.6097212583579443e-001,
       2.4172687214286708e+002, -5.2737537546093205e-001,
       2.5326973635082504e+002, -6.9190661447787816e-001,
       2.5457692739464454e+002, -6.4778594433146930e-001,
       9.8230364002537897e+001, -1.1347170937595599e+000,
       2.4122855797517133e+002, -6.0565117725769868e-001,
       2.3439893717115868e+002, -6.3928042342305458e-001,
       2.2179216737180519e+002, -3.5819532791398934e-001,
       2.2943630091600849e+002, -5.9628235350819869e-001,
       2.5759813080525402e+002, -4.0400560771400251e-001,
       2.7318082459119427e+002, -5.7005824255649029e-001,
       2.1442834345425445e+002, -7.1728287688245740e-001,
       2.1510613164919909e+002, -4.5960217620288285e-001,
       2.2413875192686970e+002, -5.5081488535495349e-001,
       1.9485294843628000e+002, -6.4413509793550261e-001,
       2.6821288877984642e+002, -4.7940890307132022e-001,
       7.1480267266000624e+001, -7.5670146855669207e-001,
       3.4925996777576370e+002, -4.4050038143255382e-001,
       2.3489653774901143e+002, -6.2876149455015029e-001,
       2.2488039469606372e+002, -5.0230330907890930e-001,
       1.8311009372948260e+002, -4.4084773745514938e-001,
       3.2793206632587652e+002, -4.7769996088185157e-001,
       2.1778529756691799e+002, -5.4688858194749135e-001,
       2.8471535522932049e+002, -5.8565477590838588e-001,
       1.8886564550535334e+002, -6.5756510865885354e-001,
       1.7062820536773663e+002, -5.5118863159176812e-001,
       4.7854014136965866e+001, -4.9724990890349891e-001,
       1.8733356236446551e+002, -4.9481155927551401e-001,
       2.2575679608084303e+002, -5.0411497993494703e-001,
       2.9179623990440768e+002, -5.0065371734603448e-001,
       2.0289389312869980e+002, -5.9187459012603560e-001,
       3.8254056371313953e+002, -4.6478993725810430e-001,
       2.7351108290591179e+002, -6.4036638516831068e-001,
       2.3571876610950855e+002, -5.6302694120418462e-001,
       1.5943121416303330e+002, -5.1066342626039962e-001,
       2.8393693282450579e+002, -5.6161620787397881e-001,
       2.8602124069315153e+002, -6.0011723156966890e-001,
       2.7477440156463587e+002, -5.1839544678267013e-001,
       1.9270828227987997e+002, -5.3488259859918796e-001,
       2.8464771310673621e+002, -5.5017886300807206e-001,
       2.4974419943533024e+002, -6.0981817998785692e-001,
       4.0424227268892992e+002, -3.6725176909572299e-001,
       1.5109670686957452e+002, -6.2375416169901021e-001,
       2.3015552204498476e+002, -6.6055268899943775e-001,
       2.1296543216495743e+002, -7.5390839895895323e-001,
       1.8627310753540925e+002, -5.9440201324889297e-001,
       2.2238014050615405e+002, -6.4033008357675358e-001,
       2.5411750275599846e+002, -6.6078356165429841e-001,
       6.2432158108419891e+001, -1.0579450984462055e+000,
       1.5995590138775893e+002, -5.6849405565314626e-001,
       2.7799801286835412e+002, -5.5751898111015652e-001,
       2.4361487866089030e+002, -5.0492603565898053e-001,
       1.5568529675020071e+002, -7.8647750739490641e-001,
       1.9005533013792186e+002, -5.8704979822962722e-001,
       3.6266977183961308e+002, -4.7179269977400057e-001,
       1.6067357174956052e+002, -5.4183472193290161e-001,
       2.8341279441829067e+002, -4.7155206447233644e-001,
       3.1057718811525035e+002, -4.6682578857767093e-001,
       1.2764099711507217e+002, -6.4953486415379869e-001,
       1.2867154561032618e+002, -6.4045478677006884e-001,
       2.5516706483431605e+002, -6.3573136792246465e-001,
       2.0650826338687358e+002, -5.3438066705276088e-001,
       2.5566514452153416e+002, -5.7135543415197843e-001,
       1.9430753179512314e+002, -5.5006697657565962e-001,
       2.1967601467254590e+002, -6.0836827781975744e-001,
       2.8783894487460833e+002, -5.4527226241297977e-001,
       2.6674516086893351e+002, -3.3147324089336228e-001,
       2.6518053227378579e+002, -5.9920161347154477e-001,
       2.5503541086991441e+002, -5.7281043974849055e-001,
       2.3350764356369450e+002, -5.1317655185609790e-001,
       1.4058536922154937e+002, -7.3720932255415239e-001,
       2.9552449311795942e+002, -4.5677225970141888e-001,
       4.8215227359681229e+001, -5.2929561399955849e-001,
       2.6992110059299443e+002, -5.7131882059749395e-001,
       2.1857592353258534e+002, -6.3175819635526187e-001,
       2.7947353177833202e+002, -5.9713815752496935e-001,
       3.0035523338202154e+002, -5.2265247368729073e-001,
       2.8850820503531600e+002, -5.7876067619174609e-001,
       1.2868634215310578e+002, -6.4223613772107735e-001,
       2.2526577018533160e+002, -6.6569390438643039e-001,
       3.0451814060621729e+002, -5.2182764010259652e-001,
       2.9376385571917609e+002, -5.8057582054668821e-001,
       3.0673797710954699e+002, -4.3771026726212486e-001,
       2.4900682846762822e+002, -5.1620780521617804e-001,
       3.1955457469974476e+002, -4.3411879822944371e-001,
       1.8043855149379328e+002, -6.6984108077249427e-001,
       2.7322456889170087e+002, -5.4267465009995597e-001,
       1.7079395102628763e+002, -9.1159449702651962e-001,
       1.8820838455289146e+002, -6.3146666736591706e-001,
       3.0931801170715408e+002, -4.1540928627601792e-001,
       1.1250403369549809e+002, -9.8471477626118897e-001,
       1.0589430450120430e+002, -1.0351349452608134e+000,
       1.3730492615945508e+002, -5.6265738874269167e-001,
       2.4887660632958693e+002, -5.2740132888148383e-001,
       2.2676520085334761e+002, -7.1523516022309053e-001,
       2.2371295374006780e+002, -5.7341648462798311e-001,
       2.4771599829366824e+002, -5.0883299259522718e-001,
       2.7933811263345024e+002, -6.1884213702884117e-001,
       1.8545997853972719e+002, -7.4912868322773463e-001,
       2.6211732143321319e+002, -5.6392841261786009e-001,
       2.2108727247622525e+002, -5.3425318453122583e-001,
       2.6390931533435116e+002, -5.8538667603714956e-001,
       2.6361716226773672e+002, -5.4993770258311825e-001,
       2.0240149574974834e+002, -5.3818609190433031e-001,
       3.2183474427511771e+002, -5.2987491975945900e-001,
       2.5814132012276752e+002, -5.8441278721724499e-001,
       1.0974005066450347e+002, -7.8133527240203038e-001,
       3.9634422930760559e+002, -3.7870502471011591e-001,
       2.9078091236829204e+002, -4.7621372634845310e-001,
       1.5721788340104365e+002, -4.9475192664476247e-001,
       3.2255370949067685e+002, -4.6849016271250360e-001,
       2.3224010543674515e+002, -5.8797449306495286e-001,
       1.7401869790652233e+002, -7.2748430686522447e-001,
       1.7081602133740890e+002, -5.6450767696769122e-001,
       1.3249085000097949e+002, -9.0640380891716898e-001,
       2.9841318036140586e+002, -5.5667448746357073e-001,
       2.5830766668046198e+002, -5.9938118061572720e-001,
       7.5063314549232402e+001, -6.1238789940972260e-001,
       1.8432309356367873e+002, -6.9849625371301849e-001,
       1.8805698999604917e+002, -7.0777899853743875e-001,
       2.0827113737462324e+002, -6.7129115058446132e-001,
       9.2783963351711193e+001, -7.8526925307479878e-001,
       2.8054901424679042e+002, -5.8253254579236380e-001,
       2.3734014654860900e+002, -6.2528539980432762e-001,
       2.5398519039880009e+002, -5.1257541805709095e-001,
       1.7078467655597964e+002, -5.1353837083620113e-001,
       1.5209268577130101e+002, -6.2232650071140361e-001,
       2.9375296824788188e+002, -6.0918020034549858e-001,
       2.5208058102035255e+002, -5.6172293201839207e-001,
       2.2672076107656736e+002, -6.0915665629486382e-001,
       3.0358867780742611e+002, -5.1037321273503433e-001,
       2.5661006388280009e+002, -6.4558967991877270e-001,
       1.6037468279953652e+002, -5.8701723352918977e-001,
       2.2835802151752529e+002, -5.6119456189769079e-001,
       1.0821323259264814e+002, -4.9220987162554442e-001,
       8.8549110017219931e+001, -5.5670080706433189e-001,
       2.2982738678806220e+002, -4.9939309731674769e-001,
       2.5804673786234247e+002, -5.7119150918640682e-001,
       2.3325533216935014e+002, -5.5357314654744705e-001,
       2.5338115174301055e+002, -5.0390690162075102e-001,
       3.4267815430797629e+002, -4.9209251827538386e-001,
       3.1977645184395620e+001, -6.7330047596249532e-001,
       1.4983934122650589e+002, -4.4355625554823835e-001,
       2.9508635319345063e+002, -5.6740998787809771e-001,
       2.8881295378835517e+002, -4.7777775655702870e-001,
       2.2755354139413521e+002, -6.3469862783047593e-001,
       1.9595387164089524e+002, -7.2009379663658513e-001,
       2.6669850353176332e+002, -5.0213132359608159e-001,
       2.7696440448014425e+001, -5.2036963251937851e-001,
       6.6830086792919886e+001, -8.1265643290863054e-001,
       2.2848410652975932e+002, -6.7549524568840802e-001,
       2.1413725652373995e+002, -5.5248521951978435e-001,
       2.3046762006482180e+002, -4.9161680058572682e-001,
       2.9460250966115677e+002, -5.8388366239552880e-001,
       1.8625849184520777e+002, -6.0641077979616553e-001,
       3.0783423172118290e+002, -5.6260754821875780e-001,
       3.1777462091979442e+002, -4.6889978574387770e-001,
       2.6914601214669540e+002, -5.1870856303593038e-001,
       3.0622294981866298e+002, -4.8186843881952951e-001,
       1.9802488114534134e+002, -5.4313568244643828e-001,
       2.2245677121746064e+002, -6.4856096814827346e-001,
       2.2344626536217837e+002, -5.8206081440849677e-001,
       2.9628787687430906e+002, -5.2731185634140121e-001,
       2.3189769791221670e+002, -5.1331473101981961e-001,
       2.7116072501276432e+002, -4.3974049536734194e-001,
       2.4960800934415522e+002, -6.1574209879442376e-001,
       2.1326099137017619e+002, -4.6201911111010363e-001,
       2.9004359352345574e+002, -5.2347481537958274e-001,
       2.2936548539283669e+002, -6.2591494618748000e-001,
       2.6240149420682150e+002, -5.3569034523031878e-001,
       2.0111452192199943e+002, -4.7648917689901049e-001,
       3.4927831988311823e+002, -4.8817457881596171e-001,
       2.4367991631850802e+002, -7.0185525342960631e-001,
       2.5015640505953064e+002, -5.9757960166080071e-001,
       2.6682700124294718e+002, -4.8751517022543439e-001,
       2.2149296417158348e+002, -6.2960451998257005e-001,
       2.0611610672716580e+002, -5.7359612775092472e-001,
       2.3589290802069809e+002, -5.7885799402093818e-001,
       2.1992681803616216e+002, -5.1785941542250791e-001,
       1.0200398231532436e+002, -6.6882179287125920e-001,
       2.1716600258483015e+002, -6.3689921185961185e-001,
       1.3114080800364906e+002, -6.1909627231405373e-001,
       1.8245676801792820e+002, -3.0396966989142521e-001,
       1.8064596446339175e+002, -5.4390450446300287e-001 ]
   output_scale: [ 5.2631578947368418e-001, 4.9999999999999994e-001,
       5.2631578947368418e-001, 4.9999999999999994e-001,
       5.2631578947368418e-001, 4.9999999999999994e-001,
       5.2631578947368418e-001, 4.9999999999999994e-001,
       5.2631578947368418e-001, 4.9999999999999994e-001,
       5.2631578947368418e-001, 4.9999999999999994e-001,
       5.2631578947368418e-001, 4.9999999999999994e-001,
       5.2631578947368418e-001, 4.9999999999999994e-001,
       5.2631578947368418e-001, 4.9999999999999994e-001,
       5.2631578947368418e-001, 4.9999999999999994e-001,
       5.2631578947368418e-001, 4.9999999999999994e-001,
       5.2631578947368418e-001, 4.9999999999999994e-001,
       5.2631578947368418e-001, 4.9999999999999994e-001,
       5.2631578947368418e-001, 4.9999999999999994e-001,
       5.2631578947368418e-001, 4.9999999999999994e-001,
       5.2631578947368418e-001, 4.9999999999999994e-001,
       5.2631578947368418e-001, 4.9999999999999994e-001,
       5.2631578947368418e-001, 4.9999999999999994e-001 ]
   inv_output_scale: [ 1.8999999999999999e+000, -9.4999999999999996e-001,
       1.8999999999999999e+000, -9.4999999999999996e-001,
       1.8999999999999999e+000, -9.4999999999999996e-001,
       1.8999999999999999e+000, -9.4999999999999996e-001,
       1.8999999999999999e+000, -9.4999999999999996e-001,
       1.8999999999999999e+000, -9.4999999999999996e-001,
       1.8999999999999999e+000, -9.4999999999999996e-001,
       1.8999999999999999e+000, -9.4999999999999996e-001,
       1.8999999999999999e+000, -9.4999999999999996e-001,
       1.8999999999999999e+000, -9.4999999999999996e-001,
       1.8999999999999999e+000, -9.4999999999999996e-001,
       1.8999999999999999e+000, -9.4999999999999996e-001,
       1.8999999999999999e+000, -9.4999999999999996e-001,
       1.8999999999999999e+000, -9.4999999999999996e-001,
       1.8999999999999999e+000, -9.4999999999999996e-001,
       1.8999999999999999e+000, -9.4999999999999996e-001,
       1.8999999999999999e+000, -9.4999999999999996e-001,
       1.8999999999999999e+000, -9.4999999999999996e-001 ]
   weights:
      - [ -3.1959091682675655e+000, 1.0266527254337354e-001,
          1.9321342087420337e-001, -8.9445273731047437e-002,
          -6.5636224057507547e-002, 1.2497854593895748e-001,
          1.5701240993862597e-001, 7.9013125407033244e-002,
          2.5317885035877757e-002, -9.5568100250204388e-002,
          1.0738411198683170e-001, -7.0444931969871644e-002,
          -2.6127404862201742e-001, 3.5268219239496057e-001,
          5.8882982794928448e-003, 1.0034029996368543e-002,
          -8.5885282833619569e-002, 1.2659641245355659e-002,
          9.9451910205825084e-002, 5.9717879911081455e-002,
          5.9898655990899913e-002, 5.2866469055106349e-002,
          8.3089934607704545e-004, 5.6607927807379360e-002,
          1.5995125453463666e-001, 2.2157940595898384e-002,
          -3.6642762601133708e-002, -1.3467429016278426e-001,
          1.0899556985778403e-002, 1.8124713608939722e-002,
          -9.2899144806310591e-002, -1.0624511818205881e-001,
          -1.5346388801330318e-001, 2.6578747533770722e-002,
          4.6370067147548558e-002, -4.4533160769778007e-001,
          1.8632200925905479e-001, -1.9165195796639403e-001,
          -2.1785509883840537e-001, 1.7101044922253170e-001,
          5.8051119995565267e-002, 5.8396147956027579e-002,
          -4.3019991244180834e-003, -8.9380441583764625e-002,
          -1.6981454613833862e-002, 8.7344872919606228e-002,
          5.4453083251032368e-002, -7.7895360215144580e-002,
          8.5227586390364679e-002, 1.1206699729396777e-001,
          8.7538245410762924e-002, -4.0495515658100389e-002,
          -1.9466059111448808e-001, -1.4426324786351655e-002,
          2.1615035214813308e-001, 1.6416317999957156e-001,
          3.8280962181092587e-002, -3.2981890530270300e-002,
          3.6318818996162773e-002, -1.3316881568517328e-001,
          4.4213771984813501e-002, -8.1020990229757672e-002,
          1.8282574753962347e-001, 4.4558404785276833e-002,
          1.1457040674973397e-001, 1.7066756343278908e-001,
          -1.3253967082297186e-001, -1.6077126783019934e-002,
          -2.0112352640482536e-001, -1.8801034037099890e-002,
          -3.5590872964099282e-002, -1.0329530067271978e-001,
          1.0091465800074638e-001, 1.0173064884254113e-001,
          7.0257882791820422e-002, -5.3571527141571144e-002,
          -1.9111605421504668e-001, -1.2349659731163373e-001,
          1.4341734462959715e-001, 1.8657092906906969e-001,
          6.4610053149140687e-002, 7.7433963196155656e-002,
          1.4140384995237201e-001, 1.1671020639601008e-001,
          3.0077075881589553e-002, 5.7051220263691811e-003,
          -1.1007771267524875e-003, 7.9058301242056483e-002,
          -7.4122736852380133e-002, -2.2398708327136255e-001,
          2.0892746827133252e-001, 1.4851843049703453e-002,
          1.4302675855525301e-001, -1.9183612194487518e-001,
          1.7217870057884102e-001, 2.4777133780492216e-001,
          -6.5754668239282762e-002, 5.2506893199146698e-002,
          7.3913817977421567e-002, -7.0558439058466579e-002,
          2.1809876653885649e-001, -4.7356908311821065e-002,
          1.3217119327667096e-001, 2.2263412750830031e-001,
          1.4383778059431074e-002, -1.1481402391944018e-001,
          -1.3187476655224425e-001, -1.8627463647587206e-001,
          1.2384083824608026e-001, -1.4894264824756517e-001,
          -2.5760599745146336e-002, -1.1651124965754395e-002,
          8.3373796709322753e-002, -3.3423082912853716e-002,
          -1.1835096897854495e-001, -2.7661934479235668e-002,
          -5.9734559969955275e-002, -4.5272553322100346e-003,
          -3.9111358031524913e-002, 1.0576475796260529e-001,
          2.4032372091846010e-001, 4.8303495232948815e-002,
          -9.6920913668027769e-002, -4.5643376060993321e-002,
          -7.2516473001412535e-002, -3.1246159920680184e-002,
          -7.9181490934799426e-002, -6.1242963438714715e-002,
          -9.4771537152108204e-002, 4.9241591500714159e-002,
          2.1947829617267259e-001, 6.1490021200908691e-002,
          -1.9996433271263772e-001, 1.5700727330749309e-001,
          -1.4058489388202378e-001, 1.0105870601431911e-001,
          1.1518554106260519e-001, -8.1155787226745740e-002,
          1.7972032487098655e-001, -1.5773534929190553e-002,
          -4.9818380478864272e-003, -8.1125374062960692e-002,
          -7.8663174212411771e-002, -3.1184882617131732e-002,
          -1.3431101071007101e-001, 8.8741575561070818e-002,
          -1.4159204366189210e-001, 7.5043725996313225e-003,
          2.3823165553741383e-002, -4.8697345428654261e-002,
          1.4842182447112844e+000, 1.5266188199883654e-001,
          -1.2390029119878765e-001, 1.0934430150048130e-001,
          3.5051254094007828e-001, 1.2863536821690877e-001,
          -2.4789952363312598e-001, -1.2922517062961217e-001,
          2.3323128578047278e-001, -6.2029974349601582e-003,
          -1.8046182947361722e-001, 1.0721340418189047e-001,
          5.6503800097262795e-002, -6.2886919078718254e-002,
          1.5279998978366603e-002, 7.7717935007307323e-002,
          1.4676106387750398e-001, -2.5246403314967861e-002,
          2.2024705464448822e-002, -4.9442183122764535e-002,
          -1.8863266245913216e-001, 7.5312397670486794e-002,
          7.5523457280877199e-002, -1.7854694806471741e-001,
          -1.9388142156758381e-001, 2.2571956760378040e-001,
          2.9790159278080611e-002, 2.3174750813768905e-001,
          -1.0137700851490147e-001, 7.1014590596194818e-002,
          -8.4421967138240354e-003, 1.8884657037620666e-002,
          -3.2555610611293589e-001, -2.8729108400418174e-001,
          -9.3294597521915879e-002, -3.9247432809334730e-002,
          -2.4825949430521674e-001, 1.8508984812954804e-001,
          1.1320529444942604e-001, -3.5747864415928719e-002,
          -2.7600510632309894e-001, -1.7510993219429418e-002,
          1.5030206343816399e-001, -2.0279960595636515e-001,
          3.7205921802523731e-002, 8.5512936437450185e-002,
          3.1374091489335748e-001, 1.2319088215477349e-001,
          5.9262578484156378e-002, 1.8845075608122000e-001,
          -1.0364379113447175e-001, -3.6019924082728527e-001,
          1.5575466027190277e-001, 3.6172538207635836e-002,
          -5.4927637163478413e-002, 1.2850584311934535e-001,
          1.1306958113423840e-002, 6.9656761256802507e-002,
          7.9929653145458981e-002, -2.6188294592308335e-002,
          1.1927476454685823e-002, -1.2861791794752817e-001,
          -1.8506843380259508e-001, -7.0257678083436331e-002,
          4.4799932404109774e-002, -1.1944426318978543e-001,
          2.8707612697725905e-002, 2.4422959998944821e-001,
          1.0599467630348668e-001, 1.1647353564583200e-001,
          5.5383157541623547e-002, 8.4870354350149863e-003,
          1.5692101360905533e-001, 1.4357541785121089e-001,
          -4.2697667416992699e-002, 7.8518259315279205e-003,
          9.6976416794077258e-002, 4.7782374355802119e-002,
          -2.5884072009870899e-003, -2.9919296274171520e-002,
          -3.2888803936580568e-001, -6.0431240663823063e-002,
          8.0580929335088605e-002, -7.4822146489331068e-002,
          -2.0703460884060088e-001, -1.7436272219571326e-002,
          4.4645335739366736e-002, -7.0996250554889964e-002,
          1.4879711357674669e-001, 9.3745527525771116e-002,
          2.8204614906865096e-002, 1.0715924487669751e-001,
          1.6981776362910339e-001, 6.6576251097288722e-002,
          6.5066483011090720e-002, 3.0327848520696844e-002,
          -2.1426768453762735e-002, -6.8852912974446984e-002,
          1.7226438523374682e-001, -5.6094926330736206e-002,
          5.4647758623385667e-003, 8.5033813988716983e-002,
          -1.1945994822056274e-001, 1.5846318791755193e-001,
          7.7045912419709747e-002, 4.5965766268530592e-002,
          2.7758347632842378e-001, 2.0892834841041577e-001,
          1.0346747264421542e-002, 1.2047343868271490e-001,
          1.9037745004864215e-001, 1.0563613902195543e-001,
          -1.5862786310621579e-001, 1.2540679063358828e-001,
          2.1034959130733985e-001, 1.1865860655742530e-002,
          -2.0861568777811149e-001, -7.4966007600496626e-002,
          -1.2914536467625784e-001, -4.5909013984904483e-002,
          5.1588016684952623e-002, 1.8776926441929850e-002,
          -2.2679284013029199e-004, -4.6045598613092327e-002,
          1.2390561298108585e-001, 4.3126324877267232e-002,
          -1.2831703931817537e-001, 5.4915837300760773e-002,
          -2.5797101689025320e-001, -5.4993739945989148e-002,
          1.6093853522261245e-001, -2.1846905306376529e-001,
          7.4804454033111242e-002, 4.8633666771281538e-002,
          -1.3239023091137744e-001, -2.4256377582268021e-001,
          -1.2516953168515099e-001, 1.0323895531741284e-001,
          1.6373103784850829e-001, 1.0728380759136083e-001,
          7.9441610889418895e-002, 9.9071248284421987e-002,
          -1.3213397853610587e-001, 1.3200503792281418e-001,
          -1.5407445791582122e-001, -1.1189945441365337e-001,
          -2.3553058435423595e-002, -1.2773778094168180e-003,
          -2.7165435834982316e-001, -1.8024448385959732e-001,
          -2.1421842660834858e+000, -8.9980733147597219e-002,
          3.9094298767788124e-002, -5.8136917139309137e-002,
          -8.4088956785813546e-002, -1.0640687507871166e-001,
          5.6860539529486269e-002, -3.5827067174078298e-001,
          -2.0743019872554505e-001, 1.1039893718966912e-001,
          2.4952040505481674e-001, -4.9252668159878839e-002,
          -5.2576120797332107e-002, 6.2177781033313274e-004,
          -7.4121585583001998e-002, 3.3280850495919767e-001,
          -1.5505301667844495e-001, 5.5139299396755180e-002,
          -2.1957135630603206e-001, -1.6900061780991314e-002,
          2.1026871622171933e-001, -1.6979323965513746e-001,
          2.0591086615136320e-001, 3.2827502922698626e-001,
          7.5986237933570483e-002, -6.8417773257508797e-003,
          1.3690907109746759e-002, -2.9045241015008556e-002,
          1.9803425229414753e-001, -1.5351701503127957e-001,
          -1.8796990265958968e-001, -1.0821840110279250e-001,
          3.7436828640930381e-001, 1.2325572914842484e-001,
          1.2744296881930883e-001, 1.1820545598010683e-001,
          2.8748103859508961e-001, -3.5643511834183250e-001,
          5.8644440512696218e-002, -1.0569389924996506e-001,
          1.1577135954719874e-001, -1.7861523833960555e-001,
          -1.3042323676236675e-001, 4.4584221856145179e-001,
          -5.1014728512025403e-002, 6.1176166649317500e-002,
          -2.0591567264680516e-001, -1.2785891224875234e-002,
          -8.8364880910153445e-002, -2.9740866842927333e-002,
          -1.9827517653053591e-003, 4.6138357743993247e-001,
          -8.9579846563755713e-002, -1.5328597340389982e-001,
          -1.8452714064985956e-002, 1.6132739874150456e-001,
          2.6672703831186978e-001, -2.5067827940151055e-001,
          -9.9795728851573035e-002, 2.1215388507186547e-001,
          2.0108922618203481e-001, 9.3568513978186468e-002,
          -4.4016621592492644e-002, -2.1300600306876771e-001,
          2.1669359032747576e-001, 1.0112613061701786e-001,
          -2.3956028386804426e-001, -3.1135687067951795e-001,
          -1.2772912581296089e-001, -3.2194811266082431e-002,
          -4.8679064003065320e-001, 1.2800966397443131e-001,
          1.8078695190294056e-001, 2.3405600255198442e-001,
          2.3239799107316450e-001, -5.7053874252693405e-002,
          2.0129391381921137e-002, 1.0893582834969014e-001,
          -3.0245305004387546e-001, -3.2907339849493972e-001,
          1.0490643659521050e-001, 1.5376077507169170e-002,
          -8.7030371008350080e-002, 1.9566020245867063e-001,
          -1.0547825292176356e-001, -2.2025887923870474e-001,
          7.2672426840499627e-002, 6.9494811651403116e-002,
          2.4134347391887642e-001, -1.2194397694057266e-001,
          -2.0657183832589651e-001, -2.9399120872311701e-001,
          -1.6316663837538289e-001, 2.5460774046656618e-002,
          2.8974337499168606e-001, -1.4013657181927305e-001,
          3.5072174105784310e-003, 2.4423522277684290e-001,
          -2.2868916005651954e-001, 1.5525997128974339e-001,
          -1.1522676305325694e-001, 1.6795789621866536e-001,
          1.9549898101192670e-001, -2.3627242617292707e-001,
          -1.2566449588914111e-001, 1.6059006245994664e-001,
          -1.9504870843583888e-001, -2.6627052791312911e-001,
          1.9167096611000867e-001, -2.0760373447392300e-001,
          1.2173154337972553e-002, -7.9686271479402868e-002,
          5.1876417637415836e-002, -1.2407578170280345e-001,
          6.9548836672328737e-002, -8.7204053905135373e-002,
          5.6113934603747036e-002, 1.1340036375882082e-001,
          1.7614388914422921e-001, 1.2496471020128876e-001,
          -1.4830809389127481e-001, -1.2102724298238776e-001,
          -1.0200995156166248e-001, -1.4065302043017219e-001,
          -4.0179653858467501e-001, -6.7899097270241696e-002,
          5.3212042378249419e-002, -3.5981816651596504e-001,
          1.7813879059041132e-001, 1.8008053272555782e-001,
          3.5244845162788432e-002, -9.0034867089529361e-002,
          -1.8876007981669904e-001, 2.8172408141105254e-001,
          1.8278552920435495e-001, 8.1334433788757987e-002,
          6.3987340540510251e-002, -2.9079266619612787e-001,
          -2.0787506748423851e-001, -3.4685025544950739e-002,
          -1.7093870386467633e-001, -2.5545180985130533e-001,
          1.4352042384955818e-001, -2.1735890946768499e-001,
          7.0097784865007548e-002, 1.8162103503996649e-001,
          -2.8581694787565770e-001, -7.4654886136969620e-002,
          2.6014913040476623e-001, -5.9183072941502018e-002,
          2.0834553282061052e+000, -5.2833246845981091e-002,
          -5.5413415481677192e-002, 5.7906744257601610e-002,
          -8.9371168146057070e-002, 1.5749918886676876e-002,
          6.2421390462130202e-002, -1.8286303228806258e-001,
          -1.2084974433449740e-001, 1.6990120322496860e-001,
          -3.2723422343421860e-001, -1.0527805691583222e-001,
          1.2550042646702494e-001, -2.0512802692263182e-001,
          2.3761317689903780e-002, 7.5433040441934815e-002,
          -1.4763947679581260e-001, -5.0389927605559125e-002,
          6.3605842520501644e-003, -4.6674841840863956e-002,
          -3.0632265264000257e-004, -3.0356661628009202e-001,
          6.3816676953560358e-002, 1.8648417145443028e-001,
          -2.6343152416402098e-002, -1.3416744178103441e-002,
          1.0529240251220753e-001, 5.5595023121888673e-002,
          1.5675755655372778e-001, -1.1124585907369227e-003,
          4.9807772607262983e-002, -8.6518763049179229e-002,
          1.0666950821912149e-001, -1.9064516552892033e-001,
          8.7016839155185877e-002, 1.0902840609115173e-001,
          2.1997867203563615e-001, -2.0768409105086225e-001,
          -8.8536436170207761e-002, -5.0584245043515844e-002,
          2.8325462526886040e-003, 6.8200243392624350e-003,
          2.8475753810580157e-001, 2.0278877772871096e-001,
          -7.9990617664977004e-003, 1.1820086675538002e-001,
          -1.5466637588023113e-001, 1.2935706823294790e-001,
          -1.2159940720980569e-001, 6.7593516438555559e-002,
          8.1992922643406421e-002, 1.5169582118252500e-001,
          1.6055035041749846e-001, -3.7412971965839738e-002,
          3.5207313919271926e-002, 1.5273805229158475e-002,
          1.5386026027295782e-001, 7.9645268418360129e-002,
          -1.6052548136698871e-001, 3.0860938416188111e-001,
          8.5571792173562575e-002, -3.5386119489057948e-002,
          5.6667155018843132e-002, 1.4353417747004688e-001,
          2.2050998135147611e-002, -1.4647212931616066e-001,
          -1.4244148209011159e-001, -1.1922875094952116e-001,
          -5.9699351417667516e-002, -4.8538725567667612e-002,
          -3.9535712511496318e-002, 3.0449854874460509e-002,
          -1.0762390289281881e-001, 1.9073660538590175e-002,
          -4.3727689861654671e-002, -1.2836119835935855e-001,
          9.8104737575388096e-002, -5.2271909828448031e-002,
          -1.9369309212386476e-001, 2.4638276778543924e-002,
          2.7711865088501177e-002, 1.0434084777567609e-001,
          -6.8709092729735508e-002, -1.1146608257740173e-001,
          1.2415058316888686e-004, 5.3346939425725069e-002,
          -5.5250080897416710e-002, -3.3242787549168044e-003,
          1.8216771661133258e-001, -9.5627610511221178e-002,
          -2.9965949774456391e-001, -6.6502167838929760e-002,
          1.8455183956575465e-002, -8.4307983764422514e-002,
          -3.0686932964718118e-002, -3.0182940908693917e-002,
          5.3460272396648321e-002, -1.2092623948867681e-001,
          -1.5678739919509144e-001, 1.7022571362234934e-001,
          -1.1976481938287584e-001, 8.6784734234245930e-002,
          -1.6223605781170235e-002, 3.7625245713629109e-002,
          -7.9665501334801117e-002, 5.1795236625516883e-002,
          1.5777140570167431e-001, 1.5038220680703840e-001,
          4.2048656589839500e-002, 2.5851695787109285e-002,
          3.7914567196660243e-001, -1.3101469162722579e-001,
          6.1451532559903085e-002, 4.6302396721357511e-002,
          1.8805607974713048e-001, -7.6827376206038953e-002,
          1.5190817724662012e-001, -4.3674134029549221e-002,
          1.6909737260710317e-001, 1.9525998552182755e-001,
          -1.9107042842015562e-001, 2.7974607610822261e-001,
          -2.6100966957170017e-002, -8.7871951251574321e-002,
          6.5016604048961604e-002, -6.0317020637929236e-002,
          9.6279908256163935e-002, -1.3765882780350577e-001,
          1.8974515111023041e-001, 3.0510050632687705e-002,
          -1.4423847414855001e-002, -1.3698451273565834e-001,
          -1.0968608295404050e-002, 8.4298289724113462e-002,
          -7.0755922798054996e-002, -4.9188397562719137e-002,
          -6.5463334094990708e-002, 8.0688043431408521e-002,
          -1.6833651605749161e-001, 2.0189310768451364e-002,
          1.4900211619119698e-002, -1.3597417761469555e-001,
          1.8458810154913496e-001, -1.7144532701483103e-001,
          1.3297187104023708e-001, 8.1711439286091606e-002,
          -1.2857567203762268e-001, -8.4499965050660944e-003,
          -1.8344739581355515e-001, 2.8955004938464875e-002,
          1.4834997217862378e-001, 1.0467683270369327e-001,
          1.4118350669905083e-001, 2.4159022880598668e-001,
          -2.4585144370943800e-002, -2.4355550445243197e-002,
          -1.1402977485606029e-001, 8.0458822477404837e-002,
          1.2016615618565291e-001, -5.3168999471299980e-002,
          2.3996666097001990e-002, 1.1591415273508921e-002,
          -1.0107675501283669e-001, 1.1963059098810445e-001,
          -9.2083397282763602e-002, -1.2298330574354918e-001,
          1.1956788382696536e-001, 8.1674564854823717e-002,
          3.9125527181778953e-002, 1.0638211327524212e-001,
          -4.4374875007298621e-002, -6.8482464950761282e-003,
          1.0824592525674483e-001, -2.4476124235281260e-001,
          -3.9046625824406642e-002, -9.6315936597560228e-002,
          5.0986044341391909e-002, 2.1871554364691284e-001,
          -3.0906618490134440e-002, 8.0881706256478600e-002,
          3.8259734646780823e-003, -2.4657473199855243e-001,
          1.9115129756784284e-003, -9.9432941295501759e-002,
          6.0410634233347121e-003, -1.9441487835508442e-001,
          -1.5292078087114128e-001, 1.7168566855426681e-001,
          -2.6673882360911096e-002, -8.6279902604487660e-002,
          -1.6323605433002258e-001, -4.9516924335137352e-002,
          -2.8856338782059859e-001, -3.3054222751956186e-001,
          1.2017059039975470e-001, -1.3683302280598811e-001,
          5.7675987163280713e-002, -9.4411716737327414e-002,
          1.7427855493330235e-001, 5.6336581417213136e-002,
          1.1693209051532839e-001, -2.5759377231671315e-001,
          -5.9729385313536623e-002, 3.1137721303261326e-002,
          1.3566442252607412e-002, 1.0645134210371621e-001,
          -1.4835801136459778e-001, -3.1451666144034197e-002,
          1.9480573794148731e-001, 1.2840073952105313e-001,
          -4.6972876884578109e-002, 2.2175098081558511e-002,
          -4.7955135588509182e-002, -9.2913395780203703e-003,
          -4.1253851406950183e-002, 2.1273490619049346e-001,
          -1.0601633920348846e-001, 1.0608433258568661e-001,
          -2.0794732271902241e-001, 2.1556099551867564e-001,
          1.3252030579964824e-001, -1.6330013433572831e-002,
          1.8954966528919166e-002, 5.3189640964788856e-002,
          -1.2695326877724825e-001, 2.9694492839992755e-002,
          6.3212315719856513e-002, 2.7804835476918911e-002,
          6.2704625986644428e-003, 3.8623959331017697e-003,
          1.9643813978492224e-002, -2.3781959125959463e-002,
          -8.9119134852832918e-002, 1.9198283777236702e-001,
          5.3507545779819789e-002, 8.2239459621076538e-002,
          6.2798177710872927e-002, 1.6199708744169511e-001,
          -3.0174363882695043e-003, -1.0811750827032547e-002,
          -1.9006476931496516e-001, -6.0568880242726546e-002,
          -1.2876026850962946e-001, 6.1626249466282756e-002,
          -6.8026062870690379e-002, 9.4693665752423703e-002,
          -9.0888358691530585e-002, -5.7440278796125288e-002,
          8.7494059150140004e-003, 6.6303447365383461e-002,
          1.1278775576796464e-001, 6.0912581281092004e-002,
          -6.5971973413154628e-003, 1.1412968164444355e-001,
          2.2502554654235640e-001, 7.1849696200287860e-002,
          -1.3149308189623574e-001, 1.5448841967257990e-001,
          -5.7442465168879374e-002, -3.7936567635005421e-002,
          4.4106371967716503e-002, -7.1095755448619902e-002,
          -1.5139286900982873e-001, 6.2675003720969832e-002,
          2.3338835870242805e-001, 1.3676593095051287e-001,
          -7.5988881724961361e-003, -4.9148291485487661e-002,
          -9.2135114452359473e-002, 4.9918137320498733e-002,
          2.4263393428322885e-001, -8.2536468388459960e-002,
          7.2596401081007164e-002, 1.5229887837255840e-001,
          -8.8375096445599599e-002, -2.5757643370335342e-002,
          5.2272918492981433e-003, 2.4405418214202388e-003,
          -1.1311788457684345e-001, 3.4620654861417394e-001,
          1.1673811537545453e-001, -3.3464218702820223e-002,
          -2.9249589551599253e-001, -6.6478212447237381e-002,
          -1.1930133043351664e-001, -1.2532030193081944e-001,
          2.7437890584726038e-001, 1.4288661891421179e-002,
          1.0893444337668076e-001, 8.9014036433830643e-002,
          8.2293961335573214e-003, -1.9933963526549629e-002,
          2.3771034518233088e-002, 3.6898132602170869e-001,
          -5.1143062219055329e-003, 4.6676902928451385e-002,
          -2.0966312788752176e-001, -2.2079555092353695e-001,
          -5.3146428785032680e-003, -8.4063371271891507e-002,
          1.2401678009665587e+000, -2.7008090729287271e-001,
          3.6076249996608267e-001, -2.1756308215663422e-001,
          -2.1317912722899571e-001, -1.0722245038376141e-002,
          2.9369506074324381e-001, 3.4522678916599145e-002,
          -2.1645648840551060e-001, 1.7633707466858991e-002,
          1.2078393097511687e-001, -2.2472823653301705e-001,
          -8.2811541057344271e-002, 3.2105054782356685e-001,
          -7.8981590786576100e-002, 1.0429141466795828e-001,
          -3.0130937249600287e-001, 9.1741357176783278e-002,
          -9.5143890845384646e-002, 2.0876058705110986e-001,
          2.0309255395072026e-001, -1.4308980493521817e-001,
          1.1649613234787562e-001, 1.6902738535918241e-001,
          -1.3199009438192150e-003, 5.1102010159502234e-002,
          1.1389738129897811e-001, -2.8957356131395318e-001,
          -1.2865220967022271e-002, -1.5319811124232113e-001,
          -3.7710037929737594e-001, -1.2367885367871452e-001,
          2.1890320437513189e-001, 2.3414621966933785e-001,
          5.5718598074840697e-002, -9.9899323958076672e-002,
          1.8488747274764988e-001, -1.9755032883887988e-001,
          -1.0274781910466857e-001, 7.4452177342907086e-002,
          1.6547828477726012e-001, -1.1923143674418488e-001,
          -1.2310274916889183e-001, 1.1778471863633280e-001,
          -6.0825395776975488e-002, 1.3261221842982820e-001,
          -5.3585342411091186e-003, 1.0187545082463871e-001,
          -2.9976984143691571e-002, 1.7447124761788954e-001,
          4.7825968472024914e-003, 7.7061033362538736e-002,
          -4.9860258578069944e-002, 1.2917967547249598e-001,
          1.6776407741563495e-001, 5.8326153012854445e-002,
          2.2030580212763928e-001, -9.0085641977655159e-002,
          1.2787519902065880e-001, 7.2158639766974259e-002,
          3.3486389049100712e-001, -1.2671547106854761e-001,
          -1.0081602913481372e-001, -1.1019166504853081e-001,
          6.3785940970571164e-002, 2.9425189609778923e-001,
          -1.2512382490780397e-001, -8.5621707155323676e-002,
          -6.5982274569638621e-002, -7.7527359847935698e-003,
          -5.0561975071231009e-002, 2.7168649258501210e-001,
          5.9877637811238053e-002, 3.2816738583232552e-001,
          3.3878324119831232e-001, -2.1873265064578390e-001,
          8.4747795837499723e-002, -1.0496534734227063e-002,
          6.3952482334791172e-002, -1.4725347498490562e-001,
          1.3972094070064153e-001, 1.2591668711361537e-001,
          -3.2491954764421495e-002, 3.0874021551132429e-002,
          1.4676953989417249e-003, -1.0170609774099792e-001,
          -1.1197724722743034e-001, -2.6765439474713451e-002,
          -2.7095111420868779e-002, -2.7972848098657233e-001,
          -8.5878213311157955e-002, -3.9317581620637317e-002,
          -1.0959711717069934e-001, -4.0985817316115468e-002,
          1.0765508074942219e-001, -7.5421198007489129e-002,
          -2.1862165091359201e-001, 4.7012264259085827e-002,
          -1.5997977596229862e-001, -1.0116007059755050e-001,
          -2.4681728331159905e-002, -4.2577424901336772e-002,
          9.3493650866378702e-002, -3.8632543920679419e-001,
          -2.6202614131274871e-001, 3.5428497931471681e-002,
          -2.4343680720954897e-001, -1.4201082010556354e-001,
          -1.3371905689924451e-001, -2.8828768842136143e-001,
          -1.9205140277389535e-001, 3.6600145460319929e-002,
          9.4523819484198093e-002, 6.5263726742472494e-002,
          -2.1283819734093654e-001, -1.7736925326107866e-001,
          -7.0283844656795907e-002, 2.5731549996800315e-002,
          3.5786712771033624e-002, 1.8617008737841060e-002,
          1.5836733336436296e-001, 3.2749983210846975e-002,
          4.5699262319340475e-002, -3.6539715287036152e-002,
          -1.7382908763888144e-001, 8.0228976093441859e-002,
          4.1443514980798984e-002, -8.5753418809296211e-002,
          7.4875525577749444e-002, -3.3010157220046722e-002,
          1.0941223583276634e-001, -7.6346108900430143e-002,
          -1.6490728766895818e-001, 3.4975914565819155e-001,
          -5.5144248449945678e-003, -5.1226614260892277e-002,
          6.7652801058314307e-003, -1.9949549594905849e-001,
          -2.8474335768336131e-002, -5.3114331257681051e-002,
          -7.6404688696841250e-002, -1.9886261405333641e-001,
          -1.0789046059032845e-002, -2.9936430090132460e-001,
          -5.0582760715436804e-002, -1.1137706853606898e-002,
          -1.5224363839194330e-001, -5.6105943608614116e-002,
          5.1497588940415458e-002, 5.6877711338579141e-002,
          -8.0371382741009648e-002, 9.9172846134840207e-003,
          1.8849697813442778e-001, 2.9049343883734584e-002,
          -2.6650720353121469e-002, 7.2879300132955585e-002,
          -1.5730774919890408e-001, 6.5502511574468306e-002,
          -1.3496231441451900e-001, 1.3657903080676999e-002,
          3.0938086133064029e-002, -2.5603652915978013e-002,
          -1.7300224965198729e-001, 1.2427387316795437e-001,
          -1.2115686684791840e-001, 1.1796596940015934e-001,
          -6.9560092813396946e-003, 2.3363445057336085e-001,
          1.0445709846092370e-001, -1.0223351110329160e-001,
          9.1341350214158096e-002, 2.2386448214848251e-001,
          5.2505278761923756e-002, -1.2324636476528282e-001,
          -1.4803033078964237e-001, -4.1973680560609281e-002,
          7.4851585925234929e-002, -3.5451170103934657e-002,
          2.5088022801615278e-001, -1.1910765455647791e-002,
          -2.2482393372834800e-001, -2.2147282500075555e-001,
          -3.5225170046140991e-001, 1.8412705292674356e-001,
          1.8603388022578597e-002, -2.5776004034576333e-001,
          1.2866170469895497e-001, 2.7838649435621282e-002,
          -3.4610935398475878e-001, 3.8593576996675386e-002,
          -3.0797947777018386e-001, 2.8582276575836940e-001,
          -2.3212299473379894e-001, -7.6632548606937356e-002,
          1.7087469571620248e-001, -1.0893232071113770e-001,
          6.2882222986568093e-002, 1.4914179972760327e-001,
          1.0324776011967467e-001, 1.9746361574808846e-001,
          -1.8332501549917150e-003, -1.5633545446469005e-001,
          6.2660114900397315e-002, 1.1210454436654618e-001,
          1.6130715835298073e-001, 3.2582641130557466e-001,
          -4.7340196189256480e-002, -8.5827022795924662e-002,
          9.5132297153271247e-002, -1.2583899383950686e-001,
          2.0610215214715238e-001, 1.3649837311062413e-001,
          -2.3872867692946856e-001, -2.7877440833757653e-002,
          -2.1660996886943956e-001, 1.9412911917612471e-001,
          -2.6318478919950133e-001, -1.5207813862873104e-001,
          1.5655925201589721e-001, -1.7061411274685781e-001,
          -5.4354754144253427e-002, 2.5178430456642181e-001,
          1.7238174094517988e-001, -8.1630319231330239e-002,
          2.7607916128859655e-001, -1.2806591100697870e-001,
          -9.0949697978825687e-003, 2.5084437238729335e-001,
          -5.2777939307226400e-002, -3.0621167528823956e-001,
          1.6121868151356389e-001, 1.5054854465554449e-001,
          5.6130574209081099e-003, 3.3467616822461954e-001,
          6.0507074486872509e-002, 1.4645609972416071e-001,
          -4.1524938855985828e-002, 1.3051653194939875e-001,
          4.1846186301917554e-002, -2.8851713839758153e-001,
          4.2334244994578235e-001, 2.3837499778142840e-001,
          3.4004555105173216e-002, 3.0795227903494195e-003,
          3.8784050357726119e-001, -3.2276183925765894e-001,
          -1.5320379200104392e-001, -2.4105365519426625e-001,
          9.1773414479002613e-002, 1.0228229964357780e-001,
          2.8108043089772222e-001, -4.3443641396087314e-002,
          -1.2164295515892835e-001, 6.1906659059105945e-002,
          -8.1499738807591759e-002, -8.4096739952551722e-002,
          4.2154751903518778e-002, 6.0416221150318174e-002,
          2.1818201705718682e-001, 8.2133209135711829e-002,
          4.1942532886622606e-002, -1.5704041731498702e-001,
          -2.0237174106236350e-001, 8.8456042263835841e-002,
          3.2966213442616032e-001, 2.4615586843379877e-001,
          6.3556430044072895e-002, 1.7448131084493829e-001,
          -1.5525862584414987e-001, 1.3926821208829923e-001,
          3.5479650506491978e-001, -3.1327881514787259e-001,
          1.1509310615812950e-001, -4.1004402682198751e-002,
          -2.4193837782314814e-001, -5.2780564366903329e-002,
          -7.5789448643902468e-002, -8.3501440970581195e-002,
          -4.8486688136101408e-002, 5.9480753429661977e-002,
          1.7129108215857755e-001, -3.5895742981961985e-002,
          -3.2350019961568410e-001, 2.1984593537959213e-001,
          -2.0315835868932294e-001, 1.3693897106221761e-001,
          2.9161811996507742e-001, -2.0446169328978245e-001,
          1.8106943296984393e-001, -1.6016655731350357e-001,
          7.3684314381207872e-002, -1.6780218366077668e-001,
          -1.3534498797906339e-001, -1.9823547224805846e-001,
          -1.3960885346490795e-001, 7.1914151348414440e-003,
          1.2437804502690003e-001, 7.3001126351530429e-002,
          -1.7558867937987710e-001, -5.5756305756452962e-002,
          1.9913656823775641e+000, 3.2991981552832328e-001,
          -1.0602151610378462e-001, 8.6964027643028990e-002,
          1.2202458600370354e-001, -3.8756866498712544e-002,
          -4.9226853115032686e-002, 2.1217588059679823e-002,
          -2.6267512116388952e-001, 6.8788951849861737e-002,
          -2.7735507848918006e-001, 1.5821083757746451e-001,
          1.5974913502989282e-001, 1.3069001708514133e-001,
          7.7813862488064364e-002, 2.2326397090552333e-001,
          -2.5339326773498255e-001, 1.2882253422854356e-001,
          8.6369798045009591e-002, -1.2243964669981411e-001,
          -7.1411185321602386e-002, -2.8556716187223691e-001,
          5.0647499568356520e-002, -3.1648941525623070e-001,
          -1.6650572840257041e-001, -4.2870216428494097e-002,
          -1.4188676332868447e-001, 4.1473751836775090e-002,
          -4.1460331935721399e-002, 1.2203252704802689e-001,
          -1.9429344029921239e-001, -1.4374893834177874e-001,
          -3.2184500345348921e-002, -1.9380651251446751e-001,
          4.3940461880759216e-002, -3.0472897879621536e-001,
          2.8727853261338748e-001, -2.3297600142986933e-002,
          -1.4780168431070011e-002, 5.9768662749558638e-002,
          2.1306842347063985e-002, 1.4749763239513444e-001,
          -2.8177398844505330e-001, -1.2016788975883333e-001,
          1.5813307858265102e-001, 1.2711201394543731e-002,
          -9.5054499277700474e-002, -2.4647319423440728e-001,
          3.2913716034713031e-001, 1.1335580848984704e-001,
          -1.1319913272336474e-001, -2.0513301042658871e-002,
          -1.7383637730971360e-002, -4.6170785475874818e-002,
          -1.3676019092058830e-001, 1.6179921677755194e-001,
          2.9340966845549470e-002, -8.8165720021539357e-002,
          3.5642664984806546e-002, -3.8713175488004603e-001,
          1.3496363030632866e-001, 1.4042098535579237e-002,
          -6.1341982860867929e-002, 3.4842662378264584e-003,
          7.1985359214602460e-002, -3.6497747630646747e-002,
          -1.9993925165692325e-001, -1.9180206997196667e-001,
          1.8998089817197694e-001, 2.4567444892107285e-001,
          2.1432679133215483e-002, 9.4358509797634688e-002,
          2.0927398038049674e-001, -3.0651327455143585e-002,
          1.5027961005857607e-001, 1.1488834738265805e-003,
          8.4574655561496639e-002, -1.4456107261855872e-001,
          -3.6867612288450807e-001, -3.9402139640549683e-001,
          -5.6413715813748821e-002, 2.8065714663286369e-002,
          -4.0366517904305194e-001, 3.9139432903397992e-001,
          -2.8659473020009860e-002, 1.1286145606790299e-001,
          -1.8292459624731749e-002, -1.2017683327329595e-001,
          -1.5080392561381911e-001, 6.5243916468483709e-003,
          -6.9421099328412950e-002, -3.0994782022128026e-001,
          4.3140317305752157e-002, 3.2061438753076652e-003,
          3.8347443168155926e-001, -1.5213400057355247e-001,
          2.0526531682298987e-001, 2.6863691925120996e-002,
          -5.9572441927356348e-002, -4.6276243911011226e-002,
          -2.8039004995854766e-002, -8.3285987797696148e-003,
          -5.8115037556803625e-002, -1.1604695738783992e-001,
          -4.4677491927542438e-002, 4.6556753944571469e-002,
          -1.3899100184645763e-001, 2.3729233766957697e-001,
          -1.3478449950797192e-001, -1.2585856379224508e-001,
          1.3558797930448530e-001, -1.6801208931121173e-003,
          1.1361404382307014e-001, -1.6396013244168912e-002,
          4.3658250263708465e-001, 7.4042113270248483e-002,
          6.5841449198696958e-002, 2.8240473320259529e-001,
          1.2944565029188568e-001, 5.7103405303457443e-002,
          4.2703874607652387e-001, -1.0131340300574826e-001,
          -3.5431266658179895e-002, -1.0942274202445182e-002,
          -2.4245112038851566e-001, -8.6323641125241546e-002,
          1.0714564633713704e-001, -1.4512987767599939e-001,
          2.6643535116366807e-001, 5.4334642652559295e-004,
          -1.7227196349532609e-001, 3.8814900658163864e-001,
          -5.7612391052407697e-001, 3.1422563086795635e-001,
          -9.3362970534860992e-002, -1.8183415983030965e-001,
          2.4423867872046875e-001, -3.2556342619047517e-002,
          2.1912168255678416e-001, -1.2352698072338757e-001,
          7.6569900745354372e-002, -6.6542743371629728e-002,
          6.2585938250954279e-002, -5.7869949074865125e-002,
          -1.3875006412201063e-001, 2.3425661510086232e-001,
          -3.5065884677941467e-001, -2.4872862859894382e-001,
          2.3983746209944931e-001, 8.7433359796956420e-002,
          3.3001047173902553e-001, -1.0212736841743928e-002,
          1.9404147055918180e-002, -1.1603876358258656e-002,
          -7.0743922929328171e-002, 3.3209362138603669e-002,
          2.0535853957519090e-001, -1.0837140162918202e-001,
          -2.9982176472528393e-001, 4.7035547075855930e-002,
          -8.4149540675431664e-002, 1.0007051793543338e-002,
          -2.0917738706144529e-001, 5.8681801800890103e-003,
          5.4161921065776102e-002, -7.7890165526336708e-002,
          -1.0920329053115772e-001, 1.0701440599770723e-001,
          -5.1500774618543813e-002, -1.3609526637940872e-001,
          2.0992191363922239e-001, 2.3150030102955767e-002,
          -5.7975705049721257e-002, 2.2291719480081077e-002,
          -8.0046361668240237e-002, 4.5864833980134169e-002,
          8.0880664998108226e-002, -7.2028925505990479e-003,
          5.0678783486230016e-003, -1.1753546974120802e-001,
          1.8801948737550856e-002, -4.0830235951171197e-002,
          -1.7793558740413917e-001, 4.1747147266434220e-001,
          1.2477130096497073e-001, 1.9235712149744211e-001,
          2.0885516439765583e-001, 6.6187145694175151e-002,
          1.0037020030775425e-001, -2.7007868877448677e-002,
          -5.1670839013117600e-002, -4.1320034495825775e-002,
          -2.6226335098458429e-002, 9.8926327003851275e-002,
          -4.3344978684097479e-002, 4.4515588030164338e-002,
          5.7135554657209514e-002, -2.3294045500747609e-001,
          5.1017298730916552e-002, -2.8955944397984278e-002,
          -2.6224096182526264e-002, 5.1923023471532763e-002,
          4.7587283341338008e-002, 1.7053218778280820e-002,
          1.1237419653012868e-002, -7.0638150551450109e-004,
          2.6070533189069375e-002, 2.4620488614720458e-002,
          1.3202220643743585e-002, -1.2338720251911015e-001,
          7.3195521461795046e-002, 9.8180925866099028e-002,
          6.2580002033075677e-002, -7.2509808057086178e-002,
          3.3024148738152494e-002, 5.4253209597960990e-002,
          -9.5248275715928116e-002, -8.9260928473967868e-002,
          -7.6691556892596713e-002, -2.2969717563601730e-001,
          -4.9827061527334446e-002, -3.7161535165591814e-002,
          3.8471459261151857e-002, -1.9322304780354269e-002,
          -8.9264282847184281e-002, -1.5900156279682210e-002,
          5.7348053975133893e-002, 1.1420210034486139e-001,
          -1.9986516800109014e-001, -6.6923270998303391e-002,
          1.2613121773052960e-001, 2.9513415334437004e-001,
          -2.8047961504894411e-002, 1.5347143234720065e-001,
          -6.1236071020527106e-003, 1.1026998669409613e-001,
          1.2212267037563586e-001, 5.1610588426681696e-002,
          8.1576042556112619e-003, -5.3329359124560105e-002,
          -2.0518291940796310e-002, -2.7079256599380513e-001,
          3.9542139683384131e-002, 4.5946989555935621e-003,
          4.1706577900894326e-002, -8.8926832245287565e-002,
          4.8487242659574110e-002, -2.9945092158476724e-002,
          -1.1377203997306616e-002, 1.2234687279914716e-001,
          -9.1369577072809183e-002, -5.1373591759996491e-003,
          -1.1446395843169278e-001, -2.1033850099429391e-001,
          -1.0108342982053192e-001, 4.0692257875750280e-002,
          1.7785144559302246e-001, -1.1097845483202352e-001,
          9.7144078237533724e-002, -1.7420383245662147e-001,
          7.7840166819386006e-002, 6.8610807913585897e-002,
          4.4270026594386516e-002, -9.4716546012653238e-002,
          1.1417277327206312e-002, -6.7372352731431620e-003,
          -9.1021478721918181e-002, -4.5790680931704346e-002,
          -3.0835211875257326e-002, -1.9050981196749601e-002,
          -3.4120019443813550e-002, 8.1126420497699761e-003,
          -1.2189341174335809e-001, -9.9893251289001325e-002,
          -1.2087959707390698e-001, -2.6584503422347167e-002,
          -3.6817014837442631e-002, -8.4276595953875988e-002,
          -7.4848636389035147e-002, 1.2122678910457016e-001,
          1.7553312293043982e-001, 5.7273680789195293e-002,
          -1.7547797124205000e-001, 5.8765648381152655e-002,
          1.7917833103672320e-001, 1.4510234319967835e-001,
          1.6188373834550759e-001, 1.6786163686428379e-002,
          -7.8205377928960082e-002, 4.0400632127548016e-003,
          -3.7282613697451901e-002, -1.2353734516374147e-001,
          1.9981832139021487e-002, -4.4142816437847968e-002,
          3.1710364267338836e-002, 1.3980697091207653e-001,
          -4.9274534470387016e-002, 7.6867728174704913e-002,
          -2.8563030868386274e-001, 6.7378241159474744e-002,
          -2.2217622392292689e+000, 1.5401249194538635e-001,
          2.0870822276700882e-002, -1.8659207641054141e-002,
          -3.0351214488428927e-002, -1.0567832069534598e-001,
          -1.5492301663399124e-002, -8.3785238599594202e-003,
          -1.9350430262313023e-001, 2.6494984524489260e-002,
          9.8219789076845157e-002, 2.1464209166493051e-001,
          5.8688509016047365e-002, 1.8976091440908979e-001,
          8.9348131796997105e-002, -1.0723121091238890e-002,
          -1.3170292698610411e-001, -6.3921324361290568e-002,
          1.1118005426294307e-001, 1.5288498622835886e-001,
          2.4570503603790025e-002, 5.3803169981289811e-001,
          -5.3757854192180786e-002, -6.7778478024376990e-002,
          7.0855271346857429e-002, -6.9618618031891358e-002,
          -2.1961557504046842e-002, 1.0123248643893995e-001,
          -1.0795051573788710e-001, 2.6650261476680707e-002,
          1.0417381204841676e-001, -2.3286328264718770e-001,
          -9.7831715473984934e-002, 1.6063013652167804e-001,
          1.1125187071995829e-001, -9.7529357792313517e-002,
          7.5408391903848834e-002, -1.6756650155594646e-001,
          8.3090530673749510e-002, 2.4479331079397124e-001,
          -5.3335276307482790e-002, -2.0628160431042750e-001,
          -2.0195935858125361e-001, -8.5779621835340117e-002,
          -2.1054272595587678e-001, 2.5672896575411618e-002,
          -8.2066987208386608e-002, -2.3368172464779396e-001,
          1.6014387987279957e-001, -2.3680311274398128e-002,
          5.7330395158176062e-002, -8.2246695257358227e-002,
          -1.4944960290912956e-001, 2.5660589221642740e-002,
          1.2767668556307774e-001, -3.8506600518830019e-003,
          9.2550151219299662e-003, 7.0452979503128302e-002,
          5.7515002459650494e-002, -1.2742304995424633e-001,
          -5.9549909725413368e-003, 8.8184103931919805e-002,
          2.6624611970370560e-001, 1.5505186756826298e-002,
          1.7050734394891548e-001, -4.5177806449321053e-002,
          -7.8364612890993932e-002, -1.7359087229441994e-001,
          -1.9518507614681993e-001, -9.5306585519972079e-002,
          -5.0235956959154289e-002, -7.6763719974200395e-002,
          2.9847981099996751e-001, -2.1831827582521970e-001,
          -2.2815638219011297e-001, -1.2768342393439646e-002,
          9.1084273519345949e-002, -1.9165338493742159e-001,
          9.3896354907434407e-002, 1.5282954358467213e-001,
          2.9117317960198746e-001, 4.6809840117802565e-003,
          -1.6871877373487371e-001, 2.3850562312200690e-001,
          1.5469660342696748e-001, -6.3735685789002683e-002,
          5.3921296612816624e-002, -8.6330643218018838e-002,
          1.3276864917600539e-003, 1.0726907905987665e-001,
          3.6947842998513675e-001, 4.3376659860174721e-002,
          -1.3527557406267599e-001, 1.4860859723436865e-003,
          1.9349625905060924e-001, 1.9932273813344084e-001,
          -1.3196054450088435e-001, 1.7319691756493855e-001,
          3.6574821879987546e-001, 1.5535554662300730e-001,
          1.3205311339277642e-001, -1.3508121086149041e-001,
          6.1676543140948364e-002, 1.5167518706779709e-001,
          -6.1275830543748536e-002, -1.5638514375901486e-001,
          -9.7850342551837291e-002, -1.3560862671981927e-001,
          1.0952873734156554e-001, -1.2776332132046417e-001,
          9.3001315933096296e-002, 1.1423331856247294e-001,
          2.3893515998076947e-001, -1.6037971425650252e-001,
          2.2341575378737269e-001, 5.8053598223974982e-002,
          2.8232627940104251e-002, -2.8368512249864636e-001,
          2.9835698806471536e-002, -9.6048874460459815e-002,
          -2.7272680413778727e-001, 1.0864470500645716e-001,
          -1.2527783091023914e-001, -1.7601079964705824e-001,
          2.5748843012549531e-002, -1.3697328233623352e-001,
          -4.8831320025630232e-002, 1.4346509975904467e-002,
          1.3454541145208044e-002, 2.9506591635538260e-001,
          2.7245968612798793e-001, 1.5213095359095227e-001,
          -3.6426566083750783e-001, -4.8419043119045477e-002,
          6.8285786046468455e-002, 2.9642616647552753e-003,
          1.1829742874081220e-001, 5.9130932710207459e-002,
          9.1973603441420845e-002, -4.7853830963612703e-002,
          -3.5864307332913299e-002, 6.9795013135374590e-003,
          -1.3162043090867148e-001, -5.2104844547566066e-002,
          -4.2566472641916292e-002, -2.9839646990217485e-002,
          5.7189596960426103e-001, 1.9218999400117287e-001,
          1.0947423847341728e-001, -6.4880693979259219e-002,
          -6.4807007067240774e-001, -9.0871923680993810e-002,
          -1.0964021703073952e-002, -3.9188056491294601e-002,
          2.1241935803044055e-002, -6.9910843693531941e-002,
          -1.1840659222863496e-001, 1.5034949453871213e-001,
          -1.0505925769513104e-001, 1.8480660437776293e-003,
          5.4587976219406753e-002, -2.4514973422902528e-002,
          -5.9005196068676685e-002, -6.4151111450466258e-002,
          -8.6884768305318549e-002, -9.6914746216118688e-004,
          -1.1742344358318768e-001, -8.9605073953042014e-002,
          1.2726941813564292e-003, 2.0539634045512369e-003,
          1.7967918102189073e-001, 7.3216058632728509e-002,
          6.7370326634967906e-002, -4.3588677276451861e-002,
          -6.2817457409587316e-002, -3.2089909382645096e-002,
          -9.5721026743596102e-002, -3.3752370688391584e-002,
          7.3398777128379888e-002, -1.0769798366089746e-001,
          9.6461768242695284e-002, -7.3717888719960073e-002,
          3.6430362418873062e-002, 2.7392953152717181e-001,
          -6.8854179204725530e-002, 1.2969508010039271e-002,
          1.4293285065039710e-001, 2.3441580066172280e-001,
          6.8135288585973147e-002, -1.4656261394242375e-002,
          5.8985744377525053e-002, 4.9485551274666445e-002,
          -6.2636373324082728e-002, 1.2630016023811735e-001,
          -6.2680874799487793e-002, 2.5305291388988033e-002,
          2.7882400071884691e-002, -3.1382265134534182e-002,
          -3.6002730357199142e-002, -3.8467649317367403e-002,
          -7.3244079055280284e-002, 1.7565051488122899e-001,
          9.0648832908832369e-002, 1.0777014964315795e-001,
          2.4545586540337928e-002, -1.3358046484385367e-002,
          -9.9415132423985881e-003, -3.7158367625857412e-002,
          -5.0596821237188061e-002, 1.6727548510113568e-001,
          -6.7686248483162861e-002, 6.7946427768858203e-002,
          -5.4955460634668871e-002, -1.1044512430096864e-001,
          8.9909796879211520e-003, -1.0422869524502459e-001,
          -2.1794172912401814e-002, -7.4073370214733703e-002,
          -1.1599651045434277e-002, -1.0718183068107399e-001,
          -5.8063128554040500e-002, 8.0964326953763086e-002,
          3.8293875817941130e-003, -8.6316274198738829e-002,
          1.6565737115249862e-001, -6.5267914071596503e-002,
          -1.3338824081430284e-001, 1.6294863778029534e-001,
          1.2291986993679943e-001, 2.0443044802435970e-001,
          1.3985271723567066e-001, 1.8150837052836180e-001,
          3.5191358183878745e-002, -1.2175059405642821e-001,
          -7.7778066607151017e-002, -1.6622394459168952e-001,
          2.1332013059455798e-002, -3.4922233570283234e-002,
          -1.6117039889144597e-001, 1.3611868718586850e-001,
          -1.0899700687127589e-001, 3.4351926956823903e-002,
          -2.1329714249780887e-003, 1.1969826601525058e-001,
          -1.4842652762045763e-001, -1.1623424153296846e-001,
          -1.0142267982024725e-002, -8.2035064054038362e-002,
          -4.9238335788464253e-002, 2.6455746504878568e-002,
          -1.7779563954558128e-001, 1.8894279223959146e-002,
          -4.9611217642135726e-002, -1.3168880226584426e-001,
          -1.0669949326606444e-001, -2.7097784591023986e-002,
          -8.5589681341535259e-002, 2.0936137428273655e-001,
          6.6021241089350327e-002, 3.3740751769689013e-002,
          -1.9346294068508352e-001, -6.7999005977701393e-002,
          4.2285137806448603e-002, -1.9567242164283657e-001,
          -1.1395604645345690e-001, 4.4854978455921332e-002,
          5.3522805914964965e-002, 6.5689046171302307e-002,
          -3.8804677563320289e-002, -8.1343199072372502e-002,
          3.3958661555485242e-002, 3.4659046030395525e-002,
          -4.1856105820382745e-002, 1.2701970406036978e-001,
          2.2834139427267403e-001, 1.6434719361592767e-001,
          9.4432177053452762e-002, 1.6617162195561191e-001,
          -1.0389594031262533e-001, 3.2441927542823427e-002,
          -1.1088340769939047e-001, 2.4973537183794563e-002,
          1.3850029487725063e-001, -1.0335531203017209e-001,
          1.2547607389077295e-001, 5.2831709447594306e-002,
          -4.9471636858602459e-002, -1.9151279285832026e-001,
          -7.0174881287187629e-002, 1.0027183942807723e-001,
          -1.6237150082984177e-002, 8.2969960099504636e-002,
          5.2682205629441835e-002, -2.6779943578837777e-002,
          9.2544969911380726e-002, 8.7435996043206329e-002,
          -1.0991468825822474e-001, -7.1537907054955135e-002,
          3.6335909748244693e-003, 2.0267366562070460e-001,
          3.0851070701435262e-002, -4.1585484851233000e-002,
          -8.3072060450675361e-002, -1.7106279277017272e-001,
          -2.0794540623983331e-002, 1.4661285632073856e-001,
          2.4056295792899521e-001, 1.6822515382602993e-001,
          1.8934049860915814e-001, 1.3553398658412527e-002,
          -2.3259495117921805e-001, -2.6139881254172950e-002,
          3.1282582795533428e-003, -1.2393098987862761e-001,
          1.3674732997729552e-001, -7.6593715936528792e-002,
          8.3324427214640590e-002, -9.8816425578285377e-002,
          -1.3638201069190037e-001, -7.1718034296011368e-002,
          2.4651053607492143e-002, -3.1888959111661196e-002,
          -7.3297068712913194e-002, 7.4242701234240012e-003,
          1.6651555762064247e-002, 1.8522793994458375e-001,
          1.4035440766634683e-001, -1.3807945248247608e-001,
          -2.1138185440336274e-001, 9.2955865337822612e-004,
          6.0882813208883446e-002, 2.1884377072234665e-001,
          -3.3794281308786103e-002, -9.0789099049275568e-002,
          -1.6942129021478186e-001, 2.8709068368427948e-001,
          -1.8336246564093089e-001, 6.0240923891290689e-002,
          9.5710117858884225e-002, -3.5735289507212185e-002,
          1.3257231688064849e-001, 5.5325518182573960e-003,
          2.1992856311761602e-001, 5.6897995539681417e-002,
          4.4441799686405450e-002, -2.0771875016312200e-001,
          7.1203087303997742e-002, 2.3202180105411749e-001,
          -2.2047524923110236e-002, -6.6691240195645554e-002,
          1.3566851769024701e-001, 6.7563281049491761e-002,
          9.9930511574617978e-002, 1.1683150760278548e-001,
          -1.0471974577786225e-001, -3.4193440996677310e-001,
          1.0247477512162687e-001, 8.2598189941097813e-002,
          -4.4173551724792051e-002, 5.5328257154486672e-002,
          -8.8978522588334469e-002, -9.4792020566481131e-002,
          -6.7610701299313361e-002, 1.1772358644322259e-001,
          -2.6106604535180550e-001, 1.5781938153432201e-001,
          1.1013857946057039e-001, 1.0990543411134625e-001,
          2.1606395341858528e-001, -5.1138533154254331e-002,
          2.8136760497625768e-001, 8.3096300625080222e-002,
          -2.3587613116487144e-001, 2.8782416328928265e-002,
          9.8489170848336333e-002, -5.2507286583559715e-002,
          1.3590441056508645e-001, 8.9798079257487604e-002,
          6.3419683684545494e-002, 1.3325984654930700e-001,
          -1.8801079786404581e-001, -7.2260688128207712e-002,
          2.0296088320616257e-001, -2.8043401519730365e-001,
          9.7708637580164764e-002, 9.4215770349201047e-002,
          1.1165460625532635e-001, -1.6101163273716337e-001,
          1.3893411682404647e-001, 1.5978302411852354e-002,
          -1.4085147756304528e-001, 1.5929222638327389e-001,
          -1.5953360034405198e-001, -1.1680983342071230e-001,
          -4.1845189521821718e-001, 1.8745447565143794e-001,
          4.0476260751064967e-002, -2.0986120264855854e-001,
          8.6898213627268822e-002, -1.1169282654183858e-001,
          -2.3245649903417523e-001, -6.8218821166110541e-002,
          -8.4796039171425960e-002, -3.6684365163484106e-001,
          3.4600579975155614e-003, -1.8558775312153740e-002,
          1.8006963189845290e-002, 2.7122132634589757e-001,
          -2.2991014666827450e-001, 1.9432528959978287e-001,
          -1.8516413145701477e-001, 1.1884146362026947e-001,
          -2.9520231919264922e-002, 1.0507436520891143e-001,
          -4.0264527185290228e-001, -8.5328965828411638e-002,
          -1.3075715856188103e-001, 2.9808022911013343e-001,
          -1.4362566664954526e-001, -9.0509607605843354e-002,
          -1.9396384493155830e-001, 4.4722693408510303e-002,
          1.0530782230012534e-001, 2.8192625989974796e-002,
          3.5041349383231563e-001, 1.7809862496643108e-001,
          -8.5302432207807116e-002, 1.4786636112302390e-001,
          -1.3659448582705278e-001, -2.5737395542570352e-001,
          -1.5213329469255146e-001, -3.1850368147468625e-002,
          2.4185634518653609e-001, -1.5481128483190085e-001,
          2.3744289248468955e-001, -6.7831096670278215e-002,
          -1.6544611625273281e-001, 1.1943912176657094e-001,
          -1.9416108894756978e-001, -8.2965792752358186e-002,
          -3.2199776466424315e-002, 9.4414111011031560e-002,
          -2.2925524989284265e-002, 6.0862036900509314e-002,
          1.0607754432500321e-001, -2.8594973688954695e-001,
          1.4279814950901731e-002, 1.7477457054097114e-002,
          4.3124490744246419e-001, 8.6739126192566213e-002,
          -7.0920401371765240e-001, 2.6319409282463435e-001,
          -2.6154471448965289e-001, 1.3662496613152458e-001,
          1.3515742331861150e-001, 2.2536469116215121e-001,
          -1.9703943796350407e-001, 7.6668731155825107e-002,
          2.1675464436773043e-001, -1.8979204845282532e-001,
          -5.5961206808777186e-001, 3.5576930953706792e-001,
          -2.4281029091972264e-001, -1.9212435717378296e-001,
          2.9888551121519352e-001, -2.3707161085632045e-001,
          2.8970945066154263e-001, -4.8134866655956410e-001,
          1.9226738986609479e-001, -1.6241822520960600e-001,
          -2.6314089606043189e-001, 3.4456991656345537e-001,
          -1.4941090454460082e-001, -5.1916755595891251e-001,
          -2.7064596691970527e-001, 4.5379554170459004e-002,
          1.3594153844294232e-001, 3.4934641481403522e-001,
          1.5116544897809663e-002, 3.2083279134074916e-001,
          1.4374011875861341e-002, -4.6476136946460106e-002,
          -4.6157668798205015e-001, -1.7238905723156736e-001,
          4.8060652213694308e-002, 4.1929720839046079e-002,
          -5.7351206131787924e-001, 6.3887109485621962e-001,
          8.4800714600287389e-002, -2.4414062008526149e-002,
          -3.1467944973396972e-001, 2.2924553116023447e-001,
          1.7825947797600025e-001, -3.6700119113122120e-001,
          1.7770385813518852e-001, -3.9976355611661385e-001,
          2.5281790044547159e-001, 3.5871152448479782e-001,
          2.8932616970028452e-001, -7.5928166387775567e-002,
          -1.8778505292149925e-001, -6.0841464181163685e-001,
          4.0523230775952331e-002, -2.1985119480077000e-002,
          -5.3428051646374830e-001, -9.4571440937636655e-002,
          -2.7987310519483566e-001, 2.3661342261142079e-001,
          1.4815743675791321e-001, -4.3186410394019875e-001,
          -3.7064798026396749e-002, -1.2744043394394858e-001,
          -2.3500894179162082e-002, -2.2243984830179336e-001,
          -3.7238276669547921e-001, -1.0564935048060992e-001,
          1.4582750403194708e-001, 1.2809969555916681e-001,
          2.0950415186375940e-001, -6.6063299912346770e-003,
          1.4218154401736616e-001, -1.9334236285218342e-001,
          -1.1225478350083679e-001, -1.2116754322716346e-001,
          -2.5804978171816140e-001, 3.2470467478352827e-001,
          3.1279664372369137e-001, 2.1347722458897120e-001,
          2.1381020171375945e-001, -2.1301991674237167e-001,
          -1.4229185999191807e-001, -2.8614335073883596e-001,
          3.3642943632102607e-001, 1.4822097667999773e-002,
          -6.3495784719727361e-004, 5.7913090209661816e-002,
          2.7930663500748587e-001, -2.0031190910374141e-001,
          -2.4888832356066815e-002, 4.8100426282334102e-001,
          2.0443326607876616e-001, 3.8943419553467383e-003,
          6.9327021387011953e-002, 2.0976544002301994e-001,
          -2.1051488556630166e-001, 5.2864788913448431e-002,
          2.0312615017961747e-001, -3.0278151933173331e-001,
          2.3058283569482166e-001, -9.2721179345089291e-002,
          1.7841556104528225e-001, 3.9665036920151768e-002,
          -5.1084377218417937e-002, 2.3986610533346342e-001,
          1.6866407481642967e-001, 8.9717986884277248e-002,
          2.5129903361372058e-001, 5.9130541347060050e-001,
          -9.2423851863227588e-002, 1.8965585514369843e-001,
          2.9653510279832584e-001, -1.7968703727279345e-001,
          -2.3333259723366079e-001, -1.5925336576682714e-001,
          -3.8541288112764464e-002, 1.1973846780930775e-001,
          8.4301862292589735e-002, 3.7028271812162089e-001,
          -1.2467065222945620e-001, -1.6444945087857743e-001,
          6.7695925183386407e-002, 6.2404563231704985e-002,
          -1.6354315772536394e-002, 6.3632981629406005e-002,
          -1.4581531471471244e-002, -4.9143209978798702e-002,
          -1.0372926070562437e-001, 2.6344809574075390e-001,
          -2.4531778428616563e-001, -9.9499752179346021e-002,
          -4.3415648548047275e-002, 1.7163561427207952e-001,
          5.8207693397580910e-002, -5.0448257114568780e-003,
          -9.0322571878907978e-002, -4.1352158672919102e-002,
          -6.0828246724828644e-002, 5.0873891434120933e-001,
          2.4799386940166121e-001, -1.7732891454255873e-002,
          1.4277287756774656e-002, 1.5827555576916319e-001,
          -2.4278409554181890e-001, 2.4577652822656162e-001,
          -2.2489657248293354e-001, -2.7053795923405266e-001,
          1.4749062675340954e-001, 6.6693516044064968e-002,
          -1.3463200133843595e-001, 2.5111832854196811e-002,
          1.9408419635893209e-001, -8.5765045071837215e-002,
          -5.5190849649061111e-002, -1.1243853365148153e-001,
          -3.8376556332157785e-001, 1.3661158057642098e-001,
          -4.6498557245241635e-002, 1.9296496877267652e-001,
          3.0117456421707328e-001, -9.4722472836592714e-002,
          -2.7745601974897410e-001, 5.1567482380140438e-002,
          1.2265279087623931e-002, 6.5312168421759242e-002,
          8.5733613305989206e-002, -1.0699645634263190e-001,
          -4.0466730644351863e-002, 3.2064941410145571e-003,
          3.1800315559756272e-002, -1.9233618544377365e-001,
          1.3276427437275032e-001, -7.5072167552796901e-002,
          -6.9627591683487491e-002, -2.6773383514721055e-001,
          -6.9526302981809479e-002, -1.2552171470711995e-002,
          -1.8073942114201336e-001, -2.5165583120970583e-002,
          -1.0299787793825491e-001, -2.1782666412778144e-002,
          -5.8971586495680038e-002, 1.4078747341630843e-001,
          -1.0108638558491596e-001, -2.2813934293500590e-001,
          -1.9789039820170243e-001, -2.6334572892594249e-001,
          -1.6254951631622663e-001, 1.3064469101369833e-001,
          -3.1890776784740404e-001, 1.6213433228884515e-002,
          -1.2008475448839689e-001, 4.0143657059071375e-001,
          2.4555142151902754e-001, -4.3819368299097877e-001,
          3.8734471728351628e-002, -4.6549169026149466e-002,
          1.5164628578955897e-001, 3.2913855808569464e-001,
          -2.9653506802304109e-003, 1.8181578328157288e-001,
          -1.3258179827023694e-001, -6.4094474319480871e-002,
          -7.5186218731143825e-002, 1.7435784698031792e-001,
          -1.5544618876728358e-002, 2.9971998621061337e-002,
          -8.3297947303155109e-003, -8.0829374453897124e-002,
          1.1423954518480302e-001, -2.2526297783031488e-001,
          -5.5566902942322978e-002, -1.1922868535759411e-001,
          -2.7638046071287260e-002, 9.2717818745074551e-002,
          -1.0645441178503065e-001, -5.3679822026743325e-002,
          1.4278269685332229e-001, -1.1254645463507166e-002,
          4.4207059618249406e-001, -9.1265772549305971e-002,
          2.7230731306649630e-001, -2.4145773773286067e-001,
          -1.9791003402454335e-001, -9.4941524470700006e-002,
          -6.2367667485926100e-002, 1.7730404547277442e-001,
          -8.8703589786945248e-003, 4.5848569354281898e-003,
          -1.5890241804827912e-002, 8.2803811118166482e-002,
          -3.1531296787461210e-001, 1.1822408236671007e-001,
          1.7442449113751188e-001, -6.4629135474025351e-002,
          -3.6914870932712479e-001, 2.5960133415960146e-001,
          -2.7188122367419110e-001, 1.0132248958087990e-001,
          -8.4752997423982818e-002, -1.6858167614781712e-002,
          2.9383642585076142e-001, 8.2879856587447412e-002,
          4.5521345133600521e-001, -5.9090989910758042e-002,
          -4.8659204665219259e-002, 3.0613263161496701e-001,
          1.7378182893819250e-001, -4.4555185107948113e-002,
          2.5731363053680414e-002, -2.5832042706973996e-001,
          -1.8309534713961465e-002, 3.9526505193503050e-002,
          -2.3683575396619649e-001, 1.0888894936019076e-002,
          1.0712942687239114e-002, -1.2514825510289218e-001,
          -4.9852439796203636e-002, 1.7026685299742383e-001,
          -2.0174460803450284e-001, 1.9345979555909212e-001,
          1.5036438000322813e-001, -4.2807599862212588e-002,
          -9.2146721956284108e-002, 2.0105833150954913e-001,
          -1.4012429658922934e-001, -5.7440230091292073e-002,
          -5.9584543724979615e-002, 1.1397833969269384e-001,
          2.8514404640614326e-002, -5.7361134662497750e-003,
          1.1946452565341786e-001, -5.9779102911755366e-002,
          1.3123352864183432e-001, -3.7405505760477117e-003,
          3.6281756844605169e-002, 1.1663242878026836e-001,
          -8.8120308872492850e-002, -5.9252489630803783e-002,
          -1.6546282471234759e-002, -3.8872445884238876e-001,
          1.2049700321021818e-001, -1.1058137680796701e-001,
          2.0839463568291278e-001, 8.2777964893407538e-002,
          -5.9876275855412220e-002, 1.5517900399242127e-002,
          -3.6949311561257817e-002, -1.1797619309154014e-001,
          4.1013417536496838e-001, -1.2202092808438268e-001,
          1.6506346668116972e-001, 1.4558691952633360e-001,
          -3.4091107010391258e-001, 7.4865882227014555e-002,
          -2.4823309169353419e-001, -2.3176492598663689e-001,
          5.5062001335321138e-002, -8.1263167890128565e-002,
          -2.0301425288979374e-001, -6.1398924886867601e-002,
          -6.6026887482542274e-001, -3.4136848429806015e-002,
          4.5651995326111590e-002, 2.1518882349945082e-001,
          1.1677999435101233e-001, -4.5853862555400762e-002,
          -2.0977494635344665e-001, -1.7177862301700778e-001,
          -5.6302892748951491e-002, 1.4310498484318861e-002,
          1.6036165503490679e-003, -3.3579066229872542e-002,
          1.0738915379053024e-001, -1.5389608356097700e-001,
          -1.1169516114996213e-001, 1.3700721698146179e-001,
          1.5454242274709503e-002, 2.0484491503259118e-003,
          -5.2485358325201015e-002, 1.3273623592866859e-001,
          -5.2207358628429623e-002, 3.1384992681199694e-002,
          6.6363968504237092e-002, -6.6471479259409841e-002,
          -1.4215389853173876e-001, -9.0199481987823821e-002,
          7.4196932688232620e-003, 2.3524599212962066e-001,
          6.4554674437466431e-003, 9.3767515553906788e-003,
          -7.2694641896740173e-002, -7.5181249290286051e-002,
          -2.1702497668825746e-001, -1.2724775600676380e-001,
          1.2458020645099427e-001, 2.4754673148689000e-002,
          2.0213104790942424e-001, -8.0447945040475463e-002,
          4.0887146973256350e-002, 3.3182316994761320e-003,
          -2.6969624136541864e-001, -9.5680668950269346e-002,
          -7.4395284055609065e-002, 5.4650221050462230e-002,
          1.0216919303085330e-001, 6.7507428676820525e-002,
          -9.5335913620480855e-002, 1.2389743669749978e-001,
          1.1207915409502280e-001, 1.0915788582537099e-001,
          -2.8109722391901213e-002, -6.9606129108633397e-002,
          -1.1527303129493945e-001, -3.9318598856669239e-002,
          2.5135409943753739e-002, 2.2839587143507598e-001,
          4.0316460555107785e-002, 4.0423069642035129e-003,
          4.0639132508543251e-002, 1.6986016364375753e-001,
          1.3036888773544453e-001, 7.3791973315395137e-002,
          -1.2200894152708610e-002, -1.2647080668538035e-001,
          1.5993699042888712e-001, 1.4910417869291039e-002,
          -1.2467297760878285e-001, -2.6795791900131708e-002,
          -2.6996105449375724e-001, 1.1322653077817343e-001,
          -6.1949456934223622e-002, 1.2193845498287432e-002,
          1.4421514714699973e-001, 8.3570509747316821e-002,
          2.3455220979515714e-002, -1.9748223600120254e-002,
          1.3393874840746475e-001, -8.9746712495541739e-002,
          -1.5558053903794455e-001, -1.2165916831303306e-001,
          -1.0261535023661340e-001, -2.1618822575830321e-001,
          -4.4186197430812924e-002, 5.5692651484643384e-002,
          -1.4845539149268253e-001, -1.5737966752733412e-001,
          2.7480257342471427e-002, 6.0577284764567488e-002,
          7.9329770978927419e-002, 2.7541734897206602e-003,
          5.0808770766574505e-003, 8.3443495269554958e-003,
          -1.3930649357449515e-001, -8.5672739408403184e-002,
          9.2443364269651648e-002, -1.9085964863138263e-001,
          -3.9748002379020424e-002, 3.0731175992994259e-002,
          1.9294219701389592e-001, 1.4614168400711702e-001,
          2.6178307909419368e-001, -5.4293137459023684e-003,
          7.3170495684325446e-002, 1.2128947058566014e-001,
          2.3341583701970217e-001, 4.1949243397149574e-002,
          -3.2783144234978497e-003, -1.8492987647015643e-001,
          1.8241936792060220e-001, -7.3618178544352833e-002,
          2.6139029371733585e-001, -6.1398276683221183e-002,
          -1.4491610680054190e-001, -1.3606347503698071e-001,
          1.6803227466945361e-001, -1.4231655179820786e-002,
          2.0312671640916169e-001, -2.1872616495704675e-003,
          2.3003677761797285e-002, 6.8315618515814733e-002,
          7.6819751986645882e-002, -2.7739481060451046e-003,
          -9.7840115559874749e-002, 1.4919649628573411e-001,
          -2.6219858906593385e-001, -9.9950416065552369e-002,
          3.1329184412418050e-003, -8.3090745303196947e-002,
          1.1294204270141754e-001, 1.2488617272569913e-001,
          2.7830738826206597e-002, -5.9526410665897457e-003,
          2.6000691546507939e-002, 1.8168694218940465e-001,
          -7.7978603630211141e-002, -1.5098264645746920e-001,
          -8.1210656360684599e-002, 1.1932704758424310e-001,
          1.4360508213861659e-001, 1.5621586779962146e-001,
          -2.0176810917550414e-001, -2.1318792756153856e-001,
          2.0105661317004164e-001, 1.0202738660899814e-001,
          -3.4683654245006586e-002, 4.0864684997294218e-002,
          -7.6075491406803822e-002, -1.7571134739949673e-002,
          -1.8901533051957875e-001, -1.9363746027422701e-001,
          -2.6757774211607271e-001, 1.2385419427190728e-001,
          6.3543525434278575e-002, 6.5324333403129875e-002,
          2.7193368283745967e-001, -1.8734511132682988e-001,
          1.5303201231931494e-002, 3.1026135010077788e-003,
          1.0033093193672908e-001, 6.3770700199855021e-002,
          4.5831150152900436e-002, -1.7428761631788858e-002,
          3.7067491087939020e-001, 3.0108707656699594e-003,
          -1.3562731644211939e-001, 2.8528865795214836e-001,
          1.7554526470654239e-001, -7.3081587796231862e-002,
          -2.1715241553850493e-002, 8.0429638982075100e-002,
          -3.3615766085032833e-002, 5.2587334563505769e-002,
          1.5295621939729323e-001, 1.0616724689009704e-001,
          7.2543698403193260e-002, -9.3295064197884928e-002,
          2.1059373616531429e-001, -1.0693201032141675e-001,
          1.2070988587940867e-001, -1.3462502600066224e-002,
          -5.3972295781220044e-002, -2.6092368757884322e-002,
          1.4059634435715265e-001, -1.3043367900897929e-001,
          -3.3247134261375068e-003, -1.0233351313164268e-001,
          9.8409907398038579e-002, -8.6934814614074804e-002,
          1.0958022443606767e-001, -8.3122110433244953e-002,
          2.6254183127699043e-002, 6.3636024557239407e-002,
          3.0551582016266326e-002, 5.4035009827463398e-002,
          7.3237802703850718e-002, -8.5045038034959192e-002,
          -1.6984560127927747e-001, 4.1277524128799196e-002,
          3.7510852591530482e-002, 2.5764589770416998e-002,
          -4.2968582531435817e-002, -4.3044490871887116e-002,
          -1.9349542053589397e-001, -5.8891107805469349e-002,
          1.9240561047452046e-002, 1.3744245623182948e-002,
          8.4546468102511943e-002, -8.7732310088274951e-002,
          -1.3677376297939831e-001, -1.8628337115681182e-001,
          1.0648915019633361e-001, -8.4595177428538728e-004,
          -4.8301009608598530e-003, -1.3190879859874499e-001,
          -4.8603430621636294e-002, 4.2714637312001889e-002,
          -1.3330906427628866e-001, 7.0181478869440039e-002,
          -9.6900032773726955e-002, 3.5711253235936602e-001,
          -1.4284475688635973e-002, 1.7782804248066700e-001,
          -1.2458679175930486e-001, -5.1783279752727798e-002,
          9.4507797157418832e-002, -1.8320216286663951e-001,
          -1.4141097451700621e-002, 2.7171886683539623e-002,
          -8.5172538634809294e-002, -1.0141128051402752e-001,
          -2.1239828895137890e-002, -1.6459694017448503e-001,
          5.5747929120112318e-002, -3.4899393359262051e-002,
          7.8165442753588887e-002, 2.5637088218299412e-002,
          -4.7704679008434878e-002, -5.3736884464659698e-002,
          8.4035535653880999e-002, -4.0330646274990653e-002,
          -9.7702776829661428e-002, 8.7186578726406283e-002,
          -6.5259911805423065e-002, -1.3251039387421695e-001,
          3.6493685233165561e-002, -2.2043836589986077e-001,
          1.7420352921817279e-002, 2.5934502330362613e-001,
          -1.5444433729307186e-001, 2.0561442431639768e-001,
          -1.9873799996502978e-001, 9.4566380210504689e-002,
          -2.8298192844883972e-002, -3.3862031337413709e-002,
          -1.3403557317360171e-001, 7.7815743369726090e-002,
          3.8309869785276035e-002, 1.0371833541168553e-001,
          -9.7582491982361921e-002, -4.9489701051065350e-002,
          -1.3612248100929916e-001, -9.1026383346698950e-002,
          -1.5355350452006528e-001, 1.0251449927013112e-001,
          6.1021139430452308e-002, 3.7175528789329887e-003,
          2.3889593844103033e-001, 1.1057562115533404e-001,
          -9.6160398621579282e-002, 1.9080396791276037e-002,
          9.6625020064605341e-002, -5.1424204370998462e-002,
          7.6882659700409292e-002, 4.3522337930618986e-002,
          -6.2159458447058481e-002, 3.3528670027738468e-002,
          1.2099343869372751e-001, -2.3026167529755048e-003,
          -4.5031593986803127e-002, 1.8075120863567499e-002,
          -5.5891077135831899e-002, -4.5129981674926047e-003,
          1.0150529618505882e-001, 9.4749466767545920e-002,
          1.6619614968719276e-002, -5.2003377889575417e-002,
          4.8269379298062701e-002, -1.6711227915883936e-001,
          -1.2824185763376167e-001, 4.1036022547513810e-002,
          -7.4051977670398497e-003, -1.0295318334658798e-001,
          1.7993070478398979e-001, -2.3278902829217567e-002,
          2.7974653597226468e-002, 6.5491965046151707e-002,
          -4.2480482691936230e-002, -2.2552516382243815e-002,
          1.1088996339350073e-001, 5.8731376467443079e-002,
          -1.6480087951140159e+000, 9.1028725082469064e-002,
          1.3900614256413294e-002, 9.7377224639307078e-002,
          2.2112152971089781e-002, 2.5065694488750245e-001,
          1.5615636364975222e-002, -1.2162304989436654e-001,
          -7.1057693127345847e-002, -6.4994209562348693e-002,
          6.9409447457349921e-002, 2.6472538581395771e-001,
          2.1472184058791602e-001, 7.4258566086085817e-002,
          5.0709487727878332e-002, -4.6597276378353772e-002,
          -1.0750056717968408e-001, 3.8419274301708349e-002,
          1.4351181906465824e-001, -9.4644203014143766e-002,
          -1.9449777379338163e-002, 1.6080756807751634e-001,
          -2.1634883015827533e-001, -1.1955755398381167e-001,
          3.4104962135675390e-002, 2.0799197718639800e-001,
          -1.9836680436981335e-001, -1.9285183694684075e-002,
          -2.2444134530253862e-001, -1.1890382047748280e-001,
          3.7993571919628752e-002, 8.4032981291640805e-003,
          -4.7544079558469043e-001, -1.3991320121082290e-001,
          5.6442357740537762e-002, -2.2342756625548649e-002,
          9.6975079311624107e-002, -1.7151628999871213e-001,
          -2.6316396519039203e-002, 1.7164227649226910e-001,
          1.7145730425146852e-003, -1.2979501990066111e-001,
          1.3682891605163668e-002, 8.3975999755493705e-002,
          -6.5122021485059509e-002, 9.2817024564963810e-002,
          2.1684868519290551e-001, -1.9341629649322067e-002,
          1.0884129479888414e-001, -4.9459401504387691e-002,
          3.4571073812214317e-002, -5.6326838653970090e-002,
          -1.4700968028687930e-001, -1.2545389640565893e-001,
          2.4883434681883962e-002, 1.5342061261652626e-001,
          6.6555110602077666e-002, 4.5466253632104006e-002,
          1.4903762251205735e-001, -1.4020357825333532e-001,
          -3.1198823794828509e-002, -6.7229133079291115e-003,
          1.9380387575038879e-001, -1.7475613552824495e-001,
          4.6489777302873229e-002, 5.8664717461347389e-002,
          -6.9749800796569270e-002, -5.5390436109548601e-002,
          4.3287170512989012e-002, 1.2827509927408720e-001,
          1.5149692652104014e-002, -3.2054430854947114e-001,
          5.3303506456977706e-002, -3.7047415198056634e-002,
          -2.4608440807070947e-001, 1.0379109021069959e-001,
          1.2430966437757467e-001, -3.8711820975307204e-002,
          7.1415893289899265e-002, 2.4344215823736542e-001,
          -4.7170300078315748e-002, 1.5531302949346315e-001,
          6.5979818710220003e-002, 1.5009328810942291e-001,
          3.9254273980144402e-002, 8.6644296403678399e-003,
          -5.5403832432676450e-002, 1.2425062977390941e-001,
          -5.5294609357761329e-002, 3.8078991723215293e-002,
          3.5732960638008732e-001, -1.0983487887311809e-002,
          2.4837583415534661e-001, 3.6578227585325092e-002,
          1.7171987156376925e-001, 4.1181804497107766e-001,
          7.5505278407450430e-002, 1.1788971872503591e-002,
          2.2244908477163461e-001, 1.1920847705322864e-001,
          1.7526783830789819e-001, -6.9762808510799579e-002,
          5.2007030096822809e-002, -2.3756873851640430e-002,
          5.3268813971334095e-002, -1.3318224411670346e-001,
          -6.4191648414558322e-002, -3.5909731993443272e-001,
          8.0264210405739996e-003, -1.1204457625152142e-001,
          3.5618489074255376e-002, 8.6164795359851332e-002,
          1.3377839328022503e-001, 9.1307053327365481e-002,
          -5.2814612890391494e-002, -9.0119934623417233e-003,
          -8.7033884851296830e-002, -2.8532217719745001e-001,
          4.3280395022380895e-002, -1.7742120016104426e-001,
          -3.8932822364542166e-002, 2.2592352836522003e-001,
          9.5812290837704144e-003, -1.5908196816399586e-002,
          -6.5939623002844436e-002, 2.0474755630197052e-002,
          -2.5431165570835390e-001, -7.5404470886803007e-002,
          -1.4687027076308376e-001, -1.5379652924988063e-001,
          1.3416211472442133e-001, 1.2601830045280105e-001,
          -3.0414055247153471e-001, 1.2361383549225594e-001,
          -3.1929383394770106e-001, 9.9094944253114811e-002,
          1.0424603385716566e-001, -9.0989101940547781e-002,
          2.1634885583216908e-002, -8.9461603805123607e-002,
          1.2336291763680825e-001, 1.4184592061474655e-001,
          -9.1882940862274179e-002, -1.3696500657366170e-001,
          -9.5421426262672485e-002, -1.0346626641217315e-002,
          1.4836389552935270e-001, -2.6382069036114751e-002,
          -1.7615924390116427e-002, -1.3135264904394220e-001,
          2.9141442246335809e+000, 1.5997570937628311e-001,
          -4.6888225852445384e-002, 1.2163779762883786e-001,
          5.1862375460987109e-001, -1.9923517530558330e-001,
          -2.4409260035694495e-002, 2.3021321734262160e-001,
          1.1858800232622707e-001, 1.4039609959126911e-002,
          9.7406628360475297e-002, 7.3497362254755991e-002,
          3.6589725303975679e-001, 2.7904919069740679e-002,
          -1.6913106363178745e-001, -1.3691848437453644e-001,
          2.3932323385320864e-001, 1.3645966748467869e-001,
          1.0428832943531192e-001, -5.3500632592367911e-002,
          -3.0700674327376942e-001, -9.5311134128254871e-002,
          1.3866494376033975e-001, 2.9353488882355006e-001,
          -1.5487444797111359e-002, -2.4326541921831885e-001,
          8.8753676001949736e-002, -6.0731009519295324e-002,
          -2.5652069207421813e-001, 1.5570817339996049e-001,
          4.1742091242785523e-002, 3.7542894918011153e-002,
          2.2902832447637864e-001, 2.8355111535656948e-002,
          -2.4336356214053936e-001, -1.0864836537378358e-001,
          5.0125958671767203e-002, -1.3359377192672247e-002,
          6.0897871782498815e-002, 1.2433560644624582e-001,
          -1.0699149047873318e-002, 2.6270203312104684e-001,
          1.1230235121242460e-001, 1.1265239608167331e-001,
          1.0653803218195035e-001, 1.5161902133326674e-001,
          1.1695443279959557e-002, -1.9736247246823604e-001,
          -2.2100025637436893e-001, 1.7866669571063837e-001,
          -7.5305867768392003e-003, 3.2937112921883638e-001,
          3.6784392803534210e-002, 2.9923215602997825e-002,
          2.3097043678119270e-002, 5.3585737026517295e-003,
          -2.3604744744142779e-002, -7.8521812286810488e-002,
          -2.0819568048225884e-001, -4.9096465436366102e-002,
          -5.4874453732143100e-002, 1.2447060047907606e-001,
          -1.6758837384597355e-001, 3.7829512249985914e-001,
          3.6430525206612059e-002, -3.0374902262785597e-001,
          -1.7562060784402818e-002, 4.3440843730126993e-001,
          -3.4880940144504116e-002, 1.5264526767377748e-001,
