%YAML:1.0
my_nn: !!opencv-ml-ann-mlp
   layer_sizes: !!opencv-matrix
      rows: 1
      cols: 4
      dt: i
      data: [ 300, 150, 75, 18 ]
   activation_function: SIGMOID_SYM
   f_param1: 5.9999999999999998e-001
   f_param2: 1.
   min_val: -9.4999999999999996e-001
   max_val: 9.4999999999999996e-001
   min_val1: -9.7999999999999998e-001
   max_val1: 9.7999999999999998e-001
   training_params:
      train_method: BACKPROP
      dw_scale: 1.0000000000000001e-001
      moment_scale: 1.0000000000000001e-001
      term_criteria: { epsilon:1.0000000000000000e-008, iterations:100 }
   input_scale: [ 1.6588096178959748e+002, -5.6893469519118400e-001,
       2.8709960765814549e+002, -5.2126723206461090e-001,
       7.2287187262833541e+001, -7.7898627702347345e-001,
       1.5997101377785728e+002, -5.7686442887604694e-001,
       2.0845595798899899e+002, -7.6951799158770284e-001,
       2.4810740213845779e+002, -4.9688422268649557e-001,
       2.5005606912383038e+002, -5.5482610778547514e-001,
       1.6195365735963375e+002, -6.9909473962450597e-001,
       1.4031791211824586e+002, -6.0078433592983072e-001,
       1.9525829242531066e+002, -6.6466675588953927e-001,
       1.3905056171745338e+002, -5.8045201132122859e-001,
       2.8696668988547032e+002, -5.1709010856589577e-001,
       2.9690654090614345e+002, -5.0888596313339696e-001,
       1.7532727719181406e+002, -5.1177549563128799e-001,
       3.1326286763650347e+002, -4.3357007132665226e-001,
       2.2093013610781910e+002, -6.3227351935205378e-001,
       1.5484829235096836e+002, -8.1617901435146512e-001,
       1.6791221272041437e+002, -4.6215116284957458e-001,
       5.6809925620243241e+001, -1.1009700727754272e+000,
       3.1329120780470953e+002, -5.1280849912631177e-001,
       1.6909405619713576e+002, -4.7371134701404599e-001,
       1.2938686309342566e+002, -4.7026594549117740e-001,
       1.8146192996821458e+002, -6.4887412448744619e-001,
       2.8627086725832288e+002, -4.8426362064643541e-001,
       5.6063819081127804e+001, -7.9658126723443856e-001,
       1.3784057687626594e+002, -6.9881946412350360e-001,
       2.1034629532949381e+002, -7.1955077987626637e-001,
       7.9222603637851549e+001, -4.8756347016252310e-001,
       2.4307934744178593e+002, -5.7755599975446026e-001,
       2.3462448943449905e+002, -7.7374413679076970e-001,
       2.1526472806510773e+002, -6.6703092391576757e-001,
       2.4378963140000332e+002, -4.9940616406510790e-001,
       2.8007163137309720e+002, -5.1199574862334962e-001,
       2.4880586589632739e+002, -6.0175567781614736e-001,
       2.4689874770735494e+002, -5.8449858342034577e-001,
       2.1902132139264890e+002, -5.7271400581270915e-001,
       2.7180216779394988e+002, -5.0440691872337406e-001,
       2.2649833795493731e+002, -6.2901107988006344e-001,
       1.5995106024083245e+002, -5.6915638500302601e-001,
       2.7151752101831306e+002, -5.8537055631754031e-001,
       2.5286486871551281e+002, -5.5745420811228474e-001,
       1.1751836793647620e+002, -5.9240430329483207e-001,
       2.8516102341475374e+002, -3.0573513560036203e-001,
       1.0287949350842979e+002, -1.0575274060612494e+000,
       2.1344469615677417e+002, -5.9336342720368174e-001,
       2.4549417072177604e+002, -5.9900575308677528e-001,
       2.6518765571344306e+002, -4.7762230613699264e-001,
       2.6320473553520367e+002, -5.0742397214084844e-001,
       1.8087510498013521e+002, -7.4680168111571676e-001,
       2.7175167032009938e+002, -6.0224411744926098e-001,
       1.0910479514351839e+002, -9.6788013467303280e-001,
       2.1869348917009015e+002, -5.0756858589809384e-001,
       2.8538353992533087e+002, -5.8161921326497090e-001,
       3.0013121293299508e+002, -4.2402165630682831e-001,
       2.3961240264937976e+002, -6.0006156151049006e-001,
       1.9696212381368812e+002, -5.4220025764102886e-001,
       2.7889084090030730e+002, -5.0723192594186706e-001,
       2.8029276790284018e+002, -4.9429260592728791e-001,
       3.5569170713954276e+002, -4.4696824414058722e-001,
       2.7722487179209452e+002, -6.2401813380053406e-001,
       3.9539402682508459e+001, -6.1881884834142531e-001,
       9.4685756511693228e+001, -2.2032244500210502e-001,
       2.6897896552038651e+002, -6.1113541585676223e-001,
       1.7757937131960992e+002, -5.5319489620384066e-001,
       3.1744475349998407e+002, -3.7307307216715913e-001,
       1.8321809225568450e+002, -6.5728634240226935e-001,
       9.5187240790816219e+001, -7.1728331313434857e-001,
       2.0787144825271739e+002, -4.9507686090818082e-001,
       2.6394860128128107e+002, -6.0399174207806272e-001,
       2.1239808431720326e+002, -5.2288666771150294e-001,
       2.8023905762423675e+002, -4.5777088661389326e-001,
       1.5273382355233036e+002, -2.5767900086840673e-001,
       1.9775839343296747e+002, -4.9036107765635434e-001,
       4.0196711576987603e+001, -6.3971235607809207e-001,
       1.9598037661821354e+002, -4.4544208216797032e-001,
       2.2476150644000967e+002, -4.7788142788500448e-001,
       8.3681269919898156e+001, -5.6623558179666533e-001,
       1.9258652488944429e+002, -6.7211725531705246e-001,
       2.0153044615198439e+002, -6.6570093219014592e-001,
       1.3017732787952016e+002, -7.2207662313561749e-001,
       2.5953034103392343e+002, -4.8968159364926112e-001,
       2.2801168283426864e+002, -6.3115924039074134e-001,
       3.1790082061209205e+002, -4.7728782979805628e-001,
       2.7483923111573841e+002, -5.1183657736330124e-001,
       1.1631147099037165e+002, -9.6289903867560378e-001,
       3.0694760739253763e+002, -5.7411079294196965e-001,
       1.5665167877189927e+002, -4.9980545006678306e-001,
       2.6858041026401582e+002, -6.1394403795749453e-001,
       2.5046855512423451e+002, -5.7528545479502002e-001,
       2.1470583569768414e+002, -6.5347505347608048e-001,
       2.6674443506952684e+002, -5.5131471451951819e-001,
       1.1056121020259108e+002, -7.3489295579741676e-001,
       3.3991476638665165e+002, -4.3788599425527686e-001,
       2.0518070408781242e+002, -6.8424418549344601e-001,
       3.2713480734480117e+002, -4.8367469491140547e-001,
       2.4476591154159240e+002, -5.6014751164393695e-001,
       2.0171072589336612e+002, -6.5031558892102426e-001,
       2.7799363153378545e+002, -5.2622924800068338e-001,
       1.9897249571377705e+002, -5.1279197927072218e-001,
       2.5664177524630975e+002, -5.2676503962942800e-001,
       9.9628397177876167e+001, -6.7332872180356762e-001,
       2.1231053509183118e+002, -6.4981968239769905e-001,
       2.0876899293922870e+002, -5.1393914208961267e-001,
       2.3336444685928998e+002, -7.0329688696900938e-001,
       2.1409833976308724e+002, -4.4055431349975688e-001,
       1.8586788296681695e+002, -7.1413285584161312e-001,
       1.3046926685038935e+002, -7.4136477286587488e-001,
       3.1575094242765448e+002, -5.1986373098966376e-001,
       2.8861865080684572e+002, -5.5971426842045435e-001,
       3.0010364426451576e+002, -4.8200185631684833e-001,
       2.8066530786253026e+002, -4.3246016496845618e-001,
       3.0772996701990837e+002, -5.1293464200731120e-001,
       2.8374735791344233e+002, -5.0310266970848649e-001,
       3.2378341304565009e+002, -3.6889059464197493e-001,
       2.4614631191108481e+002, -5.8209478836304152e-001,
       1.9720002331348033e+002, -5.0372239196785984e-001,
       2.4961648437288142e+002, -4.6246519832571353e-001,
       2.7222429154457495e+002, -5.3366071061596143e-001,
       1.2272949500749964e+002, -5.1714858460531210e-001,
       2.3972307178361066e+002, -6.0468707881572703e-001,
       2.2722273151604438e+002, -4.7991554862994895e-001,
       2.6432650855825591e+002, -5.8028771423366421e-001,
       1.0679810832769981e+002, -5.6275867241057642e-001,
       1.6954478618021281e+002, -6.9403770348185978e-001,
       2.3422546739469425e+002, -5.2329727703130036e-001,
       2.8439751239516204e+002, -5.4818709359631723e-001,
       2.0047844195766379e+002, -6.1766928758224282e-001,
       2.4609338886552840e+002, -4.8289687088629318e-001,
       1.2706088310353230e+002, -8.5909367580215379e-001,
       7.1543653351260474e+001, -8.2393100513849349e-001,
       2.1585897215294526e+002, -4.8295630116824967e-001,
       2.3775963542050556e+002, -6.1341774798932613e-001,
       2.7035463582726180e+002, -5.3511135315115410e-001,
       2.6035233992588735e+002, -5.0043919397986214e-001,
       2.7167878941640947e+002, -5.6840267353526042e-001,
       2.5594816049110440e+002, -5.1750768846391171e-001,
       2.8408138932261687e+002, -5.6499229382225047e-001,
       1.5460658936408447e+002, -5.6919722792611649e-001,
       2.0921143619137621e+002, -4.4731707628911926e-001,
       1.0146924037465968e+002, -7.0567950719040939e-001,
       1.3040480991462243e+002, -6.4944758695476934e-001,
       2.7587216895391339e+002, -5.1736940696043443e-001,
       2.2546160160266820e+002, -6.7090438923871121e-001,
       3.1611900369485500e+002, -4.8626063866349478e-001,
       1.6769223641956009e+002, -5.3535569108628178e-001,
       1.4828840821971647e+002, -8.8590494470783865e-001,
       3.1224909967236255e+002, -5.3450041682431271e-001,
       2.1952743208542688e+002, -5.6053769234350970e-001,
       2.0861664836190781e+002, -6.8426542911034405e-001,
       4.2222464755641403e+002, -3.5703931260003269e-001,
       2.4278608718847022e+002, -6.2530384825623742e-001,
       2.4620866157480205e+002, -5.4133419029424723e-001,
       2.0699717735841367e+002, -4.9419105680571318e-001,
       1.4443629596804973e+002, -5.2205217967573325e-001,
       1.9718203617082676e+002, -5.2566252364409427e-001,
       2.5885814387473567e+002, -5.0636254458270014e-001,
       2.3654704232120685e+002, -6.8340579419420655e-001,
       2.8999110056505697e+002, -5.7919260846296539e-001,
       2.6821254350288751e+002, -5.4102454242554165e-001,
       2.3101808785763635e+002, -5.0404314569424580e-001,
       2.5952987983904092e+002, -4.8276258605622352e-001,
       2.4478478252181714e+002, -5.3225152187884783e-001,
       5.2707091803713674e+001, -7.8185064251730407e-001,
       2.7637905651327776e+002, -5.2660734636116846e-001,
       1.7144255493612494e+002, -6.5175726194840589e-001,
       2.8289363773496979e+002, -5.2109621052177069e-001,
       1.6739904718006457e+002, -5.1903284310087960e-001,
       1.7932519817588317e+002, -6.0071761859998218e-001,
       2.4250613251222450e+002, -5.5903973795006712e-001,
       2.4345203447961597e+002, -4.9609185845170661e-001,
       2.5183112548502339e+002, -6.0597015056492320e-001,
       1.4239683637875677e+002, -6.3918491015241097e-001,
       3.0921168766465374e+001, -7.9082413957234976e-001,
       1.0716837124586334e+002, -4.4811390018669500e-001,
       2.9023388132946837e+002, -5.3861052316712932e-001,
       1.3144062637431963e+002, -6.8805271534161416e-001,
       1.7121404652871735e+002, -7.8503838687622540e-001,
       1.7067054965623694e+002, -7.0953230783187815e-001,
       2.3652748222522831e+002, -4.4011407489366217e-001,
       4.1157034443400505e+002, -3.7906922442135987e-001,
       2.0780241176357958e+002, -5.4313829650032208e-001,
       2.2089300159570894e+002, -6.3549382024586321e-001,
       9.9834246062757785e+001, -1.0685545356729853e+000,
       2.6595750422604596e+002, -4.6322988766448703e-001,
       1.4503697708894907e+002, -5.7878292696327893e-001,
       3.0275952465479418e+002, -5.3730887685001683e-001,
       1.8704130777689159e+002, -5.4550846521967944e-001,
       1.7065184546752030e+002, -6.2582196980959204e-001,
       6.7202785706078416e+001, -5.7933268584264042e-001,
       1.7319214687539088e+002, -7.8747983723456561e-001,
       2.6389891179386512e+002, -5.5681548349065180e-001,
       1.2275674306833157e+002, -6.5681554429385502e-001,
       2.8886007550975575e+002, -5.5413425223438484e-001,
       1.7951608035371765e+002, -5.3952145362550041e-001,
       1.5927682367620380e+002, -5.4632674767625800e-001,
       2.9141494470992251e+002, -4.2789989930612449e-001,
       2.8337499747939654e+002, -4.9633485078888245e-001,
       2.1458303529238739e+002, -4.4209887429711375e-001,
       1.8040073573236029e+002, -6.9690931300627457e-001,
       2.2161979357822747e+002, -6.3181992975720869e-001,
       2.1093180429814845e+002, -5.2767894145868921e-001,
       3.3066484605243903e+002, -5.4426438183435288e-001,
       2.3028002185216306e+002, -4.9915776386520044e-001,
       2.8037037512046555e+002, -4.8256421462870835e-001,
       2.6736102533971530e+002, -5.5509600970743533e-001,
       1.8326381318147290e+002, -5.4804132488994894e-001,
       2.7522799051546934e+002, -5.3142715730489465e-001,
       2.2995863125897174e+002, -4.8269194210937605e-001,
       2.1318843246881571e+002, -5.9932030170851069e-001,
       2.0043287788484398e+002, -5.3071306799491136e-001,
       2.9358633085774346e+002, -5.5939244059561377e-001,
       3.0007955876484095e+002, -5.7710803329646720e-001,
       3.0524020972944089e+002, -5.5418955464739117e-001,
       2.7672769932543025e+002, -5.1366066534616972e-001,
       2.1679982975158930e+002, -5.4452323892555454e-001,
       1.8765765679464178e+002, -6.2679561812681417e-001,
       2.1331736273150730e+002, -4.5753483006612616e-001,
       6.0299487335251072e+001, -8.9178181416319968e-001,
       2.6968856821758902e+002, -5.5585394291311008e-001,
       2.8372403828788060e+002, -4.8900801753545264e-001,
       2.2782317650092250e+002, -4.9183725986584259e-001,
       2.1466876883298414e+002, -6.7443654273063525e-001,
       2.1581547015290352e+002, -6.7083744752005825e-001,
       1.4438773833061632e+002, -7.3748986482911416e-001,
       2.4564557374650673e+002, -5.1989841598875974e-001,
       2.4007272323583223e+002, -5.2244239159991135e-001,
       2.1791825359286963e+002, -4.7847758184824662e-001,
       2.6544993728689440e+002, -5.7117044917014415e-001,
       2.0640664105867708e+002, -4.6904384634680329e-001,
       2.9611565485673094e+002, -5.0288490740993952e-001,
       2.6346369803432879e+002, -5.9074502385773853e-001,
       1.9254059714662893e+002, -4.3514655955741977e-001,
       2.6303339148924294e+002, -5.7782746013742703e-001,
       1.7955875985637627e+002, -7.0777820621073440e-001,
       2.4344899289355129e+002, -4.0991296811758710e-001,
       2.5753045785063387e+002, -5.2494415562507024e-001,
       3.0387616905908067e+002, -4.9682202297399586e-001,
       2.2322171817315507e+002, -7.2741645089039919e-001,
       1.7906461852206155e+002, -5.0654236113556395e-001,
       2.3025422425952118e+002, -6.1885529172721121e-001,
       1.3221042683753163e+002, -6.8896008614701620e-001,
       2.6273549791870153e+002, -5.0184660147727589e-001,
       9.6011607308613421e+001, -6.2733309215351019e-001,
       2.8700867427510684e+002, -4.6515133747593101e-001,
       3.5601276908841675e+002, -4.5237608602351020e-001,
       3.3167596134367278e+002, -4.6254323695319599e-001,
       2.4646760376651574e+002, -4.1753658263850935e-001,
       2.5764860422513198e+002, -5.5669816916356418e-001,
       1.6616363247404331e+002, -5.4265945066358090e-001,
       2.2380221178928085e+002, -7.0798203839436613e-001,
       2.1580163526541460e+002, -5.4756608289438879e-001,
       1.6908416736837509e+002, -2.9298531778379588e-001,
       2.4280938051681125e+002, -4.9466889318442991e-001,
       3.2847333217405570e+001, -5.4665535592843040e-001,
       2.7735110751933024e+002, -5.3419640029028537e-001,
       2.3081798302928016e+002, -5.1656313284514588e-001,
       1.6249471903736756e+002, -4.0643347084041559e-001,
       2.7647841362600002e+002, -4.6526124236741162e-001,
       1.7781450598925412e+002, -5.9669228613342973e-001,
       1.5606155510263500e+002, -6.3197231805998022e-001,
       2.5914196226942573e+002, -6.2167969106345167e-001,
       2.6417531276758234e+002, -3.7687523228187880e-001,
       5.4673947077909595e+001, -6.6442542837154894e-001,
       9.4532788300932523e+001, -7.2894393439854133e-001,
       2.3789211237561850e+002, -5.6553409482213080e-001,
       3.8529828451113229e+002, -3.3884059870496108e-001,
       2.8805003688998278e+002, -4.4836006752931756e-001,
       2.2375383725486836e+002, -6.9386322747650320e-001,
       2.3092959225500658e+002, -4.3207961942426276e-001,
       2.7511290714889674e+002, -5.5726854138650783e-001,
       3.0298980223472608e+002, -5.6042012089549742e-001,
       3.0723808292088785e+002, -5.4182510727933297e-001,
       1.4718582867774509e+002, -6.7914496593884011e-001,
       2.2926696535700916e+002, -3.9899157117241119e-001,
       1.7754067929591233e+002, -5.4386226469656918e-001,
       1.2874063525717747e+002, -4.9620998355189277e-001,
       2.2716546758684507e+002, -5.7805759008754221e-001,
       2.5737944160922001e+002, -5.4085827736736480e-001,
       1.6713027146880594e+002, -7.0191873422713980e-001,
       1.9009080756574429e+002, -5.6245900001643812e-001,
       2.7444474550851788e+002, -5.3976371103933496e-001,
       8.5251246243314895e+001, -7.5762373482546341e-001,
       2.5412109880100616e+002, -5.7022897943092099e-001,
       3.0902428088411216e+002, -4.8968993141122813e-001,
       2.7744047984018505e+002, -5.7703442350588363e-001,
       1.9543267920948850e+002, -5.2445319785507327e-001,
       3.1338907248820993e+002, -4.7360891608932504e-001,
       1.3657623600038761e+002, -7.5158235331247270e-001,
       6.5870602681999955e+001, -5.9151384917488581e-001,
       2.3041922328316940e+002, -5.4893104903826562e-001,
       2.3801003218879958e+002, -6.4159088785896656e-001,
       2.7777471990473998e+002, -4.8975226401837296e-001,
       2.6615457319803710e+002, -6.2246210936913282e-001,
       2.3563435284316168e+002, -4.7398259521717095e-001,
       2.3430809150102968e+002, -7.3562861203349950e-001,
       2.6775360732868728e+002, -5.3738379278174653e-001,
       3.2794355965295011e+002, -3.9372044863736533e-001,
       2.2209101030068811e+002, -5.9547241698244080e-001,
       1.4892853506159085e+002, -6.0480294016981229e-001,
       2.3666400959533124e+002, -6.9115295373635754e-001 ]
   output_scale: [ 5.2631578947368418e-001, 4.9999999999999994e-001,
       5.2631578947368418e-001, 4.9999999999999994e-001,
       5.2631578947368418e-001, 4.9999999999999994e-001,
       5.2631578947368418e-001, 4.9999999999999994e-001,
       5.2631578947368418e-001, 4.9999999999999994e-001,
       5.2631578947368418e-001, 4.9999999999999994e-001,
       5.2631578947368418e-001, 4.9999999999999994e-001,
       5.2631578947368418e-001, 4.9999999999999994e-001,
       5.2631578947368418e-001, 4.9999999999999994e-001,
       5.2631578947368418e-001, 4.9999999999999994e-001,
       5.2631578947368418e-001, 4.9999999999999994e-001,
       5.2631578947368418e-001, 4.9999999999999994e-001,
       5.2631578947368418e-001, 4.9999999999999994e-001,
       5.2631578947368418e-001, 4.9999999999999994e-001,
       5.2631578947368418e-001, 4.9999999999999994e-001,
       5.2631578947368418e-001, 4.9999999999999994e-001,
       5.2631578947368418e-001, 4.9999999999999994e-001,
       5.2631578947368418e-001, 4.9999999999999994e-001 ]
   inv_output_scale: [ 1.8999999999999999e+000, -9.4999999999999996e-001,
       1.8999999999999999e+000, -9.4999999999999996e-001,
       1.8999999999999999e+000, -9.4999999999999996e-001,
       1.8999999999999999e+000, -9.4999999999999996e-001,
       1.8999999999999999e+000, -9.4999999999999996e-001,
       1.8999999999999999e+000, -9.4999999999999996e-001,
       1.8999999999999999e+000, -9.4999999999999996e-001,
       1.8999999999999999e+000, -9.4999999999999996e-001,
       1.8999999999999999e+000, -9.4999999999999996e-001,
       1.8999999999999999e+000, -9.4999999999999996e-001,
       1.8999999999999999e+000, -9.4999999999999996e-001,
       1.8999999999999999e+000, -9.4999999999999996e-001,
       1.8999999999999999e+000, -9.4999999999999996e-001,
       1.8999999999999999e+000, -9.4999999999999996e-001,
       1.8999999999999999e+000, -9.4999999999999996e-001,
       1.8999999999999999e+000, -9.4999999999999996e-001,
       1.8999999999999999e+000, -9.4999999999999996e-001,
       1.8999999999999999e+000, -9.4999999999999996e-001 ]
   weights:
      - [ 6.5199893804474018e-001, 2.8907014173110140e-001,
          -4.4828050134757873e-002, 6.9016839079580311e-002,
          -9.3947975337095202e-002, 1.2661366364856089e-001,
          -3.4366462516493218e-001, -2.9390940508223242e-002,
          -5.3553928488163328e-003, 2.2385469426035068e-001,
          -1.8657687366277786e-001, 1.9032800812724673e-001,
          3.6948865768481259e-001, -1.7173872024611775e-001,
          1.4594486412007865e-001, 2.4188871765081560e-001,
          -2.4081402100473545e-001, -1.2435587066751706e-001,
          -5.1554269624686774e-002, -9.2334481393978873e-002,
          -3.5432785467951827e-001, -1.7750367684845036e-001,
          1.6897478569301067e-001, 1.8568452778651814e-001,
          -1.0520344754488559e-001, -2.9163061991251782e-001,
          -1.6062867466385775e-001, 2.7039821422992344e-001,
          3.6621978239488218e-001, -1.4134920705748050e-001,
          -1.5085952298608785e-001, 4.0401567906808593e-002,
          2.0312843972388661e-001, -7.7640778615016171e-002,
          2.0703015335752439e-001, 7.9451734488321796e-002,
          -1.8538814874623200e-004, -1.4837810555305662e-002,
          -1.7438611901873444e-001, 9.5357686588582194e-002,
          2.4491389036132510e-001, 4.6377102167488538e-001,
          4.4909866605886140e-002, -1.6677551875618393e-001,
          2.9607358624140045e-001, -1.1191127463851888e-001,
          -1.4302263728430245e-001, -1.7872640194708636e-001,
          1.0516852014326108e-001, 2.4724796629901730e-001,
          -1.0232001371132095e-001, -4.1240079554604525e-001,
          -2.4035870626215095e-001, 2.0713204945501271e-001,
          6.3821248387920082e-002, 1.9738717486237137e-001,
          -2.5251066768595593e-003, 2.3149233974989844e-001,
          1.4494373337091762e-001, 7.2837327307830782e-002,
          -2.8680037259872799e-002, -4.2783936879437309e-002,
          -1.4088594687166761e-001, 1.4981421263040429e-001,
          1.5040389175952393e-001, 2.9105959415143817e-001,
          -1.2147094356679516e-001, 3.7695047247903110e-002,
          -2.8034715996324566e-001, 1.5020960832288427e-001,
          1.7339793320626043e-001, 8.8997419796808183e-002,
          -1.3420167403848329e-001, 2.1301330147713007e-001,
          3.0132271660758941e-001, 1.2968997132425464e-001,
          3.3804766001754472e-001, -1.9339668205412405e-001,
          -1.1560842332198754e-001, -4.0014637569775763e-001,
          -9.1022992040820941e-002, -6.5033907250517595e-002,
          -4.2305313110261689e-001, 1.5785175230643136e-001,
          -2.6601659173136345e-002, 1.9377993818470085e-001,
          -7.6515252303458708e-002, 1.7457088598689066e-001,
          9.2460295765077832e-002, -3.4279946121969407e-001,
          -2.1413839442978669e-001, 9.7494522159283392e-002,
          3.8619347764165474e-001, -2.1119845469585982e-001,
          -7.9194770403361120e-002, -2.3866546923413759e-001,
          -1.8624178005652528e-001, -1.9570459315776595e-001,
          2.1494381546157856e-001, 1.1817416773467503e-002,
          3.6408827641230640e-001, -9.5482470412335929e-002,
          1.8875693965116735e-001, -1.0673362990836956e-001,
          2.2895616846860101e-001, 2.8913989563833725e-001,
          7.6932909833987897e-003, -3.1496142322511127e-002,
          2.7810538126418050e-001, -8.1963013220680073e-002,
          6.9247290393749675e-002, -3.8144778816423197e-001,
          1.1092732089383593e-001, 1.9099175533032323e-001,
          1.7344303133878505e-001, -1.3967778617734261e-001,
          1.4357086871848576e-001, 3.5663484664233081e-002,
          2.0095857589968816e-001, 1.7413233801085251e-001,
          1.1560301633924924e-001, -4.3261985370240605e-002,
          2.9047284802646463e-002, 6.4963360313531754e-002,
          -7.8244652933297965e-002, 9.9945147067382681e-002,
          2.7706967771144608e-001, -4.4574740108996633e-002,
          1.3323806732120633e-001, 2.4901979596175361e-001,
          -2.6720532630140226e-001, 1.4946873696979454e-001,
          -1.3726673196017688e-002, -2.1820633455658148e-001,
          -2.7015786489318161e-001, -1.4209977451387981e-001,
          -1.8364568060264960e-001, 1.4403306753072079e-001,
          -1.4222303205686759e-001, 1.2830731143514212e-001,
          -2.0847151414176246e-001, -2.3272669135360011e-001,
          3.2260773083451072e-001, 2.5822067912712565e-001,
          -3.0805790452156523e-001, 1.9100697882765277e-001,
          -3.8210608149798081e-001, -7.7311054440759031e-002,
          1.5904991878977781e-001, -9.2812777019530932e-002,
          -3.5155012340229153e+000, -1.4073130324074906e-001,
          -3.1383300664028579e-001, -9.8805116048291883e-003,
          -2.0102163250337876e-001, 1.3199289217481486e-001,
          2.2081238078925905e-001, 3.4878040506006354e-002,
          2.5357305043362043e-002, -3.5202529016792029e-002,
          -1.9970695513905160e-001, 2.5140691478584404e-001,
          -4.4912199163451760e-001, 2.5026843361910561e-001,
          -3.1390752190004789e-001, -3.6484564878577874e-001,
          6.4640438419981535e-003, 3.5558967158532251e-001,
          -2.2064591392027294e-001, 2.2991938329804704e-001,
          4.3643317837990020e-001, -2.3322107413794940e-001,
          8.0456627806204953e-002, -3.2747422030898949e-004,
          -7.2293608320480304e-002, -3.9356010415823404e-003,
          -2.4518434609791831e-001, -2.7386943435396993e-001,
          2.7187540638145397e-002, -5.0487857393874354e-002,
          1.5011487394877082e-001, 1.8274955427610928e-001,
          8.8357378012168683e-002, 4.1397374276502898e-002,
          9.2793984598459875e-002, -9.9944352716271306e-002,
          2.5571484177617837e-001, 6.3688721103907178e-002,
          7.0698481601169538e-002, -6.5199622563864745e-002,
          4.4445302295841968e-002, -3.1744431175955273e-001,
          1.8049794040828734e-001, 3.2581187998694477e-001,
          -4.4480563020535596e-001, 2.9200480051712246e-001,
          -4.6811361933319827e-002, 1.2514035916638983e-001,
          -1.0620992448906502e-001, -1.4723665319032667e-001,
          4.3996888243568721e-001, 2.8699278390524907e-001,
          1.9333227289184665e-001, -1.8815598342737072e-001,
          2.9731683958859428e-001, -1.0293468459410804e-001,
          1.0194301386721780e-001, 1.7389576865806767e-002,
          -4.9120585375191728e-001, 3.8235723305444663e-001,
          -1.5815475181537431e-001, -4.4909563330327820e-002,
          -1.8094699258970631e-001, -3.5301116965999346e-001,
          3.7090835260533811e-001, 2.1157795826536551e-002,
          1.5831423563289201e-002, 3.0074238166235279e-001,
          -1.1317373913523093e-001, 5.8112722828615841e-002,
          -1.1605597720654162e-004, 3.0810634300523004e-001,
          -9.9595259641505729e-002, 9.9785311800563492e-002,
          -3.0748911957051828e-001, -1.1224026272546671e-001,
          -7.2424303329397574e-002, 6.6058122389033962e-003,
          -1.6084274710985302e-001, 2.4117824988888045e-001,
          2.0571572009128108e-001, -7.6788232049498223e-002,
          -2.3160417244461121e-001, -1.2553694375627764e-001,
          9.9324746162045355e-002, -3.7749723404061630e-001,
          -3.3471884410593102e-002, 5.8418441910950997e-002,
          1.3710532675169149e-001, 1.3065516397559243e-001,
          -4.1903907828619491e-001, -5.7296089661248432e-002,
          4.0642421121737132e-002, -2.0084366661536784e-001,
          -2.3765714488098197e-001, 1.7771167418739767e-001,
          -4.5230698588958486e-002, -2.0194091828170413e-001,
          3.2714390384516373e-002, -2.1853919575615091e-001,
          -2.4826076432480912e-001, -3.9002666084489491e-003,
          -1.9997216778567886e-001, -4.5695105220131496e-002,
          -3.9717583958387159e-001, 1.3626537141468012e-001,
          3.0926189739686211e-001, -1.6890735753723571e-001,
          -2.4595417892172602e-001, 6.1542351734522154e-002,
          -1.1993178206428375e-001, 1.8402150098122977e-001,
          7.7107085533732023e-002, 2.1945695619410482e-001,
          -1.9442347688668250e-002, -1.6110950856002507e-001,
          2.2848422124465129e-001, -1.0613704966869014e-001,
          1.2387211727008687e-001, 9.3412565200690897e-002,
          -2.4292031879819986e-001, -1.9433727884920329e-001,
          3.7709392971665714e-002, -4.1807041057694821e-001,
          -2.3953785019083018e-001, 4.9042317456776494e-002,
          1.2165917744527431e-001, -1.1344385689615971e-001,
          1.1978000094444072e-001, -1.5316661447956653e-001,
          2.4137829951906642e-001, -9.0993790521320020e-002,
          -4.0178977671458546e-002, 9.7911652239207864e-002,
          -1.0811316072635388e-001, 3.2280967034031860e-001,
          -1.5106892711663800e-001, -3.9950722769779047e-003,
          -1.9458215777709864e-001, 4.9651346396472902e-002,
          3.8498419096222697e-001, -3.0421620297233704e-001,
          2.5877335471648044e-001, -2.9201323857375305e-001,
          2.2792737735719654e-001, -2.9193083458945052e-001,
          3.7894278828070960e-001, -3.9817547959696448e-001,
          4.2988690707924701e-002, -2.4649539707699006e-001,
          4.0980033956792887e+000, -4.6969189960793262e-001,
          2.5452614633770981e-001, -1.0351067921712616e-002,
          -1.2224373410605317e-001, 8.5748916406379449e-003,
          1.6896385121225324e-001, 1.9006111740819909e-001,
          1.3993995766960154e-001, -1.7367054535980780e-001,
          6.3790706854401316e-002, -3.1602741776404158e-001,
          3.7420519480647604e-002, 1.8783681125974207e-002,
          2.8372329860286666e-001, 3.2055699339120974e-001,
          3.4876272691318300e-001, -1.4176618887059550e-001,
          1.3136349578209311e-001, 2.0464058606187749e-001,
          8.7312054366216349e-002, 3.4066765468123394e-001,
          8.1102338003208596e-002, -3.5784714423156248e-003,
          -1.2885193097812855e-001, 1.5618743853949890e-001,
          -1.0000919136998944e-001, 1.7838604820499401e-001,
          3.4625724275496483e-001, 3.3035618619691703e-002,
          -3.4137794677616268e-002, -1.4689384733082089e-001,
          1.5816605903375427e-001, -1.2302934402330837e-001,
          -2.7433636806460543e-001, 8.5914257128642424e-002,
          -1.6131762153307860e-001, -1.5294155528573708e-001,
          -3.4843439709833868e-001, 5.7885647318474662e-002,
          5.8228722038275234e-002, 2.6159314403740841e-001,
          -7.5185086789786956e-002, -2.7035378200635185e-001,
          4.8480684247579525e-001, 1.9037634665307965e-001,
          4.6923745760874644e-002, 1.5508781891322532e-001,
          4.0617399161130024e-002, 6.1210462771886354e-002,
          -2.3067915786209270e-001, 1.0765633443088614e-001,
          -3.5746788904176752e-001, 1.7215994444612071e-001,
          -8.3706034547329861e-002, -3.7494545895018709e-002,
          -1.3091944200601982e-001, -2.1274408335137353e-002,
          1.3813639556899501e-001, 4.7953186403113532e-003,
          -3.4337935347246085e-001, -8.4959218542042650e-002,
          2.2053374390165284e-001, 9.1988995582495625e-002,
          -1.7277107375871814e-001, -2.5356409597050500e-001,
          2.0909138864879848e-001, 7.1301679380123939e-002,
          3.5232693301979223e-001, 1.2436896770998086e-001,
          2.0439835360978729e-002, -3.7887364842293753e-001,
          -7.7793634585660798e-002, 1.0940138324179868e-001,
          -1.9415219211004295e-001, -3.0575871490249418e-002,
          -3.6844767982424814e-001, -1.1477119000078895e-001,
          2.8527738303856137e-001, -9.0342969361341091e-002,
          -2.2312157810396213e-001, -1.2454021791392697e-001,
          1.1998082733225798e-001, -7.7514323884733866e-002,
          -2.1418560810155535e-001, 2.5085559954462477e-001,
          -2.0576873796776024e-001, -5.2106366895893465e-002,
          4.6812630884840549e-002, -3.0408221906722077e-001,
          1.5803182845705094e-001, 2.0742334542651475e-001,
          2.2184072228444249e-001, -6.9369397028643212e-002,
          2.4196597250703677e-002, 7.1826610945482255e-004,
          -1.3610372054647230e-001, -2.5402499326307415e-001,
          -8.5895188046594753e-002, 2.7897751743890209e-001,
          -3.2141339558350823e-001, 1.1835375091370734e-001,
          1.7172231433520799e-001, 6.2666626716129294e-003,
          7.8532451025429578e-002, 1.0296760264344444e-001,
          -4.1798457365329711e-001, -2.1140621755511732e-001,
          -3.3588116385165079e-001, 4.5528669936703146e-002,
          4.2740653068440963e-004, -1.3195242548835390e-001,
          2.1333945145516725e-001, -6.2325421137636491e-002,
          -5.0221421864059057e-001, -1.9538057761531741e-001,
          1.0305405195344998e-001, -1.7729144601120403e-001,
          -4.8229803609248063e-002, 2.4041242633980589e-001,
          4.3107410102048921e-001, 2.5308368582240770e-001,
          7.8561004972921580e-002, 2.5129076886082635e-001,
          1.5198053183098389e-001, 1.4055703925987614e-001,
          1.0951734562207595e-001, 1.5698186848214007e-001,
          1.5346077995550397e-002, -1.1749950101797178e-001,
          1.4572208878593912e-001, 2.6706801040196678e-002,
          -4.0740421881369759e-001, -1.1766675211174844e-001,
          9.5713587124534302e-002, -1.7972296534889565e-001,
          -2.7833783798877017e-002, 2.6027619398945262e-001,
          3.2810444679733852e-001, -9.2621325735716811e-002,
          -1.0486252305318509e-001, -1.8363844091053844e-001,
          -3.7647097896096010e-001, 2.7129035355114961e-001,
          -8.8891141477533228e-002, -4.8770130292468122e-001,
          -7.3325952739497130e-002, 4.2743423397237035e-001,
          4.6368864443391261e-001, 3.1141491108505198e-001,
          -1.2646973978009686e+000, 1.1864097107669366e-001,
          4.1189322088524455e-001, 9.8518673711818994e-002,
          4.7069717550405243e-001, -2.8361975201771073e-002,
          1.6109042381091387e-001, -2.0274849589418366e-002,
          -1.8320295205583476e-001, -3.1584435739514666e-003,
          -4.6352672486540569e-002, -7.1324865748501665e-002,
          1.5135445281700990e-001, -4.3657898422927589e-002,
          2.5105060417526448e-001, 1.8658835575589039e-001,
          -8.6113619322167184e-002, -3.0970716247606112e-001,
          9.3117041399612979e-002, -3.7405092603939691e-002,
          -1.7990968516628161e-001, 1.0617154870619430e-003,
          -2.8026163728759851e-001, 7.9244650005136238e-002,
          -1.1898763321753100e-002, 6.5692826663465969e-003,
          8.6821459990055319e-002, 2.3186320223040885e-001,
          7.8274130404756823e-002, -2.5422599951360442e-003,
          -6.7407161570074120e-002, -1.2969243780469486e-001,
          -7.0658369039818092e-002, 1.2251724129161086e-001,
          -2.7764763141090770e-001, -3.4375791935390185e-002,
          -2.9455698649493678e-001, -7.6945329646360375e-002,
          1.0718432869113952e-001, -5.2762838471297091e-001,
          2.1087532919927602e-002, 2.3704872484891573e-001,
          9.3523984657822218e-002, -9.4700556689451352e-003,
          -6.9286113622959939e-003, -3.6690735671350706e-002,
          2.3965226786794944e-003, -1.4187957400935439e-001,
          1.2363986019940108e-001, 2.4443012323826324e-001,
          -5.1558823936910458e-001, -2.4951829592942434e-001,
          -9.6002082905253749e-002, 4.3001271744898241e-002,
          -4.1995331290473115e-001, -4.2288775975214590e-002,
          -1.9296054448353661e-001, -1.1290659318659756e-001,
          2.3432098463029627e-001, -3.9466301026917600e-001,
          -1.3218975402010477e-001, -8.0155140677340614e-002,
          2.2081720486435522e-001, 3.6882317564632611e-001,
          -2.8085218650698129e-001, -1.3887757465690714e-001,
          -1.1087955380820881e-001, -3.5666107471172256e-002,
          4.1871720442119770e-001, -3.8685772252297849e-002,
          -1.6680194304957924e-001, -2.1059013434247309e-001,
          9.8685763313879182e-002, -6.4921483348986328e-002,
          2.5661150513762232e-001, -8.5593967787821842e-002,
          3.2773902186841902e-001, -6.8046545880061524e-002,
          -3.1585639535755487e-002, -8.0546339039107809e-002,
          -2.1044669436526137e-001, -2.4364576468164245e-001,
          -1.7904451395063881e-001, 2.2706122841304183e-001,
          -8.7662532769527929e-002, 4.7774784124382097e-001,
          1.1600114607514567e-001, 2.5989643090121090e-001,
          1.3952093998411505e-001, -1.7789824511423660e-001,
          2.7510089862830051e-001, 3.9706144904448848e-001,
          1.5469840681743530e-001, 1.0679425840549245e-001,
          2.9330857315305564e-001, 3.5465692515850626e-002,
          8.9348668750065072e-002, -3.4933377563746086e-002,
          -4.2064565997899223e-001, 9.5069669291378611e-002,
          2.9223672079915969e-001, -3.6158643215221241e-002,
          6.0443303649825801e-002, -4.9740361410926755e-002,
          -3.1134371495057919e-002, 8.0168563762698986e-002,
          -1.2724086535131029e-001, 5.6177701578197459e-002,
          -1.5917617995531549e-001, 2.7361245661764366e-001,
          1.7997080522802161e-001, -2.5209087349140907e-001,
          1.3905905097367713e-001, -1.1924501734764215e-001,
          -1.6299969084198149e-002, -8.0133501157786863e-002,
          -1.5833054869050087e-001, 4.0030300008334391e-001,
          1.1392717445499889e-001, -4.7892550467492030e-002,
          6.9774096297359992e-002, 5.8919886504103035e-002,
          -1.7392218616932732e-002, -3.2130059596358748e-003,
          -3.5301714150621583e-002, -8.2800060065701730e-002,
          1.7440249786780179e-001, -3.4041734579458405e-001,
          -1.1631459136119749e-002, 2.4322475678484254e-001,
          -8.9368195515018463e-003, 7.4884020276053509e-002,
          1.0329219518215957e-001, -1.1239852727041597e-002,
          5.4542204278434127e-002, -3.3744405949113904e-001,
          1.6327180801796989e-001, -3.6669794227610457e-002,
          4.3141011843440338e-002, 7.2662959201821170e-002,
          -1.9475286333248337e-001, 5.4111553561231998e-002,
          8.5781549012918235e-002, 2.5641289778982923e-001,
          -2.2415036646250636e-001, 2.0991379160618698e-001,
          -4.2344768322848542e-001, 1.8689463996110194e-002,
          1.2311171140247465e-001, 3.4586539707036745e-001,
          1.3613688143403835e+000, 3.3457648400613479e-002,
          1.2737087480015466e-001, -2.3869821229994360e-002,
          2.9389987484894246e-002, 2.2550619445503259e-001,
          -3.5507831521304246e-002, 1.9399808339663563e-001,
          7.4987564194245140e-002, -8.7466588718629529e-002,
          7.1135678574749048e-002, -1.0638190135654574e-001,
          -2.1785019180219689e-001, 1.0316145940779996e-002,
          -1.9536695427896628e-002, -5.4044030578021589e-002,
          -3.1020990718498318e-002, -4.5606583612625880e-002,
          -3.8438522302971137e-002, -3.0048497114198865e-003,
          2.8111974341579182e-001, 1.3457296271709643e-001,
          1.5301365281461116e-001, 1.7209079008495675e-002,
          -1.3028664761265621e-002, 2.8987894499070688e-001,
          -4.5143536994172000e-002, 1.0940330870785532e-001,
          -9.4350051953813602e-002, -8.5751292503244203e-002,
          1.3794006477948061e-003, 1.4033418346513379e-001,
          1.5539967156558732e-001, 1.3176522112738603e-001,
          -2.4768950258220143e-001, -1.6448802625141670e-002,
          4.8852775112815633e-002, -6.2424352899497292e-002,
          7.7516810492612748e-002, -5.0262396136556621e-002,
          -1.2435074448459953e-001, -4.2053598118211695e-002,
          -3.5349419810676179e-002, -6.1555073231412613e-002,
          2.1698028273502235e-001, 1.8669673752706578e-001,
          1.1534700989512346e-001, 1.4396178912326402e-001,
          -4.7745816454270743e-002, -1.2949594249814461e-001,
          -3.1066887724068282e-001, 2.6701367012048688e-001,
          6.3690525531801323e-002, 2.9741109890585593e-003,
          -8.5274978031432871e-002, -8.4710033397969536e-002,
          -8.2837508397498705e-002, -1.8863694955509633e-001,
          -1.5968270304911517e-001, 9.7648103417833795e-002,
          -1.1298434894197509e-001, -1.1083327010259192e-001,
          6.1582336180973328e-002, -1.0287665509762881e-001,
          -7.0843373741147755e-002, -6.6306193559500922e-003,
          1.9704366529872802e-001, 1.3790567964593603e-001,
          7.5505512706227379e-002, 2.7549520712228246e-002,
          6.8021421989920630e-002, 1.2937895673195654e-001,
          -1.9572368438148066e-002, 1.6620814795923682e-002,
          1.0010276697447321e-001, -7.4527420329581248e-002,
          -1.8613377418405605e-001, 3.6274136589408740e-001,
          9.1451147690777265e-002, -2.7159738834517055e-003,
          -6.2564509297997242e-002, -8.0892128361751796e-003,
          -3.6230950403365533e-002, -5.1530130213100135e-002,
          6.1202187039476781e-002, 9.4667136557324505e-002,
          2.1948159570565388e-002, 2.4999939562492601e-001,
          -2.1801337110688010e-001, 1.6555723715755388e-001,
          1.8073193197053183e-001, 3.2200775543602825e-003,
          -1.2025035540644594e-001, -5.9689989827574688e-002,
          -1.2705168855902296e-001, 7.1101195555671334e-002,
          1.3581368542759656e-001, 2.1398404669140325e-001,
          9.8669196492743902e-002, 9.6745442194527645e-002,
          -1.6021873510535692e-001, 3.6749432728004981e-002,
          -9.1390016952190220e-002, 1.1297378766758927e-002,
          -2.1146974590177639e-001, 1.4917425087672570e-001,
          -1.9274794087773045e-001, -1.7026199488875496e-001,
          -7.4253751710979546e-002, -6.6339677360225248e-004,
          2.3299268217696857e-003, 3.2866799911020941e-002,
          -5.5613396012669902e-002, -1.2123234229230538e-001,
          -2.1442695384092947e-001, -2.4194217999460110e-001,
          -1.6152008251948285e-001, 3.8118282409016607e-001,
          1.7097694424865376e-001, -1.4802615574000205e-002,
          -1.4311688469436434e-001, 4.2739833504895353e-003,
          8.7864933479626317e-002, 1.3867072427232310e-001,
          2.5287618919770161e-001, 5.4230175154780902e-002,
          -1.3103244593814545e-001, -3.0907835476931385e-002,
          -1.1410631697071725e-003, 6.4298002191348624e-003,
          1.1364645597962686e-002, -1.5746397964155454e-001,
          -5.8391297109522580e-002, -9.6320034409036706e-002,
          1.3132294881795681e-001, 2.3279866435219208e-002,
          -1.9436606646279378e-001, -1.6956587468081682e-001,
          2.6143856403817282e-002, 2.1952932321825824e-001,
          9.4675645534593122e-002, 5.1375246845804089e-003,
          -1.6288496453706514e-001, 5.8515810790177550e-002,
          -3.2347062203760979e-001, 1.6222587550083320e-001,
          -1.7571757981108724e-001, -2.2042634677228135e-001,
          2.1891974378921294e-001, 1.6487312257657172e-001,
          -3.3370964319616294e+000, -1.1221147380688996e-001,
          3.3920508808351110e-002, -2.0428030664899524e-002,
          -6.4999144091596156e-002, 2.1975622931702679e-001,
          3.0420251821363464e-001, 2.5724149692647041e-001,
          7.8911302844672127e-002, -3.9584894058425535e-001,
          5.8604018956555495e-002, 2.6894500549490691e-002,
          -7.9333046654096673e-001, 1.2943648367207400e-001,
          -2.7129233117139401e-001, 1.0584257970515088e-002,
          -3.7570494246388454e-002, 5.5884525244979766e-001,
          2.2996830075580826e-001, -1.3032758060769808e-001,
          7.0923943747455409e-001, 6.3448153002341801e-002,
          -1.3556376936189782e-001, 2.1672091986981587e-001,
          -6.2180978499574768e-002, 2.4653040724920192e-001,
          -1.1600538776947096e-001, 3.1919405298003423e-001,
          1.6224774247894155e-001, -1.7753049306503627e-001,
          -2.4787597920727358e-001, -1.3960516770117251e-001,
          1.0408028141140609e-002, 2.1922262756640828e-001,
          1.1715366356835610e-001, 9.5286574284231845e-002,
          2.8493391613804486e-001, -5.3739544156200336e-001,
          1.6509540695451530e-001, -6.5571443559972159e-002,
          6.3370247614307165e-002, -4.0255079271106042e-001,
          -1.9100227694191910e-001, -7.9011524963934668e-002,
          -1.1588732690313915e-001, 6.5290229312232204e-002,
          -3.2206609565025225e-002, 1.1630647865678038e-001,
          1.4616237307044364e-001, -2.2038746649452770e-001,
          5.3893256601532200e-002, -1.9922957483780193e-001,
          -8.8512405338123379e-002, -1.2380011174840380e-001,
          7.2242279513617599e-002, -3.9330511183331203e-002,
          3.3157487588422835e-001, -1.3004828353893161e-001,
          1.5241763037765951e-001, 5.2909189748785425e-002,
          1.3458734505509409e-001, 2.3744815081044555e-002,
          7.2500614827227699e-004, 1.6868562211249861e-002,
          -1.2104636809769544e-001, 7.8931839237018631e-002,
          1.8066485743544800e-001, 1.7238076695446811e-001,
          -6.7091667300183039e-002, -1.1816275773651536e-002,
          1.2777927534135664e-001, 1.7460430138930913e-001,
          -2.9029048554307818e-001, -9.0666896223768820e-002,
          -3.2362635068462757e-002, -1.7943059581192444e-001,
          5.6298949317193314e-002, 2.1694274659875795e-001,
          1.3633031405007565e-001, 1.5025113806708595e-002,
          9.0357522645566568e-002, 5.1880903210332042e-002,
          -1.1000296627494013e-001, 2.0829865877748974e-001,
          2.4572975477285028e-001, -7.5143127496169707e-002,
          -9.4272379314862490e-003, 1.7435883851943829e-001,
          2.4836846090771645e-003, 1.8141168762507823e-001,
          7.7902777796542533e-002, -1.0040732404108790e-001,
          6.3971436204482753e-003, 6.2833971621630277e-002,
          -1.6165076778095344e-001, 1.7814922160657740e-001,
          -4.1043673950407582e-002, -2.8988448493468304e-002,
          1.8390966808221468e-001, 3.6115572095808701e-003,
          4.0241382186829644e-001, 5.5817425358106387e-001,
          -2.3842348748128359e-001, 4.9187136542810046e-002,
          7.4279297386920837e-002, 8.4306632679616453e-002,
          8.6905555081706554e-002, -2.3800939534566570e-001,
          -3.1750882895203542e-001, -3.6154545173628144e-001,
          -1.8868818691582931e-001, 1.6652800058976042e-001,
          1.2481784652064863e-001, 1.9570463733679230e-001,
          1.1790784108887500e-001, -3.3680018521462179e-001,
          1.2352434033043830e-001, -1.1811169241179539e-001,
          3.1385953938445976e-001, 1.4610578991216999e-001,
          -1.2075927556545542e-001, 9.3957286791869377e-002,
          -1.4348922835619501e-001, 2.2878137077989494e-001,
          1.6635245531769621e-001, -1.0910824279272199e-001,
          2.7665642869398942e-002, -3.8425893342809014e-001,
          1.8596695397435528e-001, 3.0826501276566922e-003,
          -4.1112878785637838e-002, -1.0570928296042711e-001,
          -1.3217173613375294e-001, 1.3147259964388375e-001,
          2.8740854240906744e-001, 5.2128460180405088e-002,
          6.1624092435346445e-002, 2.1325730256437220e-001,
          1.8370943412627933e-002, 2.3634560269723287e-001,
          1.7751598379269429e-001, -4.4228343894398343e-002,
          -5.6467950890575096e-002, 1.1421677728099124e-001,
          -5.7085491825824626e-002, 2.0844086405216461e-001,
          1.2755211215011134e-001, -6.6982011537922881e-002,
          -1.6259569068565671e-001, 6.5695253156018915e-002,
          -3.2202465631333554e+000, 1.7264591138849267e-001,
          -1.5932263502828470e-001, -3.1609853734542601e-002,
          7.4370780808275791e-002, 9.1795424907032117e-002,
          -5.8839112574160100e-002, -3.4192103640895505e-001,
          -4.3702292493527611e-002, 9.0965279379977615e-002,
          -2.0803400674467487e-001, 1.2584252422494596e-001,
          -3.6373546821405395e-002, -2.7628334555545465e-002,
          9.3436938961083370e-003, 1.6821268607111703e-001,
          -2.8961808218985791e-001, -8.6588506478024768e-002,
          -4.0112940341134745e-002, 1.9624775382707418e-001,
          8.9257080112418521e-003, -1.3902445646937059e-001,
          3.1309026960214432e-002, -4.3508036839892683e-003,
          -9.1940324016087455e-002, -8.3851812977880080e-003,
          4.2457305038046289e-002, -3.7809912550896337e-002,
          1.5049302525100380e-001, -9.4997720810977210e-002,
          1.7914376123895440e-001, 7.4498500728085157e-002,
          4.9585465867912154e-002, -7.4566700224316204e-002,
          4.6367939088911153e-002, -1.2324443934065114e-001,
          -6.5118474032924326e-002, 1.2553311941167728e-002,
          1.5732753857640772e-001, -5.0307815798474063e-002,
          1.2767649857919569e-001, -1.9164207968613423e-001,
          -1.0494696371312218e-001, 1.7848081926026521e-001,
          -1.0781710212534695e-001, 1.8696260453524485e-001,
          -8.1932383868523390e-002, -1.7798311494097271e-001,
          8.0342066462423561e-002, 1.7503990844490314e-001,
          4.7566416058876418e-002, -2.1513242813773498e-001,
          -2.0644686587972094e-001, -1.1387646978883091e-001,
          -1.0505542807199550e-001, 1.2463994707799637e-002,
          -1.7775677211935434e-001, 3.1791489822452701e-001,
          -1.9432267457739918e-001, 2.8797212900076665e-002,
          -6.3293505054124566e-002, 2.5069826759271361e-002,
          -6.0162710769248832e-002, 4.1109449522061625e-001,
          5.5738789631351572e-002, -1.2959573745469896e-001,
          -1.7327756642954811e-002, 1.7725299746582210e-001,
          -1.2041543150204748e-001, 1.5437862668267061e-001,
          1.3700304723957490e-001, 7.9754645119496051e-002,
          -7.7349190730029216e-002, 2.1951028887037741e-001,
          1.9382726111672388e-001, -8.7041747194071831e-002,
          4.3049063851743584e-002, -1.2035602694180658e-001,
          -2.9745737279428236e-001, -3.5713498468375515e-001,
          -2.3555746409214529e-002, -1.2312048567037866e-001,
          -2.0369551541995429e-001, -2.1270720045716229e-002,
          -1.3534557723158347e-001, -1.0109284123565856e-001,
          -6.8862622641216814e-002, 1.1426281359398580e-001,
          1.5369614458194050e-001, -1.5567798487118494e-002,
          -2.0843801283280386e-001, 6.0387666327394694e-002,
          2.0226468582678703e-001, -1.8677610300854799e-001,
          -1.7506140684693769e-001, -4.2920696976039278e-002,
          -8.7111176579220406e-002, -4.6759892292594495e-002,
          5.8485748731505076e-002, -1.1065669930951079e-001,
          6.7006062862504587e-002, 9.0089598849899685e-002,
          4.5226751056721382e-001, -9.3731115296442527e-002,
          2.6146526668665387e-001, 1.8890720453742174e-001,
          1.6133080523697330e-001, 4.1286313832739778e-002,
          1.7338198968562160e-001, -1.9098763926055048e-001,
          -2.4553695775761769e-001, -8.6603381279064303e-003,
          5.1295173028523336e-002, 2.8685677345050964e-001,
          1.6605344455958437e-001, -7.1151411600464370e-002,
          -1.9382117103783530e-001, -1.3236879427289899e-001,
          1.9783205385080910e-001, -1.0126737141073477e-001,
          -1.9599629552531936e-001, -5.1347111079670785e-002,
          9.3995941151346542e-003, -1.8865888440319717e-001,
          -2.8785956711480076e-001, -1.0311027484164520e-001,
          9.3049132920149755e-002, -2.1906339316486384e-001,
          -4.4249082283925441e-002, 1.2502458821765869e-001,
          5.6550695634096267e-003, 1.5701846272523018e-001,
          3.0330250823887406e-002, -4.1031240294243015e-002,
          -2.1722379353206064e-001, -1.9566960914207510e-001,
          -1.8116208866396755e-001, -1.3540907645954148e-001,
          -2.6930623436578482e-001, 8.9381379751519649e-002,
          -5.4786108584819038e-001, -7.1824913777720475e-002,
          2.1818838202464538e-001, 1.8954630147396240e-001,
          -1.4249603689941378e-002, -1.8415892073973042e-001,
          -6.8739307000647690e-002, -2.2149213245429583e-001,
          6.5273509368694027e-003, 3.0403103902838936e-002,
          2.1787942373860205e+000, -2.7874527094016593e-001,
          8.1012873528853134e-003, 2.1135976048207786e-001,
          -1.7480943557165823e-001, -9.9848355126991115e-003,
          -1.4419123008913054e-001, -2.8369051747962870e-001,
          -1.5561078066101053e-001, 9.6414257956962124e-002,
          -2.8497779047074744e-002, -1.4708483377371792e-001,
          3.3371291640737166e-001, -9.3330141234167885e-002,
          -7.1463791559556691e-002, 1.8029423710574616e-002,
          7.1296978520537485e-002, 1.9471235657462219e-001,
          -1.2805151469408063e-001, 5.3450531358342230e-003,
          2.6547183747812603e-001, -6.2534034732027691e-002,
          9.3205265430288259e-003, -6.7750108252897720e-002,
          -1.4699477113575871e-001, -1.6120758917767539e-001,
          -1.6514748485195815e-001, 4.2635233723321564e-002,
          -8.8148134906317399e-002, -2.7080175363678954e-001,
          -2.4601171967706836e-001, -1.4002598269177388e-001,
          -1.8590864632996792e-001, -3.3179298469265184e-001,
          7.7122006546531696e-004, 2.9994968086482676e-002,
          -1.1835214201603535e-001, 1.5011383409252704e-001,
          -1.8644202641852359e-001, 1.2541731740077669e-001,
          -4.7282552512429424e-002, 1.1022101269144662e-001,
          1.5923186880383247e-001, -4.7187657874451706e-002,
          -2.8303512589923174e-001, -1.7722275050342168e-001,
          1.1835848446910220e-001, 6.9800704345108225e-002,
          1.8725606569109743e-001, 5.5900971111482387e-002,
          7.9269600024002490e-002, -2.2312921063512567e-001,
          4.2769387904263478e-001, 1.6944225413960415e-001,
          1.9444754455110949e-001, 2.5550215141086413e-001,
          -2.2502042073127165e-001, 3.4177971260457865e-002,
          1.3921417836097005e-001, 1.2111689417628123e-001,
          -1.3783637928729361e-001, -1.9411662746149497e-001,
          1.0711864809923557e-001, -2.2336510301789425e-001,
          1.5941719531066628e-001, -5.5182016249300685e-002,
          1.1416158296330560e-001, -4.0144276632711018e-001,
          1.5838988487705825e-002, -7.8180821850333010e-002,
          -9.2105419240137501e-002, 3.4727454746679401e-003,
          2.3742995923517654e-001, -5.1603630232929264e-002,
          -3.7225467236749493e-001, 5.8380583853808232e-002,
          -1.2302315389252276e-002, -3.1967960028251224e-001,
          6.8263713421343478e-002, 1.2286323182318670e-001,
          -5.9729120359802997e-002, 2.2398279668111622e-002,
          3.1618838222069462e-001, -1.4434748780393733e-002,
          -7.9868645595889159e-002, -2.3040091559621393e-002,
          2.0094304630230717e-001, 1.3452296412712253e-001,
          -1.1054828183011572e-002, -7.1565301842437395e-002,
          -2.8915232902515003e-001, -2.8601341402674468e-001,
          1.3209893646373413e-001, 1.8665064062990824e-001,
          -4.8325578433884731e-001, -2.9786470537856324e-002,
          -6.0478927198566602e-002, -6.7511797419674849e-002,
          -2.6658102313052862e-001, -1.2135067993909445e-002,
          9.9220960309941028e-002, -1.5630541683651278e-001,
          3.8777560053555191e-002, 4.6204829669573629e-002,
          2.8527641283138869e-002, -6.7324331989384520e-002,
          -1.4479095933224079e-002, -6.1405673368347694e-002,
          -4.6973983031135959e-002, 2.4059289349225901e-001,
          1.4533201498593867e-001, -2.5469900004136625e-001,
          2.3126611975846920e-001, -1.0554262477913801e-001,
          2.7760051718266715e-001, 1.1712236438018048e-001,
          2.7668981466834414e-001, 1.4708729259221484e-001,
          7.3350123401406203e-002, 1.3093660435982811e-002,
          -1.0784814040922427e-001, 4.6527932989738396e-002,
          -1.5146461578878001e-001, -5.4132862276940509e-003,
          -6.0778398252121585e-002, 1.3379373180513932e-001,
          -8.7970351542638714e-002, 7.2455820602868523e-002,
          -1.7101094444221962e-001, 4.0156845161528872e-003,
          -1.8027782170549103e-001, -9.7880703579331443e-002,
          -2.5110390019536705e-001, -5.2324741631287253e-002,
          -2.0927475646892268e-001, -1.2074331893719181e-001,
          4.7369603870012753e-002, 3.0348542869095430e-001,
          2.6836770390407100e-001, -2.3212385357538676e-001,
          -2.2504582479577002e-002, 1.1471461898699732e-001,
          -4.2167631522138976e-001, -1.4180005479471453e-001,
          -1.8640406573311200e-001, -3.7305229062167704e-002,
          -2.6463419378155389e-001, -7.5433627817380246e-003,
          -1.3474828482932438e-001, -2.7936947595506695e-001,
          -2.2551837411737847e+000, -1.9264059003536069e-001,
          -3.1522905463868167e-001, -6.9630172511772767e-002,
          8.0991164766338136e-002, -1.1116528747754956e-001,
          2.6351244507047783e-001, 2.0745458387066290e-001,
          7.6949877081624818e-002, -3.8820216377702721e-001,
          -9.2126247545431389e-002, 2.4321942843499894e-001,
          -1.9014128014118326e-001, -6.3531533639580140e-002,
          -1.5264082732867624e-002, -2.0228924204074936e-001,
          3.5841741865049076e-001, -4.2808495013675479e-002,
          1.9713177868829912e-001, 2.0187983215928917e-002,
          1.4365769344633322e-001, 1.9074243932374921e-002,
          -7.0236946263484576e-002, -7.7536067274317680e-002,
          1.0553691633908571e-001, 1.2924967344712240e-001,
          6.4492574990123647e-002, -4.4651560910694492e-002,
          -1.0083640026658627e-001, 4.0149811239424987e-001,
          1.8548889455929313e-001, 7.1943451471536742e-003,
          -1.8585292318843480e-001, -1.3747816788434775e-002,
          2.3269007684091809e-002, 1.0569844163685209e-001,
          6.0408877536085637e-001, -1.7197584720312098e-001,
          -2.9714955550496974e-001, 2.1901546915580401e-002,
          -1.6782798322053699e-001, -2.6144079110281854e-001,
          -1.2768557750812567e-001, -1.1349412864755938e-002,
          2.3934193893068770e-001, 3.0413720269960015e-001,
          -1.1540767991032223e-001, 2.2617196504372883e-001,
          -1.2910453991876486e-001, 3.8350442056214198e-002,
          1.8672077398498180e-001, -1.6695474083618600e-001,
          -1.9706949508606128e-001, -2.0582126231879494e-002,
          -1.1740321094980929e-001, 6.7176435573278945e-002,
          1.0589117523916461e-001, 4.7367955528206376e-003,
          -8.4422129766008283e-002, 1.0179953069526670e-001,
          4.3789361369371033e-002, 6.5387988630741273e-002,
          1.5213944220813036e-001, -4.7436120140976539e-003,
          -1.5160796857629569e-001, 8.2915760253188614e-002,
          1.5677276668083562e-001, -1.3891283826410146e-002,
          -2.5470100137135094e-002, 7.3942779529878142e-002,
          -3.1273361746868150e-002, -3.6852413486763075e-002,
          -3.1584859955624306e-001, -4.7423519436437418e-002,
          -4.6980326994388574e-002, -2.0302834906725212e-001,
          -5.5510080668131019e-002, -1.6218239320907316e-001,
          5.8186920708181634e-002, -4.2653863693351661e-002,
          1.6177371330310439e-001, 2.2696401019059406e-001,
          1.5527382748024820e-002, -3.7874111043645839e-002,
          -8.0427691341777768e-002, -1.7102006139127482e-001,
          -5.6188344450762991e-002, -9.0097639689984257e-002,
          -6.3500515669016447e-002, 6.2105676292195516e-002,
          1.0915938018959132e-001, 5.7150892962010834e-002,
          1.3585855740443631e-001, 3.8723182208558547e-002,
          3.4289574129054529e-001, 2.8633268674022139e-001,
          -4.1825765589027196e-002, -1.8237376185329029e-001,
          2.2796869313023280e-001, -3.0888341747758080e-001,
          -2.3832125749507224e-001, 1.5706380184378740e-001,
          -1.3690108064920981e-001, 1.1763715979659511e-001,
          -1.7237151756452646e-002, -2.1728877944584224e-001,
          1.6661659101264867e-001, 1.7631116006766451e-001,
          -4.1805633611728121e-001, -2.6317325655786934e-002,
          -6.4569066500094405e-002, 2.5169057624568147e-001,
          -1.0583376000612897e-001, -9.5549545769453709e-002,
          6.1892854009106980e-003, 2.9696741416265750e-002,
          -4.4911202627956623e-003, -1.6603026150577432e-001,
          -2.3559274294497071e-001, -5.8180886812903227e-003,
          2.5377385112002160e-001, -2.2365622648529832e-002,
          3.2025542885305963e-001, 9.2240845887576126e-002,
          1.5815449574452012e-001, -6.8836110403270381e-002,
          -6.5575515668540807e-002, -2.1153829886878936e-001,
          1.2617208039614358e-001, -4.2675407273524694e-002,
          3.2040071046341501e-001, 2.1911126242070998e-002,
          2.0030591660566271e-001, 2.1491898810811846e-001,
          3.2507726057500930e-001, 2.6485146159907857e-001,
          2.8110409149795353e-002, -1.3920404964748059e-001,
          -1.1902425151797516e-001, -1.0534188794403546e-001,
          2.7263351737753799e-001, -2.1542390725416541e-002,
          -1.0390200022817603e-001, -3.2617092869397228e-002,
          2.7096280966875874e-001, -2.1325547351331209e-001,
          5.6382766615464652e-001, 2.9197306871521672e-001,
          1.8130214509444714e-001, 3.3735611797544629e-001,
          1.1487769927570384e+000, 2.4225285990603630e-002,
          2.3919013453210906e-002, 1.3203983968532546e-001,
          -3.8166067275093912e-001, -4.9280075206692933e-002,
          -4.1484623832526801e-001, -3.9869013359716104e-001,
          -3.8912321464713906e-002, 2.4371316254189487e-001,
          -3.2708115370349997e-002, 2.0152988615635966e-002,
          -7.7988201650333586e-002, -2.1592365452363244e-001,
          -3.5500911016265202e-001, -2.3342413033152716e-002,
          -8.3491463676986802e-002, 4.2242057962630297e-001,
          -1.5137966822117913e-001, -4.1689262773735206e-002,
          5.0565579809720451e-001, -2.8487329543179313e-001,
          3.3643564892258621e-001, 2.3366336382990466e-001,
          -1.5396197279477333e-001, -3.5798525537055603e-001,
          -4.3101821701198745e-001, 1.7296767843264019e-001,
          -3.0760529500054836e-002, -2.2612655896757086e-001,
          7.6620467401499720e-002, -2.3151895084355392e-001,
          1.3811421024419138e-001, -1.2598099283645561e-001,
          2.4452314740692721e-001, -1.0492712216669207e-001,
          -1.9850905155214327e-001, 2.8849529309689376e-001,
          -1.7101295457484386e-001, 2.1991829640997540e-001,
          1.7525726317448426e-001, 2.2932150565580553e-002,
          1.9027859533788230e-002, -1.1586338350432697e-001,
          -2.3729196847442888e-001, -1.1458320358156328e-001,
          3.6936014716731345e-003, 3.3997879735240211e-001,
          1.8971834526542808e-001, -9.3694885145480217e-002,
          1.0164458314806746e-001, -2.1614808923475018e-002,
          4.5532020974675708e-001, 1.8023917742436019e-002,
          1.0021488889829575e-001, -5.7380493992312764e-002,
          2.0656516285081258e-001, 9.9873614140432942e-002,
          -2.5829871257169132e-005, 2.2237853820827980e-001,
          -6.9771321403695769e-002, -1.3324108598808967e-001,
          -3.2558108050588475e-001, -2.2844659649258331e-001,
          1.0812062441021390e-001, 3.5381676099583831e-001,
          2.4155934706968205e-001, 2.3393290241308703e-001,
          -4.8916744931326245e-001, -1.7671435521487827e-001,
          1.5571400056523674e-001, 5.5484229137404262e-001,
          -1.1030346465255759e-002, -6.9266209267652160e-002,
          -9.3997658357221348e-002, -2.3618078011231733e-001,
          9.6571814248398044e-002, -6.1396865916807777e-002,
          -1.6303356123154175e-001, -2.0896002528480428e-001,
          1.6007310617400239e-001, 1.3727613859193530e-002,
          6.1949725592658829e-002, 1.7467813796039408e-001,
          -2.4432327795666800e-001, -3.7127300480012898e-001,
          -7.0630747580996120e-002, 1.1487818558033590e-001,
          1.1193272545609770e-001, 1.6842103429331895e-001,
          -4.4571617242918671e-001, -2.8772762116191186e-001,
          -1.4751480986812301e-002, -7.1609484309014260e-002,
          -4.6623058390388572e-001, -2.5856263636647869e-001,
          -1.3610174230622327e-001, -1.6948399504002901e-001,
          1.6605780054763147e-001, 6.2377404183018875e-002,
          -1.7372873861035507e-002, -7.9067142186126899e-002,
          -2.2367864799520720e-001, -6.6054661255988675e-002,
          -3.4507999833502279e-002, 4.0463330809025061e-002,
          3.1262642359170539e-001, 1.0280257007989253e-002,
          1.5333852167216087e-002, 9.3190156275468367e-002,
          2.9841442319958256e-001, -1.7129253803346967e-001,
          9.0279081057000554e-002, 2.1508449822920300e-001,
          4.8207486823710283e-001, -2.5964143575743598e-001,
          4.9849215824870258e-001, -4.1020530319410337e-001,
          7.7416405187005169e-002, 2.0892726282002114e-001,
          -4.0854122334029097e-001, -2.0836483247833090e-001,
          -3.1820357885206579e-001, -1.1201581747867535e-001,
          -5.5909125284763043e-002, 9.3949053860915566e-002,
          2.2017663086490963e-001, -5.7900656740495382e-002,
          2.1258378008580162e-001, -2.0935179810931359e-001,
          -6.0205260981205315e-002, -2.8993162055276106e-002,
          -5.9868257836725214e-001, -2.3148657780801241e-001,
          -4.5075472523359866e-001, -1.4248996309804213e-001,
          -1.9850845421693042e-001, 1.9667048889870642e-001,
          1.1289054448235977e-001, -1.0920920175395306e-001,
          1.3689451880685674e-001, -3.3726230734960705e-001,
          -9.9992976927877786e-002, -1.5990180690727737e-001,
          -8.3923665392706848e-002, -2.2452534379562686e-001,
          -5.7042447326046464e-002, -3.6848169231223143e-001,
          1.9384917310560834e-001, -2.3344734241487317e-001,
          -1.3043784869350159e+000, -2.4872924407696043e-001,
          4.7579420471578337e-004, -7.1144442845061912e-002,
          1.2963204045240082e-001, -1.6354340530110825e-001,
          4.2676179352437338e-002, 2.0102464365748521e-001,
          2.0974044697884456e-001, -1.4098954186844450e-002,
          1.7901095444040524e-001, -2.3413357866140033e-001,
          -3.2526692452622553e-002, 1.3254844935798529e-001,
          1.2848264272837692e-001, -1.6075452210260821e-001,
          -4.5178637530158279e-002, 1.0643018612044042e-001,
          -1.3657285424527421e-001, 2.9463531714124799e-002,
          -8.3347169314664543e-002, 5.6430768904995536e-002,
          2.9553809494725097e-001, -1.2052152842235062e-001,
          6.7325256039681700e-004, 9.5294687702741812e-002,
          -2.6670808448793545e-002, -1.7467560570349194e-001,
          -3.9236584028518018e-001, 1.0711515065176207e-001,
          2.2808475550213525e-001, 3.0126099412488694e-001,
          -3.6354091659728832e-002, 9.4064822406091389e-002,
          -5.5617154296191101e-002, -1.5534175901273792e-001,
          2.5538555069457436e-001, -1.1643410375960998e-001,
          1.5033641066350420e-001, -1.1083002396001315e-002,
          -1.3388632671953893e-001, -1.6300605296524315e-002,
          1.4337382649035438e-001, -3.6130867931688612e-002,
          -3.0504401211768989e-001, -7.8732237241344441e-002,
          3.3973477289355092e-001, 1.0290246867790847e-002,
          -2.4991857054853941e-001, -2.0228583361793815e-002,
          2.6166084173511239e-001, 3.5340907964894458e-001,
          2.1373997035872438e-001, 1.0632372387625356e-001,
          5.5136142761859498e-002, -2.6747771543345755e-001,
          -1.6225276519915788e-001, -1.7842841015183405e-001,
          -1.8809595318780847e-001, 2.4575065933076626e-002,
          -1.2597233745895380e-002, 7.9709607034988153e-002,
          1.0122490658157299e-002, -1.4746719213579633e-003,
          8.8354850301667440e-002, -3.6190032323552307e-001,
          -1.0288416747444930e-001, 5.9665395217656195e-002,
          2.9495943766422156e-001, -9.1635567180815794e-002,
          -6.5522289220497951e-002, -1.3519717318194008e-001,
          1.1011493201427724e-001, -1.7344063256987755e-001,
          -2.4793440741842248e-003, -1.0578921324561727e-001,
          -1.6842838128722409e-001, -1.3539189512420691e-001,
          4.2216974252232455e-002, 9.9936580741138634e-002,
          1.2801275845735982e-001, -9.2698877796436818e-002,
          4.0745865983254159e-001, 4.0030500032542478e-003,
          2.2238209851778962e-001, 5.7858985790630167e-002,
          -8.7353646932120013e-002, 3.9501854938822981e-002,
          -1.3088652035585926e-001, -8.3263158102696522e-002,
          1.6156383519490963e-001, -1.0139550500406792e-001,
          -1.8750985228492043e-001, -1.9831922976526611e-001,
          -1.2494477274338947e-001, 4.0954946154246642e-002,
          9.4408629596830190e-002, 1.4053742514347914e-001,
          4.6361658071475603e-002, 2.4857591229172701e-001,
          -2.3722406821002315e-001, -1.7002895129168916e-001,
          -2.9429798132415663e-001, 1.0923720127239293e-001,
          -3.4411389000188891e-001, -1.5378210106993473e-001,
          1.4983369931364059e-002, -1.0041630431590576e-001,
          3.2510785007620065e-002, 4.5173943269074916e-002,
          -5.8578100130893027e-002, 2.4141436648707315e-001,
          -1.6732241484093030e-001, -8.1927729700313076e-002,
          -1.1622741756102832e-001, 1.5735477973478090e-001,
          2.4408422123680432e-001, 8.4772961346612621e-002,
          -1.8116199218531293e-001, -1.3071398488248828e-001,
          -1.1579184132166455e-001, -4.4382971458866917e-002,
          -9.7873779666074634e-002, -4.0118811770455481e-002,
          -6.3615348604341621e-002, 3.1333399587621262e-002,
          -2.0016598502065033e-001, 2.5261822623067903e-001,
          -4.9080301303601602e-002, -3.8109904756780788e-001,
          9.8215375831471260e-002, -1.7389048593997689e-001,
          -8.2848642795227898e-002, -3.0593908153559732e-003,
          -1.6669603586368098e-001, 4.8787001019069971e-002,
          -2.6515444746128845e-002, -1.2005583437611313e-001,
          3.4581055494765067e-001, 5.7679805934214838e-002,
          2.1770889601324900e-001, -1.3022957929710898e-002,
          -1.6469865780709822e-001, -1.1649835191352578e-001,
          5.7988741934147367e-002, -1.4840163327789702e-001,
          2.9432290512684950e-001, -1.2219324212796695e-001,
          -3.0002707484712940e-002, -2.1337893865928145e-001,
          -6.0099730876560764e-001, 9.8451855129580615e-002,
          1.7600337655366735e-001, -3.8899546901691881e-002,
          -4.7512742587387358e-002, 1.9013734414048455e-001,
          9.5646772509973568e-002, 2.0466853105669625e-001,
          -9.2468566548417869e-002, -1.2998808149009050e-002,
          3.5882434524435562e-002, -1.2831249114436069e-001,
          -1.7542137032695260e-001, -8.0535867874728245e-002,
          6.7514910500404451e-002, -1.3534139520948796e-001,
          3.6892964643381335e-002, -1.4773061909859916e-001,
          1.8729034450917612e-001, -1.9804531583792948e-001,
          1.2083670490905594e-001, 2.2777401291415986e-001,
          -1.7426148576200251e-001, -4.9117144790268567e-002,
          1.4795308235183182e-002, 2.9537249878325629e-002,
          3.4598830296295624e-002, 2.0103517960189890e-001,
          -3.4642043280166533e-002, -2.8094437822716622e-001,
          7.3064922725009640e-002, -2.0280381498673722e-001,
          2.6858377745359514e-003, 3.8055004849728825e-002,
          3.7411218023238060e-002, 6.3965227221361609e-002,
          4.3374943952872821e-002, -1.7656610894324518e-001,
          5.1804214430178241e-002, -1.2686232065588504e-001,
          -2.0803699527392819e-001, -1.0971427522927799e-002,
          -1.0897008423664846e-001, -2.9955265547267351e-001,
          9.1225308880002021e-002, -2.8224952612218174e-001,
          1.6231778183331824e-002, 3.4044555085658533e-002,
          3.7652913198843996e-001, -1.4931166755184219e-001,
          -2.2968566575841837e-001, -9.7691365388130058e-002,
          -1.3176176164854195e-001, 1.4680202528893149e-001,
          4.5272101219711577e-002, 1.1581438700134973e-001,
          6.2418404879759484e-002, -3.2064462316351133e-001,
          3.3182619647232575e-001, -1.7255427498488590e-001,
          -1.5274195053571374e-001, -2.4352038068948995e-001,
          2.5488014911598633e-001, 9.7710013763073825e-002,
          -2.7051926179716168e-001, -1.3166771429499582e-001,
          7.8096675925302908e-002, -1.2293360741269994e-001,
          8.5298752044933840e-002, -2.3738495913685675e-001,
          -2.2544313333009908e-001, -1.8348584722640651e-001,
          -1.9959281140195179e-001, -5.1358181757578433e-002,
          2.0459189080262565e-003, 9.5161494386377263e-002,
          -7.7864961871558364e-002, 1.8273666143262757e-001,
          2.7069362399504285e-003, 1.3413108688449996e-001,
          -1.3233138699741814e-001, -3.0402311305636259e-001,
          -5.1178944159116523e-002, 2.9148369564202292e-001,
          2.7095290277342017e-003, 8.5492862337875952e-002,
          2.0976259482059889e-001, -7.0891219041914977e-002,
          6.3983237933876086e-002, -4.2405363312590358e-002,
          9.7414076153696669e-002, 1.4796000023567848e-001,
          -3.0526993529599178e-001, 2.4893209173560471e-001,
          3.1807723645355940e-001, 1.3286151411638775e-001,
          2.1893138587796626e-001, 1.9890687333470611e-001,
          2.8089139798884173e-002, 3.1340557206146244e-002,
          3.3961765634828139e-001, 6.0077488494511951e-002,
          4.7982174893151056e-002, -8.3769623834486967e-002,
          1.9641896135869957e-001, -2.3652081333149988e-001,
          -8.4378478592645245e-002, -1.3739961291662173e-001,
          7.9457283239947163e-002, -3.9704383185284707e-002,
          3.2030371125307089e-001, -3.5324337137473912e-002,
          4.0964591485386018e-002, -4.6993923654104722e-002,
          -1.5803020095998852e-002, 2.7485262185605316e-002,
          -2.9334604481102287e-002, 3.9028550499218723e-001,
          2.7646835673384462e-001, 3.0807460486084865e-002,
          -9.6502485797429843e-002, 1.7861653726064167e-001,
          3.2166162946219698e-002, 2.5096292656073488e-001,
          2.0781605329425046e-001, -1.0093690910295443e-001,
          -6.4984226344663484e-002, -2.2885788162131784e-001,
          -1.8332298626145399e-001, 3.2771167681692920e-001,
          -1.5216867330529019e-001, 4.6365063815789441e-002,
          -2.7605632241626519e-002, 1.6310592541635305e-001,
          2.8907823491830914e-001, -4.3835088776205608e-002,
          1.2758290233263223e-001, 3.1551869916714476e-001,
          -9.4262945456573863e-002, -6.4146766419391307e-002,
          -1.7005479018967223e-001, 1.1903755522827890e-001,
          6.7652173776664437e-002, 3.2228494330766072e-001,
          -1.6292869104465579e-001, 2.2543523428603998e-001,
          -2.0230336527803500e-001, 3.3638955558917999e-001,
          -1.1238327157577926e-001, 2.5203260951176802e-002,
          2.1243816494124934e-002, 1.7129556642490035e-001,
          -3.9431215183579255e-002, 2.6983315239320287e-002,
          -1.9842269003711097e-002, -1.6460355869372344e-002,
          3.6977889560013313e-002, 1.7614873164819439e-001,
          1.6696901595843593e-002, 7.8474968227455671e-002,
          3.6129490183569125e-002, 1.2557939531412163e-001,
          -4.0306357675000001e-002, -8.9902320482295073e-002,
          1.2918741671325204e-001, 7.5926571615062027e-002,
          2.3796874905226825e-001, -2.2296494583015986e-002,
          2.7948341396170671e-002, -1.8471533650859143e-002,
          -1.5897570846470377e-001, -2.0135301608351680e-001,
          1.6580307229423027e-001, 1.8919525723006603e-001,
          -1.0719955811527382e-001, -2.0862259307031578e-002,
          1.0789880827262923e-002, -8.3823379028979378e-002,
          -3.2077776605162117e-002, 6.9893850836442839e-002,
          -2.1560860219202053e-002, 1.6877781586865387e-001,
          5.0891338435155226e-002, 1.2455096081465289e-001,
          1.9697500824897098e-002, -2.0972627529194984e-001,
          -3.5211865561245774e-002, -2.1111321484020704e-001,
          4.8148236736631322e-002, 5.4615938772579427e-002,
          7.6812631474807797e-002, 8.8846398079489214e-002,
          -1.1158638316181878e-001, -1.7380385195310419e-002,
          2.0086529273377196e-001, 8.4782443040464964e-002,
          -8.5520594437310068e-002, -6.4864702875713456e-002,
          -1.0480937922855138e-001, 1.4759477744767305e-001,
          -1.9115239014598764e-001, 1.4527824043334298e-001,
          -1.1368117164309283e-001, -7.4991844504172289e-002,
          6.5781588269673077e-002, -1.5935580461937571e-001,
          4.5583049092681224e-002, 2.5513275548504220e-002,
          6.6477354260203458e-002, 4.8012287807014569e-003,
          1.2482470789506823e-002, 9.8875005230639565e-002,
          5.4480443190912907e-002, 1.4337650985348196e-001,
          3.1598864531629488e-002, 4.0728635766428029e-001,
          -1.2229710224017344e-001, 1.5972744289578064e-001,
          -3.0595892845260347e-001, 7.1879347264084958e-002,
          5.8661256064246235e-002, 2.0359572881120200e-001,
          -2.5299059827384129e-001, 8.4941670820163198e-002,
          3.5230245186186177e-001, -3.3470094075536182e-003,
          -1.0115135304057525e-001, -8.3802132828172740e-002,
          -1.2200886614155301e-002, -1.7830241512652087e-001,
          6.8262207707303249e-002, -1.2585029470403106e-001,
          -4.3678392534586857e-001, -5.3782425163093291e-002,
          4.3424621744883554e-002, -5.1947324400178851e-002,
          -1.0294377704536255e-001, -2.5254737405468941e-001,
          1.4870656347315087e-001, -2.5455094615412938e-001,
          1.7736008323408981e-002, 7.4788795346869219e-002,
          1.4708594490569663e-001, -1.1130195557745415e-001,
          -2.1318021329778291e-002, -1.6501091699385292e-001,
          -9.0335868125581517e-002, 1.5232255809338321e-001,
          1.8629317797589642e-001, 2.1907205983239454e-002,
          -1.9333588101456783e-001, 1.9513179562945262e-002,
          -6.6694132295154737e-002, -1.1642821560990725e-001,
          -8.5473972980792803e-002, 2.0162249869383239e-001,
          5.2249886520632574e-002, 8.0789123218541661e-002,
          1.5715952613478759e-001, -1.2349651529009480e-001,
          2.9041675363827538e-003, 1.4019960205627674e-001,
          -8.7638250109284943e-002, 2.5743303932521916e-001,
          1.1410077915610228e-001, 9.4815505100112288e-002,
          -9.2660116378454158e-002, 4.8155101384996180e-002,
          3.3366486721556211e-002, -1.5131030443430636e-002,
          1.0861866081062081e-001, -2.4487014976754468e-001,
          3.4886487974884084e-001, -1.2455202376002325e-001,
          1.2003813778892346e-001, 1.2926163290006001e-003,
          1.4947147116308956e-001, 3.5716276204712111e-001,
          7.2201903779273588e-002, -3.0758989144993063e-002,
          -1.3855498822448570e-001, 1.5406438677781281e-001,
          1.4405838431250739e-001, -5.3930972035065132e-002,
          -5.2944851433992753e-002, 4.6941565330556427e-002,
          -9.5633993705186368e-002, -2.0229393918387006e-001,
          -2.7212312976426178e-001, 1.8671258165239960e-002,
          -9.1909126669381280e-002, -2.5002026738142284e-002,
          4.2008265071714984e-001, -7.8093012392177322e-002,
          1.4238233661713282e-001, 1.6971874631386089e-001,
          2.3814361169926834e-001, -4.8607972399936104e-002,
          -9.9063628287986330e-002, 7.1607094137155755e-002,
          -5.2908646151072105e+000, 3.4863529680424493e-001,
          -1.3998303198633261e-001, 1.1340679717642872e-001,
          4.7218543021119191e-001, 1.5073501876861384e-001,
          2.7943228351270533e-001, -1.4761192434037601e-001,
          -2.5242330830021725e-001, -8.2506832108109870e-002,
          -1.8919335915366151e-001, 1.8048840994644424e-001,
          -1.8572403159262610e-001, -7.0995196501001917e-002,
          1.9173396922491931e-001, -2.9146408517546463e-001,
          -2.3636152086360954e-001, 9.1702085221189972e-002,
          2.3866586458798258e-001, 2.4975283249476551e-001,
          9.9938381418964869e-002, -3.2982457597965260e-002,
          -3.5514634368340847e-002, -2.7617713131581630e-002,
          1.7837069272377012e-001, 1.5455301971569080e-001,
          2.7764085763799246e-001, -4.2327822299541557e-001,
          -1.0673693358445100e-002, 1.7824181362985822e-001,
          2.0308403333867503e-001, 6.4718388200937713e-002,
          -7.9692990277158218e-002, -9.6363122057844253e-002,
          5.7826256293976704e-002, 1.4798766392052918e-002,
          3.2773193174876447e-001, -3.4747146240740018e-001,
          5.3145500463179396e-001, -2.4380539665990050e-001,
          -1.6768705116517971e-001, -5.3455988900690310e-001,
          9.6422469703040858e-002, 2.2725620345355527e-001,
          -2.8304920568422026e-001, -2.6048611772612684e-001,
          -2.1232320601764171e-001, -1.1237069472262383e-001,
          8.1019535660948883e-002, 1.3925731582016235e-001,
          -1.6067155264263502e-001, -3.2417893088331795e-001,
          9.5170498528951750e-002, -1.2491135143352290e-001,
          -3.2987983101865997e-001, 2.0907086727759518e-002,
          -9.9304296134208284e-002, -2.0527288496356993e-001,
          -2.0078557736412345e-002, -2.3139758749650813e-001,
          1.8300584681131388e-001, 5.5772041730766095e-002,
          2.5195289963389383e-001, 1.7690054500913122e-001,
          -1.6703665107404714e-001, 6.6714413668383668e-002,
          -5.8084914012843747e-001, -1.5734596862482608e-001,
          2.9280158873119272e-001, -1.4858306905247909e-001,
          -1.3987676074315347e-001, -1.5828665579108187e-001,
          -2.9187031792577828e-001, 1.6861465727335626e-001,
          2.2064501636261902e-001, 6.4041862156980114e-002,
          6.1208397276109328e-001, 1.1698256394744370e-001,
          -2.4307323975513473e-001, 1.0528372373167716e-001,
          -2.5796705774584108e-002, 2.4792921657317744e-002,
          -5.7452324686184889e-003, 4.1618463785668203e-001,
          -2.5964737824728024e-002, -1.4431858078451584e-001,
          1.3305442281796900e-001, -1.1252662781130025e-001,
          -3.9623979404414124e-002, 2.8080894674219892e-001,
          4.6070631576962445e-001, -1.4247366810801390e-001,
          -1.9530926460077100e-001, -2.4215539290721280e-001,
          6.8533423230834412e-001, 4.0665936185482054e-001,
          1.6431697113014182e-001, 3.1943428119362161e-001,
          1.6522415256818238e-001, -3.3898088912074781e-001,
          3.1600734684974879e-001, -1.8077154941259296e-001,
          5.4270568077994463e-002, 1.0030989738517827e-001,
          1.2742212901942176e-001, -3.8632371920994174e-001,
          4.3127424007673193e-001, 4.0207923289851033e-001,
          2.0392159203672988e-002, -3.2518856887639969e-001,
          4.0142320839817558e-001, 1.0140179504108542e-001,
          -1.4925717811754341e-001, -9.6810838495572857e-002,
          1.7830939943863930e-001, 4.9952320789512156e-001,
          -3.8542290433800419e-001, 5.6103432081895621e-001,
          3.2981167216465095e-002, -1.6826085645349706e-001,
          -3.4014723780649203e-001, -7.4688192760891128e-002,
          2.2549246613682070e-001, -5.9749600233352551e-001,
          -3.2289981682266433e-001, -3.5453734020586086e-001,
          -8.2937143530113569e-002, -3.5151349463472981e-001,
          5.7479732453059443e-002, 4.1997601266222684e-001,
          4.9978246550580746e-001, -6.6122662658045520e-002,
          4.2051856573444979e-001, 4.0021010862068229e-001,
          1.7762036241288390e-001, 1.2669419737713195e-001,
          8.1178991387385407e-002, -1.9391424619663966e-001,
          -3.1989101507233375e-001, -2.9120665471013114e-002,
          -1.1623426920598963e-001, 1.2733710901031162e-001,
          4.8977096463257952e-001, 4.9841856743737373e-001,
          6.4046660865958338e-002, 4.4069308602341539e-001,
          5.2773496047819821e-002, -4.3704014685514730e-001,
          -2.8365762586354576e-001, 1.9828525302526243e-001,
          -1.7217327178747819e+000, -1.4779477733554695e-002,
          1.0518754140508597e-001, 8.0576758873028245e-002,
          -2.6204333180677003e-001, 1.3958519522540658e-001,
          5.8699508104833334e-002, 1.0641278833210006e-001,
          1.5898373990184188e-002, -8.0935364343043006e-002,
          -3.5117413537080852e-002, -7.7103465166085197e-002,
          -3.8308710249063621e-001, 2.9520587534482590e-001,
          -3.0369582046075300e-001, -3.0132183758142445e-001,
          -1.2940965789608501e-002, 4.7565035675176515e-001,
          1.7312257316393692e-001, 7.5318137564978085e-002,
          3.6687607584096493e-001, -4.3001651969518384e-002,
          4.4918922523693013e-002, 1.4336911408153111e-001,
          2.2201061131581341e-002, -1.8650847967158579e-001,
          -1.0763479400388735e-001, 1.2237292409492356e-001,
          1.2137966350134508e-001, -2.2926011034619362e-001,
          -1.3312237865521437e-001, -4.5278917428718542e-002,
          1.3126759795528492e-001, 2.9887020374421508e-001,
          2.5640296865084361e-001, 8.7185004388871432e-002,
          3.3840458367351056e-001, -4.2753219053952718e-001,
          -4.3307564208043173e-002, -3.4888644046132268e-002,
          -1.6327948046955859e-001, -5.2578977562523066e-001,
          -3.4174697940040860e-001, -2.9327135627552275e-001,
          -1.3395778144936576e-001, 9.8105458137573154e-002,
          4.1715182876250957e-002, 1.2674943895212876e-001,
          1.7710079737446488e-001, -2.1481324853002337e-001,
          2.1761646755713177e-001, -3.5398759357500129e-002,
          2.1003505306738987e-001, -2.4352821381492804e-001,
          1.4458161216316456e-001, -7.1953456751183031e-002,
          3.6153153251302367e-001, -2.5844296978667358e-001,
          8.0055416406089777e-002, 8.8848608277696847e-002,
          -1.6070653675633487e-001, 5.2588298757337143e-002,
          8.4008644349475220e-002, -2.3886654947674621e-001,
          5.5938949149150131e-002, 1.4357522706971432e-001,
          1.6192582392056620e-001, 3.6852454613969854e-001,
          -2.7425655752356037e-001, -1.5298242523230354e-001,
          -1.5449697172276347e-001, 4.7061066718051514e-001,
          -4.4455820113593464e-001, 1.3510842873115322e-001,
          -2.6032530819674705e-002, -1.5502823091877110e-001,
          5.7857743913703958e-003, 2.6968819738733357e-001,
          4.1606486564404077e-002, 5.1695311253206477e-003,
          1.9250698375013495e-001, 1.2218969924386529e-001,
          -4.1208256632563077e-002, 4.9833362255715913e-001,
          2.5805059337323549e-001, -4.4640294518887363e-001,
          2.6906981914486500e-002, 6.1662970052636441e-002,
          4.0315281450182556e-003, 2.9066737155621858e-001,
          -2.1793449284802638e-001, -3.6691056782096476e-001,
          -1.0404487488545519e-001, -7.2308971120263049e-002,
          1.0509371448892673e-002, 2.5980552524361966e-001,
          2.3151333030338107e-002, -5.5280293094479169e-002,
          2.8893008152089372e-001, 1.4663971111199636e-001,
          2.3020446414841123e-001, 4.0676959399584794e-001,
          -1.8188118981313633e-001, -1.0911734394286138e-001,
          -7.2412729225546204e-003, -7.8459094677732336e-002,
          -1.2421745415166451e-002, -2.5986756717767429e-001,
          -7.4017306939444041e-002, -3.4427797569533508e-001,
          3.9126345128937895e-001, 3.5877943414857630e-002,
          8.8161957481469266e-002, -1.4402636889684969e-001,
          3.2325422436238904e-001, -2.3107359591098761e-001,
          2.5444947613563296e-001, 1.1108439201151785e-001,
          2.5469972068219916e-002, 1.2091000226252407e-001,
          -1.6097448228319580e-001, 4.2136575880944202e-002,
          1.9780516427110378e-001, 1.4278951494762504e-001,
          2.2496588687680510e-001, -1.1390137090740067e-001,
          -1.3274283151855656e-001, -1.3730665033256267e-001,
          -9.2935060377354023e-002, -5.3017710219536045e-002,
          -1.6397950476226758e-001, -1.9183060350208386e-001,
          -1.1676253666008331e-001, 2.0341848778376651e-001,
          -3.6662479912285946e-002, 2.1967603002133110e-001,
          6.0380601521778945e-002, 7.1604816044421135e-002,
          2.8446379420181959e-002, 3.2142737053594359e-003,
          8.0692985683500182e-002, 1.0973500976968871e-002,
          4.5138832904680981e-003, 6.5998587976338896e-002,
          -1.4981563964014036e-001, 1.5160472527409669e-001,
          -2.1709690759661063e-001, -8.4668530635286593e-002,
          -1.6584381970335549e-001, -1.9500448132965537e-001,
          8.1298136218419181e-001, -8.9280735830089747e-002,
          -1.6186941779330247e-001, 1.2363744402055071e-001,
          -2.8212777808521855e-001, -1.4281903146273449e-002,
          -2.0155553138542240e-002, 7.6401910442858809e-002,
          -1.5271450864685043e-001, 4.6158107145060051e-002,
          -3.4827906143854637e-001, 1.2121035876786078e-001,
          -1.5155599817386914e-001, 1.7132346701687687e-001,
          -2.2954806911262346e-001, 1.1577247250296176e-001,
          -1.7639746623320232e-001, 4.7193708702791126e-001,
          3.8992784270095088e-002, -5.8756510702428523e-002,
          3.4928308998831947e-001, -1.1647375425103641e-001,
          4.1588609973244484e-002, -5.3731554029852052e-003,
          -4.7680174560811982e-003, -2.8606281073658180e-001,
          -6.8801127458772066e-002, 1.7327705297512863e-001,
          2.5450118594002841e-001, -2.6528709630834918e-001,
          1.1072325707593607e-001, -9.1724154870331573e-002,
          1.5118286016351293e-001, 1.0933021853073854e-002,
          1.6753455070379508e-001, 4.6633064921621045e-002,
          -1.4408119679256570e-001, -8.1850578688552177e-003,
          -3.5005147702751621e-001, 7.0306478598248026e-002,
          -3.0975353585832827e-002, -1.0427998629713067e-001,
          -1.7018236885679791e-001, 7.0071039527948603e-002,
          -9.9246315855305495e-002, 1.0537865574908539e-001,
          -1.0732750929776599e-001, 7.4950407235936017e-002,
          1.4491180498323483e-001, -3.5611046492758663e-001,
          1.4646555543962883e-001, 1.8212915280171327e-002,
          1.1650530785182109e-001, -6.5286076540688215e-002,
          2.7593635107754605e-001, 1.3617793136828503e-002,
          1.3799810935991849e-001, 8.3831915666087400e-002,
          2.3199106925271831e-001, 2.0688724723384905e-001,
          5.7379751603020564e-002, -1.9567657460178389e-001,
          -1.3184260836408510e-001, -1.9251011360809200e-001,
          2.8545891866122480e-001, 1.9189110989064048e-001,
          2.1423609890539877e-001, 9.9901616174116123e-002,
          -4.0755429801126747e-001, -1.0460548160466002e-001,
          1.9969999137877344e-002, 1.1844612495717628e-001,
          1.6182315085269758e-001, 1.9109285422767225e-001,
          -1.7145724464362488e-001, 8.2692515577480377e-002,
          -1.2933968173743429e-001, 1.1194006800308685e-001,
          -6.7332362170957352e-002, 1.4941090360576276e-001,
          4.7372281409219917e-002, -2.2828714659382916e-002,
          -2.6384215571619524e-001, 5.2626670018494623e-002,
          -9.8468207648715111e-002, -8.0056852391404573e-002,
          -2.8004657224380978e-002, -3.2557910911337369e-002,
          1.1750319067064512e-001, 2.1224560369695822e-001,
          -4.1458161339407190e-001, -4.3901164620318456e-001,
          -1.4777028934825720e-001, -1.3297295664759781e-001,
          -3.1164961262832042e-001, -1.0701649751987927e-001,
          -4.7491590666236830e-002, -2.6069177535356419e-001,
          -1.0167267699014385e-001, -1.0168404289734145e-001,
          2.3281555303412532e-001, -7.6331176647031665e-002,
          3.2653343040670406e-002, -2.6078595257400639e-001,
          1.0132791129408984e-001, -6.6756007124643274e-002,
          6.6022849072862322e-002, -7.6590278665267505e-002,
          2.2777788641951816e-001, 1.7473365146200609e-001,
          6.3361576049384874e-002, -2.1229317405785086e-001,
          7.5274512063411264e-002, 9.9216070190228892e-002,
          2.8169915293298808e-001, 6.6680627780239213e-004,
          1.7187571502120397e-001, -1.2865865902411179e-002,
          -1.2039361728958833e-001, 2.5314960862351715e-001,
          -8.7496025778518685e-002, -6.1407386940469454e-002,
          9.2603531719977789e-002, -3.7977905825625678e-002,
          1.9594213699756388e-001, -2.4584286908082186e-002,
          2.0130604495954423e-002, -9.4471866013092917e-002,
          1.0911718822231957e-001, -1.3838501486122587e-001,
          -8.1997839318056667e-002, -3.1502368040563292e-002,
          -1.7082234267062876e-001, 1.8982721095939483e-002,
          -5.3668573341857546e-003, -1.0843912991689507e-001,
          -1.1121744273444409e-001, 2.2873781550363884e-001,
          -6.6395351329282773e-002, 9.9347082639730369e-002,
          2.4085405393240819e-001, -1.8764262514594493e-001,
          -8.0015537603613421e-002, -3.9512112185371560e-002,
          -1.1935492269571905e-001, -1.6727131496461364e-001,
          -4.3693156666028671e-001, -2.4170391901143718e-002,
          3.4131319070082759e-002, 3.2330343344843950e-002,
          2.8538316027450521e+000, 2.0211363684113398e-001,
          -3.4284370147690681e-002, 2.9997603940600751e-002,
          5.7770352120316400e-002, 2.1371436588651756e-002,
          -1.1827329992316363e-001, 1.5522926612715143e-001,
          7.5999266538344101e-002, 6.4326412147141174e-002,
          -3.7907823404516795e-002, -8.3072597599806494e-002,
          3.3085958615159139e-001, 7.1399406290476360e-003,
          1.7339231265826688e-001, 2.0835051831704776e-001,
          -9.3899380598415683e-002, -9.3997679052984881e-002,
          1.5238353441360031e-001, -2.4487538407372264e-002,
          -4.2980316466590551e-001, 5.8482447264543054e-003,
          -3.5360940051934936e-002, -9.7998002365258302e-004,
          1.8394972338113449e-002, 3.7625213435859145e-002,
          4.2507353950031149e-002, -1.5628675192632840e-001,
          3.1718247537542443e-001, -8.5870064359750781e-002,
          -1.6590406275283703e-001, 6.1497775385078085e-002,
          3.6625334056649209e-002, 1.1463997908967413e-001,
          1.9923033309636060e-002, 2.7665034566980232e-002,
          -2.8420645775813741e-001, 2.9616930699989763e-001,
          -1.8211443089729443e-001, -1.2693880485977586e-002,
          3.3625586319322459e-001, 1.4333358915679406e-001,
          -7.2167292141064196e-002, -2.0667119303336468e-001,
          3.7239351000584697e-001, -3.2751195232403238e-003,
          2.3604887132950871e-002, -2.1335651804733281e-002,
          -3.1368378758784426e-002, -1.7016162032953303e-001,
          -5.3160541157906271e-001, 1.5595800390278530e-001,
          4.4188858172186860e-002, 3.4609991765707976e-002,
          -7.0929135316443723e-002, 2.7600085946400340e-002,
          -3.0576714075158146e-001, 1.0937102329805036e-001,
          3.4186261004335156e-001, 1.0439302027223746e-001,
          -2.4743616028492146e-001, -1.5203152568142547e-001,
          3.2970866183342307e-001, -3.1396582965980316e-002,
          8.5643326432294775e-002, 1.4583305803064647e-002,
          -4.6274517161602365e-002, -9.1709720867861055e-003,
          1.3589752043391781e-001, 2.2984551854827290e-001,
          9.3929978551909432e-002, 1.1733860692831395e-001,
          2.1669487381709779e-001, 1.5800205471875869e-001,
          2.0115885511981171e-001, 1.8373571391839696e-001,
          -1.4119852437793837e-001, -4.7542534702073778e-002,
          -1.3566472272534821e-001, -1.8379771953963164e-001,
          -3.3767542280956526e-002, -1.3912297417165037e-001,
          -2.5949181151440870e-001, 2.9797640742599493e-002,
          4.4964670455245340e-002, 9.9018445086713563e-002,
          -1.1638472600522137e-001, -1.6554198603977932e-001,
          3.2190002452819311e-001, -3.8112921436694883e-002,
          -1.8442894898793324e-001, 9.2959854922405896e-002,
          -1.2118177703554096e-001, 4.5957496144630974e-002,
          2.6005815350248818e-001, -6.1879655177596776e-002,
          -1.5503829145628323e-001, -4.9728281000890544e-002,
          -5.3776033997787236e-002, 1.8924241437156225e-001,
          -8.0213221127068968e-002, -8.7666631049813606e-002,
          3.4722333663214372e-001, -7.2820479494691004e-002,
          -1.2096696249747445e-001, 8.5678251326292074e-002,
          -7.3176272941220491e-002, -1.6135270645384539e-001,
          1.4967228122834156e-001, 8.8033312799196947e-002,
          6.8932497647480412e-002, -2.0574342567335391e-001,
          8.1306818673311840e-002, 1.1212649300342165e-001,
          -5.6880020210080130e-002, 1.0718478473686118e-003,
          3.8734297988587435e-002, 1.7447220961996004e-001,
          -1.8375040484332866e-001, 7.4311781679556335e-002,
          2.0404607878147035e-001, -3.2275814600925747e-002,
          3.6574888207194386e-002, 4.1832845913158118e-001,
          2.9436815586231557e-001, 2.5783133381264239e-001,
          2.6746865527672470e-001, 1.7726041627389638e-002,
          7.0867635503746584e-002, 1.3229671822383837e-001,
          4.8034489252677399e-002, 2.2558041391615821e-001,
          1.0616481253540618e-001, 7.2157366138512077e-002,
          -5.9219911937593385e-002, -5.0573154519806644e-002,
          -1.5921125557101699e-002, 2.2599170775180974e-001,
          4.9207345388256898e-002, -9.5216383653206657e-002,
          7.7279297094692861e-002, 5.1595362083060946e-002,
          3.6110170702569083e-001, 1.9588717083563725e-001,
          -3.2489538684426868e-002, -1.4812662925445610e-002,
          2.4970677396191930e-002, 1.8834349159142852e-001,
          3.9106347941251995e-001, 2.6125041219122229e-002,
          2.7849021204355937e+000, 3.4298236979509306e-001,
          -3.0312330371602142e-001, -1.0006917597704741e-001,
          -2.1813744259055243e-001, 5.5569406006007273e-002,
          -1.9492007112072737e-001, 1.6498308344022894e-001,
          -1.7851413493129481e-001, 2.4857045343388909e-001,
          4.8822306382401278e-003, 8.0657363917927605e-002,
          -2.6702259917984622e-001, 1.0569658931643584e-001,
          -2.6275655114028307e-001, 2.1108381730165157e-001,
          -8.7180805254737273e-002, -1.3572884384459280e-001,
          -7.7881086773533462e-002, 4.2439882468164802e-001,
          1.0459481202443650e-001, -2.1674169917094213e-002,
          3.5996402409836276e-001, 5.4359876090895924e-002,
          -6.3475823167964907e-002, 3.1665181934546632e-001,
          4.7476763236253372e-001, 1.4310650516735929e-001,
          2.3119991575097051e-001, -1.5565647476322883e-001,
          1.7251732925289035e-002, 4.9728237791422193e-002,
          2.5975183202661106e-001, 5.6444802344258388e-002,
          -5.4136813621803698e-002, -1.1700375193629209e-001,
          -2.9726855450556455e-001, 2.2462645104727075e-001,
          2.3589590069553251e-001, 4.7976715151114646e-003,
          2.6060696725063426e-001, -3.6311038969475556e-001,
          -2.9774167891686365e-001, 3.1499800778499765e-001,
          3.4421705333598890e-001, 8.3218488187363944e-003,
          -7.1663029857033850e-002, -8.5609963873280376e-002,
          -5.7171187529589573e-001, -1.1999448841568292e-001,
          3.3779162828990461e-001, 2.0399458690882283e-001,
          1.5343062008678657e-001, -3.4519077936335041e-001,
          1.6389351830110524e-001, -1.0125322976659941e-001,
          3.8682601167014677e-002, 4.4164965953122820e-001,
          -2.7534279184181831e-001, 1.1478964931882506e-001,
          1.8400065720076916e-001, 9.1116314793116368e-002,
          -4.9618100823410899e-001, 3.5265130486942731e-001,
          1.1748104067988577e-001, 7.3294428733665831e-002,
          -1.5234384906521023e-001, 2.8801968623986379e-001,
