%YAML:1.0
my_nn: !!opencv-ml-ann-mlp
   layer_sizes: !!opencv-matrix
      rows: 1
      cols: 4
      dt: i
      data: [ 300, 150, 75, 10 ]
   activation_function: SIGMOID_SYM
   f_param1: 5.9999999999999998e-001
   f_param2: 1.
   min_val: -9.4999999999999996e-001
   max_val: 9.4999999999999996e-001
   min_val1: -9.7999999999999998e-001
   max_val1: 9.7999999999999998e-001
   training_params:
      train_method: BACKPROP
      dw_scale: 1.0000000000000001e-001
      moment_scale: 1.0000000000000001e-001
      term_criteria: { epsilon:1.0000000000000000e-008, iterations:100 }
   input_scale: [ 1.7314067954608504e+002, -6.0567542097368887e-001,
       3.4804017995266655e+001, -1.0348240962755968e+000,
       5.5028157111792346e+001, -6.0160442003697057e-001,
       1.1969708243149400e+002, -7.2654286902093168e-001,
       2.4949994788070686e+002, -4.4711255507118203e-001,
       2.4212125699258490e+002, -4.0584024741138874e-001,
       2.8157320867287513e+002, -4.8015493023097650e-001,
       8.4178727861029358e+001, -1.0473501586695200e+000,
       2.3024537948327583e+002, -4.2141383608444255e-001,
       1.8796876832844478e+002, -4.3066880958024767e-001,
       3.3398414461628181e+002, -3.9884668015806946e-001,
       2.9815863346095858e+002, -4.6481931866397852e-001,
       1.0660254417495436e+002, -4.8695344464229340e-001,
       2.8589155347922303e+002, -3.4315116356398245e-001,
       2.9662800217166256e+002, -3.1058005171514569e-001,
       2.0719455261905537e+002, -4.7519561599209148e-001,
       2.2299575207396529e+002, -3.9703803108703328e-001,
       1.8516552679443348e+002, -5.9070562419201944e-001,
       7.5389108755795405e+001, -8.4194419762023720e-001,
       1.5929907707874133e+002, -6.7105840127838379e-001,
       3.3179889393180019e+002, -2.7694415858588295e-001,
       2.4967080552299842e+002, -5.1786320028951205e-001,
       1.9089707447064160e+002, -3.7722680797940916e-001,
       2.2004077568371983e+002, -5.6263981504663296e-001,
       2.8135814055504841e+002, -3.8905979784110090e-001,
       2.7869767396360498e+002, -4.1121357197446107e-001,
       1.3180942179356327e+002, -5.7193542609154269e-001,
       1.6383107723528556e+002, -3.9867786290155094e-001,
       5.2345606338009880e+001, -5.6255251912948978e-001,
       4.9618317065558614e+001, -4.2285445221292578e-001,
       2.1772046638231549e+002, -4.8732565732830641e-001,
       2.6020601849881729e+002, -4.6989588335225524e-001,
       2.7125617162838563e+002, -3.6769508613521784e-001,
       2.3615548241131711e+002, -5.3484571465319564e-001,
       2.3090122401674199e+002, -5.3829564888912351e-001,
       3.0083893317046557e+002, -3.3398884934130207e-001,
       2.1735361460234733e+002, -5.1237062965795377e-001,
       2.9204000060430826e+002, -3.9155674831235598e-001,
       2.9641757537314135e+002, -4.2793147406161258e-001,
       2.2457801639831109e+002, -3.7889869668868686e-001,
       2.0334583696030546e+002, -5.4868537083201596e-001,
       1.5633217681228069e+002, -6.3265841072083417e-001,
       1.7643248076162675e+002, -5.4213726706610033e-001,
       2.4586909595640526e+002, -4.3808868394644462e-001,
       1.8611720487174892e+002, -6.5301430188131515e-001,
       2.8924763863693590e+002, -4.2597531710066699e-001,
       1.8351345649267472e+002, -7.2916469318121058e-001,
       1.7317828260063888e+002, -4.5917194315504445e-001,
       2.7875165382795541e+002, -4.8273205499536326e-001,
       1.2879243366517028e+002, -7.1306978396408693e-001,
       2.9103920058950405e+002, -4.2370940383581723e-001,
       2.0338007102724347e+002, -5.8621563277960675e-001,
       2.3043339577713411e+002, -4.8373037954675685e-001,
       2.2905436136841715e+002, -4.8185757540948709e-001,
       4.0471717081769305e+002, -3.0680574900072444e-001,
       1.8678913794444946e+002, -4.7939862860817239e-001,
       2.6394777891963065e+002, -4.0255425799740613e-001,
       1.7449025229041706e+002, -5.8975362952756250e-001,
       1.7505193022464368e+002, -4.8101970973305297e-001,
       2.1430276307953474e+002, -6.0518557271341966e-001,
       1.1553239407342336e+002, -5.1009630646964943e-001,
       7.2492854111030809e+001, -1.0783322536802002e+000,
       1.8378603121505500e+002, -5.5308820181978280e-001,
       2.3550735235602059e+002, -4.7025524875037494e-001,
       1.9098128526432723e+002, -4.3261203151369276e-001,
       7.7437476160678315e+001, -5.6524248402761279e-001,
       2.4591249689491167e+002, -5.3071535664201008e-001,
       2.6423620092656165e+002, -5.0893625107641960e-001,
       2.7974320131502378e+002, -4.1729780115259157e-001,
       1.6366058228329311e+002, -5.3376003353696566e-001,
       1.4448639664667036e+002, -6.7251283359628000e-001,
       9.7095638653388917e+001, -6.3458606472056456e-001,
       7.1993264813440248e+001, -8.1823415851877657e-001,
       2.0640528864569549e+002, -4.7372690125472144e-001,
       5.1731631806730491e+001, -7.1359426824605832e-001,
       1.7952387384938720e+002, -4.2334603238325946e-001,
       6.6459479343924698e+001, -6.3909534288204106e-001,
       2.0378118562395977e+002, -5.9373013774167438e-001,
       5.4877193171687225e+001, -8.1305298770820811e-001,
       2.2935762789019711e+002, -4.2067310661127816e-001,
       1.3321954551438310e+002, -5.9177615971520614e-001,
       1.5427815735962287e+002, -5.6114087734351137e-001,
       2.4092244589379970e+002, -4.8213718550600326e-001,
       2.3689864860930172e+001, -7.0553994740904802e-001,
       3.0225061785861419e+002, -4.2425321126182786e-001,
       1.6439020478155948e+002, -4.3889027307484774e-001,
       1.5644325240534894e+002, -7.7158423463986192e-001,
       2.7725761175200847e+002, -4.4827584207711324e-001,
       3.1468194627030744e+002, -4.2294620586362824e-001,
       1.5767723947318984e+002, -5.8716606948203465e-001,
       1.9346663164210676e+002, -3.0979256938408412e-001,
       2.9546120015768525e+002, -3.1987450578220511e-001,
       2.6480909629922650e+002, -5.4711675635025980e-001,
       1.8697939290517368e+002, -4.8842872005971316e-001,
       2.6205188747064989e+002, -3.4498813761736780e-001,
       2.5188849647872098e+002, -4.7473255953230276e-001,
       2.8813618208834140e+002, -2.5534134151397919e-001,
       7.2598569337199180e+001, -5.8799296543281154e-001,
       3.2651366834349989e+002, -3.0268907240526771e-001,
       3.2270329968803355e+002, -3.6343600186728137e-001,
       2.1250930334579454e+002, -4.3843666927675701e-001,
       2.5073638529648284e+002, -4.7922089817479535e-001,
       2.3145405080747943e+002, -5.2901078402161161e-001,
       8.9987232775990762e+001, -7.6513962280364023e-001,
       1.3212697163751346e+002, -5.5688364690625169e-001,
       2.4431261279882153e+002, -3.6881214374643295e-001,
       1.3887778784130026e+002, -5.2305677975428422e-001,
       2.2915395139744260e+002, -4.5883006970393930e-001,
       1.8662846094109756e+002, -5.8001530857659478e-001,
       1.6693036342331791e+002, -6.0154573175345061e-001,
       2.6789939472677628e+002, -3.7911862618186820e-001,
       2.7594082140668775e+002, -3.6802856046973564e-001,
       2.1926836797709908e+002, -5.3880251739655416e-001,
       2.1086337920971468e+002, -4.7624093528269373e-001,
       1.2821043591720414e+002, -5.4569564573148621e-001,
       1.7485402238886829e+002, -5.3591651898908155e-001,
       2.3373061671564889e+002, -4.5843928131561557e-001,
       1.8019326562666993e+002, -4.2254222702786265e-001,
       2.9908479766287314e+002, -3.1832844767585272e-001,
       2.6236297411034678e+002, -4.1759281097448858e-001,
       2.4655196685115226e+002, -3.5115774202299871e-001,
       1.5841154535380258e+002, -3.5784971336432442e-001,
       3.5948115551119895e+002, -3.4321617641060675e-001,
       1.6988930137879481e+002, -6.4147149784279944e-001,
       2.8179346459835989e+002, -4.3732847197776209e-001,
       3.4078852698915568e+002, -3.0064571279660557e-001,
       1.4669751343039550e+002, -5.4546428985109385e-001,
       2.1455496871697201e+002, -4.7240005007144936e-001,
       2.2312662404092669e+002, -5.0121782318103425e-001,
       3.0081914238185431e+002, -4.6716135970960421e-001,
       1.8720558032283066e+002, -4.9845858261152559e-001,
       1.3591359732789482e+002, -5.0294339567117508e-001,
       1.6102480272842709e+002, -5.6096455936425071e-001,
       2.2081073019429164e+002, -4.0732998340084797e-001,
       2.9874836141767247e+002, -3.7473816378802133e-001,
       2.5143208138046120e+002, -5.0372761429843560e-001,
       7.9637799016940676e+001, -7.8173161694783699e-001,
       1.6368697392635306e+002, -5.9383351505532234e-001,
       2.4941226806145036e+002, -5.0807915573695150e-001,
       3.4999473303880467e+002, -4.0488149571061088e-001,
       2.6376120443911152e+001, -5.9037330787074338e-001,
       2.5423915605786183e+002, -6.4316010762454789e-001,
       3.1613866616565548e+002, -3.9147017233135251e-001,
       7.6193474988309958e+001, -5.5883643155386808e-001,
       2.2673320531595246e+002, -4.8044082935855048e-001,
       1.6325253445370399e+002, -5.1217255377240478e-001,
       2.0340741967302938e+002, -4.7780222423262042e-001,
       3.2522974669735743e+002, -3.5593640156450784e-001,
       9.2846177471074839e+001, -4.6420908909906100e-001,
       1.9332580075618066e+002, -6.2258228892066481e-001,
       2.3697976993452025e+002, -4.5953998747405039e-001,
       1.6916377064282693e+002, -5.4973440541422336e-001,
       2.4992783865548009e+002, -4.1543485699305643e-001,
       2.5683449593137209e+002, -4.2383239567433489e-001,
       4.1176454896764722e+002, -3.5224218270053076e-001,
       1.7409281751893192e+002, -4.6691827791079593e-001,
       3.3188317321054325e+002, -3.6865474233724954e-001,
       1.2380542167523615e+002, -6.9988720004502658e-001,
       1.7981196197467185e+002, -4.3012088337191617e-001,
       2.2527983984936279e+002, -4.1939744181420352e-001,
       2.3965024977020670e+002, -4.5454904443568195e-001,
       2.1428558212331134e+002, -6.0189014440210376e-001,
       3.1128286293859372e+002, -3.5418653306251446e-001,
       3.2739265387074937e+002, -3.2479880724546289e-001,
       2.1373823911328930e+002, -5.1259853320263105e-001,
       1.8279923989980404e+002, -5.7345724644438800e-001,
       3.5647636030855057e+002, -3.5371737170304696e-001,
       2.2521461444413478e+002, -5.4807216445226059e-001,
       3.9890258291019586e+002, -3.1766545433224452e-001,
       1.7219669539883506e+002, -4.5005207967763794e-001,
       2.9553328741788943e+002, -4.4920764056365786e-001,
       3.7158955241406211e+001, -6.7207297414083000e-001,
       2.3034482940274938e+002, -3.8446267971000120e-001,
       7.5206354380025175e+001, -6.0984475874978250e-001,
       1.8102501483505682e+002, -5.7087449438735094e-001,
       1.5130643697485087e+002, -5.2345646910591870e-001,
       2.3367383038208177e+002, -5.5106024577455148e-001,
       2.2729160338228897e+002, -4.9553348001760739e-001,
       1.7561108614957098e+002, -5.6616115239934994e-001,
       3.9902565005628780e+001, -3.9787936032782378e-001,
       2.3078991860461929e+002, -4.7905846006437502e-001,
       3.8450666771913353e+002, -3.1536974178327964e-001,
       1.1700475099445049e+002, -5.3707850977608584e-001,
       2.4038813339427810e+002, -3.3739961040646060e-001,
       1.6192523587292311e+002, -6.3809030481131346e-001,
       1.6530840063243141e+002, -5.3058831362425540e-001,
       2.2835322246738178e+002, -3.9009575107208411e-001,
       2.9910409267407960e+002, -4.4989592872602485e-001,
       2.4163663579397743e+002, -2.8741673868699524e-001,
       1.4888864763587526e+002, -4.1090140342537157e-001,
       2.1116133075862427e+002, -4.3408383821625274e-001,
       1.8326858928590025e+002, -3.4921950145129732e-001,
       1.5601400267211244e+002, -6.1121100375374593e-001,
       2.5835481993272288e+002, -3.8093393163868089e-001,
       2.4546297672234593e+002, -4.6331132890742827e-001,
       2.3796976747516814e+002, -2.5996317088029508e-001,
       2.8201822615913369e+002, -4.3465558106123453e-001,
       2.9037548894878466e+002, -3.7207175469849529e-001,
       2.4731415358824043e+002, -5.4322153764522141e-001,
       1.9603921987398726e+002, -4.1168314676019613e-001,
       1.4024911019263712e+002, -7.1382505172409305e-001,
       2.6822552465295871e+002, -3.4758170155864360e-001,
       1.8436999147406164e+002, -4.7183849893393076e-001,
       2.3042265868718891e+002, -4.8385154931102842e-001,
       2.9598637115899385e+002, -3.9069119948300823e-001,
       2.9553703265404050e+002, -4.1475789572116478e-001,
       2.5252298573056308e+002, -4.3670103786992637e-001,
       2.1526763028285515e+002, -6.2891967894175271e-001,
       1.4343213757422066e+002, -7.1465842075140462e-001,
       2.5820537767975060e+002, -5.2197529962966727e-001,
       1.1546457331676842e+002, -4.2720448371111081e-001,
       2.6896127476780021e+002, -4.4733829423082194e-001,
       4.0819145185644913e+002, -3.2761109137364292e-001,
       1.5454945224858932e+002, -6.1438664424411582e-001,
       2.1171503567571318e+002, -4.4087908914744217e-001,
       2.0194145647485001e+002, -4.1192445738547029e-001,
       1.2338117998562427e+002, -6.0458750997259381e-001,
       2.7316625447747759e+002, -3.8685811897630490e-001,
       1.8054992271361209e+002, -6.4704811666813322e-001,
       3.0677132758534952e+002, -4.2964014296055109e-001,
       2.2738223155163703e+002, -5.5018520103217805e-001,
       2.7535981365360527e+002, -3.9858462653080617e-001,
       1.8652087320810787e+002, -5.5801593511118863e-001,
       2.6315619680689110e+002, -3.4979514430666547e-001,
       3.3174310950034629e+002, -3.7571680644198174e-001,
       1.0985485215027609e+002, -8.5050037788867794e-001,
       2.0307301974045131e+002, -4.7271560545833508e-001,
       2.1308806066094422e+002, -4.4562998093238865e-001,
       2.2561506897682762e+002, -4.2786172402801720e-001,
       1.9871343984331176e+002, -4.7199555267511800e-001,
       1.0161529110665478e+002, -8.3323051427887485e-001,
       2.5889766068695388e+002, -3.8892801063894572e-001,
       2.7832230494730305e+002, -5.0442229170795305e-001,
       1.7786171233921669e+002, -5.2984192336772629e-001,
       2.0390303904857569e+002, -4.3630824387706907e-001,
       1.6556813571248333e+002, -6.3300954615504845e-001,
       3.7540732115336465e+002, -3.9049262409854379e-001,
       2.3761733127693816e+002, -5.2975269080645293e-001,
       3.1120119474716097e+002, -4.3867406253156743e-001,
       2.6020335815635974e+002, -4.3007349983592219e-001,
       1.8906758163577376e+002, -5.9653181089992280e-001,
       1.3348723077711529e+002, -4.1297272843861405e-001,
       1.7986971013323779e+002, -5.7756834212362029e-001,
       3.6150154979084817e+002, -3.7820930458262569e-001,
       1.8011058338725729e+002, -4.6107668629655529e-001,
       3.1655296511863543e+002, -3.6215962439273897e-001,
       7.8999694910291851e+001, -1.0343796559647496e+000,
       2.0503381479982653e+002, -4.8398695237182515e-001,
       3.1696255840912886e+002, -3.2879168067823195e-001,
       2.1531902293892500e+002, -5.1545669387293125e-001,
       2.3466785160158014e+002, -4.6533804658526717e-001,
       2.2768140025647716e+002, -3.8519167197427973e-001,
       2.1216717987698195e+002, -4.0554349478488511e-001,
       2.6380851066736079e+002, -3.7069467921221155e-001,
       1.5826685715447246e+002, -5.5270878792751921e-001,
       1.4298353932957681e+002, -4.4732349967213048e-001,
       9.0655159510187261e+001, -5.4077202251190493e-001,
       2.3960224406507922e+002, -3.9956062568369483e-001,
       2.0186481792486506e+002, -4.2599793593856500e-001,
       6.4835659020841746e+001, -6.7119424357402913e-001,
       1.6500912580793704e+002, -4.4881311427490550e-001,
       1.1777923284057745e+002, -7.3187084172847616e-001,
       1.9861800066539752e+002, -2.9213835999079085e-001,
       2.3684081040371046e+002, -4.7357088824402926e-001,
       9.5368009720191509e+001, -4.8637999303846513e-001,
       2.7042120088338481e+002, -3.7758055280281161e-001,
       1.7347475721229713e+002, -5.1801405980381310e-001,
       1.9747124144174018e+002, -5.8209435297400136e-001,
       2.4716763358421491e+002, -3.9040309236536996e-001,
       1.8899282909960465e+002, -5.7419478627698950e-001,
       2.6738359059886966e+002, -4.4697358500808854e-001,
       8.2735899628243402e+001, -5.1629650650393299e-001,
       3.3490177579320283e+002, -3.9562832647375612e-001,
       1.8055960250433904e+002, -4.9569900869290751e-001,
       8.7205550447639993e+001, -8.9253556571759429e-001,
       2.3614973763779693e+002, -4.8201314715473398e-001,
       1.8580500167355143e+002, -6.0690940299520513e-001,
       2.0072233858623468e+002, -5.4914379316883954e-001,
       3.1853409963309718e+002, -3.6051867921649416e-001,
       1.7608471422116338e+002, -4.6470043006049233e-001,
       3.1977739651390806e+002, -4.3652217908889790e-001,
       2.7804810893000086e+002, -4.7437675652346967e-001,
       3.0680755798388026e+002, -3.6058736008532866e-001,
       2.0090314005922224e+002, -6.0398799108826751e-001,
       1.2993888618636117e+002, -6.3936379354737860e-001,
       3.0226008233799632e+002, -4.0118656135231168e-001,
       2.2082648192805701e+002, -4.7439477110254258e-001,
       1.5387653279868377e+002, -4.1869567576605876e-001,
       7.4684317018337964e+001, -7.3806674347042556e-001,
       1.6729556204648580e+002, -6.9881334453560817e-001,
       2.8477296972632934e+002, -4.4704232883460160e-001,
       3.8048196951610521e+002, -3.7747526998457614e-001,
       2.0019351618176844e+002, -5.5926532217801261e-001,
       8.5360782962337467e+001, -3.5313887488457574e-001,
       1.1241621628107663e+002, -7.2219899232194551e-001,
       1.1127852538609112e+002, -7.1971701985107295e-001,
       3.3197184321932127e+002, -3.6282125954435507e-001,
       9.4642934915502167e+001, -6.5017732547572804e-001,
       1.5715401865885406e+002, -5.6229668709646574e-001,
       1.7855620298958056e+002, -4.8873528749100931e-001 ]
   output_scale: [ 5.2631578947368418e-001, 4.9999999999999994e-001,
       5.2631578947368418e-001, 4.9999999999999994e-001,
       5.2631578947368418e-001, 4.9999999999999994e-001,
       5.2631578947368418e-001, 4.9999999999999994e-001,
       5.2631578947368418e-001, 4.9999999999999994e-001,
       5.2631578947368418e-001, 4.9999999999999994e-001,
       5.2631578947368418e-001, 4.9999999999999994e-001,
       5.2631578947368418e-001, 4.9999999999999994e-001,
       5.2631578947368418e-001, 4.9999999999999994e-001,
       5.2631578947368418e-001, 4.9999999999999994e-001 ]
   inv_output_scale: [ 1.8999999999999999e+000, -9.4999999999999996e-001,
       1.8999999999999999e+000, -9.4999999999999996e-001,
       1.8999999999999999e+000, -9.4999999999999996e-001,
       1.8999999999999999e+000, -9.4999999999999996e-001,
       1.8999999999999999e+000, -9.4999999999999996e-001,
       1.8999999999999999e+000, -9.4999999999999996e-001,
       1.8999999999999999e+000, -9.4999999999999996e-001,
       1.8999999999999999e+000, -9.4999999999999996e-001,
       1.8999999999999999e+000, -9.4999999999999996e-001,
       1.8999999999999999e+000, -9.4999999999999996e-001 ]
   weights:
      - [ 7.7906695517167435e-001, 6.5334536624705633e-002,
          4.0858507677448953e-002, -4.2338138029441516e-002,
          7.9836694077620920e-003, 1.1156153172926069e-001,
          -7.0975293219900662e-002, 2.2926082629094871e-001,
          2.9294679196898561e-002, 1.7896134422053310e-002,
          -4.0474431440952882e-003, -1.3007025071165043e-001,
          -1.0316327841647337e-001, -1.4887748873474116e-001,
          -2.2434264266518247e-002, 1.1933256109572053e-001,
          -1.2312197225327121e-001, -1.8645321156223960e-002,
          1.2328141044562625e-002, 6.0177798136250175e-002,
          9.4215917533750346e-002, -6.2462840267837064e-002,
          -1.8293692872977250e-002, 7.6574216257010844e-002,
          -4.6905425632202853e-002, 2.2751552490182108e-002,
          6.8701815304756761e-002, 1.9600408442798756e-002,
          1.4100874800679469e-001, -3.5570838035069802e-002,
          -4.9343511181143142e-002, 6.4347418200827344e-002,
          -3.1364765371648430e-002, -1.1131421100803139e-002,
          2.4448920014197722e-002, 6.1003147646001357e-002,
          3.2967579473737029e-003, -1.7670806603488268e-001,
          3.7616253011866191e-002, -1.3793112141464019e-002,
          1.2720102925559443e-001, -3.2757718701733891e-002,
          -1.5544544659120976e-001, -8.0717417442023084e-002,
          -1.4967749231115907e-001, 1.0715747290724350e-002,
          -8.4703831305331309e-002, -2.4541936969128764e-002,
          -5.5738222563162916e-002, -6.1696097126501495e-002,
          7.0421842126061418e-003, -8.0421158520648933e-002,
          6.8802099629005936e-002, -1.6474164143657810e-001,
          -3.2601247857721762e-002, -5.5372189819203235e-002,
          -7.7587111721938232e-002, 4.7076381195365787e-004,
          -4.9763140738612363e-002, -3.9851301770236942e-002,
          -1.0129305134312737e-001, -1.3212813161117323e-002,
          1.3184094261211712e-001, -9.8162928138285782e-002,
          4.4346639801825315e-002, -3.9180634515767775e-002,
          -1.0122656192787441e-001, 6.5204648709939320e-002,
          -5.5133588574242401e-002, 1.9581717692771394e-002,
          -1.2286473726510785e-001, 3.2645645262683896e-002,
          1.9512390447731936e-002, 9.0427381347596328e-002,
          -1.6920339692508050e-002, 1.0539161073343932e-001,
          1.4490077624423637e-002, -2.9259839079770117e-001,
          7.9591465518007457e-002, -3.6490823912195505e-002,
          7.7955893708606408e-002, -2.5657128336528525e-002,
          5.1947397605322215e-002, 8.0532293673679589e-002,
          6.9280540520267895e-003, -5.6784465541708420e-002,
          7.8589633641084386e-002, 1.5138000604580483e-003,
          -1.3888945685211451e-001, -4.0588552827342056e-002,
          -1.0283373035895688e-001, -5.7455108114093045e-002,
          6.9907508062316881e-002, 5.3715934456889193e-002,
          -1.1395980400160147e-001, -5.6740490171585070e-002,
          4.5342317652894253e-002, 4.8572047836624950e-002,
          -7.1186158173582158e-003, 9.1850538400563259e-002,
          1.0453994658011656e-001, -5.8065775150054767e-002,
          9.7185597891893433e-002, 1.4624957995458368e-002,
          8.6681327130115463e-002, -7.0828012281254141e-002,
          -1.7743320856364265e-004, -7.6454496162238719e-002,
          -2.6925995616950280e-002, -4.4633020673771839e-002,
          -3.6344779405723157e-002, 5.7533031319244234e-002,
          6.9261830632603161e-002, 1.8869730580576428e-002,
          4.5243150708580815e-002, -4.6728800467454500e-002,
          2.7053187600710434e-003, -3.6137335135078601e-002,
          7.8934458296275919e-002, -1.0680227843157035e-001,
          -2.3824538233812656e-001, -3.2548448298895583e-002,
          -1.1471499358969979e-001, -1.6168894510100878e-002,
          8.5794565824754504e-002, -1.5472521710459081e-001,
          -2.9498068989768759e-002, -6.2286880187381828e-002,
          -1.5766226273456302e-001, 7.2766502365275598e-002,
          2.7641372977919430e-002, -3.6849943022926247e-002,
          -8.0805174205915639e-002, 1.2799325225726526e-002,
          -1.7245033906369178e-002, 2.9449469732124828e-002,
          4.8669917179581620e-002, -1.6367149529539857e-002,
          3.1985451092892928e-002, -4.5070994087561753e-003,
          -9.7229891435793706e-002, 8.1255110094254984e-002,
          -9.5793865281678200e-002, 1.3908841698293747e-001,
          7.3623246421686800e-002, 3.3446701519212425e-002,
          -1.2033134629230086e-001, -5.5984607419388301e-002,
          1.4508557748159656e-002, 7.9905490172265572e-002,
          2.1989868078702601e+000, 5.6208537875676090e-002,
          8.2937766446921496e-003, -1.1677025235415658e-001,
          -8.9034231940439676e-002, -1.2291784168020823e-002,
          1.8992573467374176e-002, 3.3055866032675865e-002,
          -8.2108041387948139e-002, -8.3926370403354295e-002,
          2.4331044043657071e-002, 8.7123683680931735e-002,
          3.5418455869526154e-002, 1.7793159541037532e-001,
          -1.4555687655043567e-001, 6.2442601206261189e-002,
          4.7490402565470123e-002, 6.4524613009961772e-003,
          2.0465712600225162e-002, -5.0173734427063806e-002,
          -1.5743631157524366e-002, 6.4252726630302723e-002,
          -1.5424691107802066e-001, -2.0822955915637192e-002,
          1.2204011950808698e-001, 1.0935147278802705e-001,
          3.0819239968475846e-002, 6.4601100590683386e-002,
          5.3480583196685784e-002, -1.5404699992927889e-001,
          -2.1393759828370401e-001, 2.8415382860199692e-002,
          -1.0376064569073920e-001, -1.0150681317275802e-001,
          2.5799778132124539e-002, 8.6478640742178189e-002,
          -4.4248062684417486e-002, 3.2395212366227479e-002,
          -1.1357184906178885e-001, -5.6508420612499465e-002,
          -9.5936622680354480e-002, -4.2495105732723457e-002,
          -2.4915005082418683e-002, 5.1543438020203433e-002,
          -1.4245469265176112e-002, -1.1470423896929642e-001,
          1.0363111546274575e-001, 5.1464643398097962e-002,
          3.7770301578423475e-002, -3.5614904195060734e-002,
          -2.1065188918744138e-002, -8.8725368126378532e-002,
          -1.3481213699179179e-001, 1.1130176447622839e-001,
          -4.4119165422428622e-002, 1.4842016047438106e-001,
          7.4456274788643431e-002, 3.9206837157509250e-002,
          1.0032263215919415e-001, -9.4211997388867055e-002,
          9.6861756120957043e-002, -4.4844818755410418e-003,
          4.9964277097205988e-002, 1.2698707719947938e-001,
          5.2898293936448529e-002, -6.3064427301903217e-002,
          1.0034116916558627e-001, -1.9960923941221870e-001,
          2.7134126688368353e-002, 1.4146524452575943e-001,
          -9.9139712539938432e-002, -3.1926421304003159e-002,
          6.8247463229562738e-002, -1.3057311770721634e-002,
          -3.2417405825427285e-002, 1.1324613918358803e-002,
          1.0714647909703523e-001, 9.5223152860002505e-002,
          1.3810347586338053e-002, -1.0282017057054665e-001,
          -1.6466024317447381e-001, 1.5123885185554631e-002,
          2.3200018000962080e-002, -1.2561833898710723e-001,
          1.3372690683923422e-001, -9.2433655584818003e-002,
          7.8396044127043527e-002, 2.7157894546426874e-002,
          -7.5561188108401650e-002, -1.9069153130609095e-002,
          2.5468948703416688e-002, 3.1440641185710327e-002,
          -1.4436993514700489e-002, -1.8869080002762124e-002,
          1.4171771931203119e-002, 3.7558812616920310e-002,
          2.1679583324198011e-002, -2.7112954616012330e-002,
          7.0608176754590798e-003, -2.1042747916297846e-001,
          -1.0964194368298044e-001, -3.6980716609036159e-002,
          7.4240827944694623e-002, -1.1314938194336990e-001,
          -4.2590659453840473e-003, -1.4897055505132647e-002,
          -1.0557283587491705e-001, -4.5521485533531790e-003,
          -1.7737438027917350e-002, 3.7008856119422028e-002,
          -1.5287901142653612e-001, 1.3283681549748096e-002,
          -3.4042579956753395e-002, -1.8047079110787673e-001,
          -1.3914062100456006e-002, 2.8354929286238489e-002,
          7.3540240836193496e-002, 2.4067439734677711e-002,
          -8.1862403017934224e-002, -4.0339443303361248e-002,
          5.4071231464954704e-002, -8.4151771040833726e-002,
          1.0568799077880381e-001, 1.1174653383870534e-001,
          4.4344343357298477e-002, 5.7200729872661692e-002,
          -1.3433515439751689e-001, 2.0388306678403176e-002,
          1.5478598506850150e-002, -1.3591363837160780e-001,
          -5.2850035106374489e-003, 1.0271040444154075e-001,
          8.4809877963450214e-002, -1.5384957190307802e-001,
          4.6818467943377254e-002, 5.2366084851697060e-002,
          7.6550232528742601e-002, 4.5628440726311448e-002,
          -4.1039979768613795e-002, 1.2606039544245887e-001,
          -3.1133119624125728e-002, -5.6383288791735972e-002,
          1.1467889700376975e-001, -2.2846467743224744e-002,
          -4.5216892005891282e-002, -9.8704256128478215e-003,
          1.7957354917059205e-002, -1.5111198753391713e-002,
          -1.8434636514786143e-001, 7.1038688752259216e-002,
          -1.5630338273559827e+000, -1.6010001053952885e-001,
          8.6461461493204158e-003, -9.3702756368503531e-002,
          9.3435993117707269e-002, 2.8399534611920996e-001,
          -4.9025802324271277e-002, -8.7917038338374248e-002,
          -9.1870600201102590e-002, 6.2015269698834301e-002,
          -4.6649467894972936e-002, -1.4308234907188080e-001,
          -1.2568228895244593e-001, -2.8446862394385342e-001,
          1.4361244520995536e-001, -4.3779508317022084e-002,
          -1.3398275568277460e-001, 1.5351405852546312e-002,
          1.2337671230246657e-003, 8.4967673509025024e-002,
          9.9341882807546994e-002, -2.8733699373912729e-002,
          1.3585105409156240e-001, 8.6473325282680258e-002,
          -1.7571226973926860e-001, -8.7186687542521443e-002,
          -5.2457749670999183e-003, 3.1314207468706744e-002,
          2.2313163838619968e-001, 1.5751276772506939e-001,
          1.5537271443760206e-001, -1.0852409631316009e-003,
          5.5642767419423998e-002, 4.7024924606994430e-002,
          -5.6702397049166783e-002, -8.3265810746503910e-002,
          2.5794762722621545e-002, -2.5133536649584582e-002,
          1.4083894596652649e-001, -3.5231205241144016e-002,
          2.0361598525752511e-001, 1.5895192099660355e-002,
          -1.7199589719768010e-001, -2.3424596036723980e-001,
          -1.0388661341681501e-002, 1.2069619949184768e-001,
          -2.4973280356513419e-001, -2.8290889642868380e-002,
          -1.6104493607768056e-001, 4.6166652397087171e-002,
          5.9786096280295416e-002, 5.1600012954018601e-002,
          2.7517249638774605e-001, -2.0756303095220527e-001,
          8.8172726882313257e-002, -1.8365745204033315e-001,
          -2.2514229144994855e-001, -3.5960464813872568e-003,
          -2.0079737688663421e-001, -1.1755938907014105e-001,
          -2.0464853285905435e-001, -7.4341804858610111e-002,
          1.4243186894378546e-001, -1.5832176849938842e-001,
          -3.7697712136977243e-002, 4.3959046549852693e-002,
          -1.5219399321999472e-001, 3.0243369094006983e-001,
          -3.2627498596416470e-002, -2.6341751226035703e-001,
          3.0861857537980777e-002, -8.5679808509016672e-002,
          -7.5279257743077102e-002, 9.6288362281168299e-002,
          -6.3229639604376497e-002, -8.1966300466964737e-002,
          -7.8869555203297678e-002, -2.3252730651449663e-001,
          1.5600232963225277e-001, 1.5269231398471242e-001,
          1.6547064222251692e-001, -1.4572589802494160e-001,
          -2.0133884021074057e-002, 3.2183499113603642e-001,
          -1.1097551616440425e-001, -5.7013544681665945e-002,
          -1.9675469956889912e-002, 2.7979640328383234e-002,
          -1.6339962666271444e-002, -4.1405267608777739e-002,
          -8.3423080879937911e-002, -1.1298828080549538e-001,
          1.7858928090049894e-001, -7.2232472999177164e-002,
          -2.4914542087810740e-001, 1.1185798330321130e-001,
          -2.4472632943666485e-003, 8.5444833312089408e-003,
          -3.0351137091862448e-002, 3.2511496443893423e-001,
          2.5659086776340617e-001, -1.0486538707005187e-001,
          6.4162435902307864e-003, 2.2973837322627802e-001,
          2.1877485422850498e-001, -3.3409969861116315e-002,
          9.5487585569130035e-002, 2.8009246247460578e-002,
          4.0955978350362979e-002, 2.7159233628921472e-002,
          2.0962455673563835e-001, 2.2825122121861766e-003,
          1.4053164778160329e-001, 8.4998306871727700e-002,
          -3.6189379736637859e-003, -1.3509976069371088e-001,
          5.4450762868314274e-002, -1.2892855203817624e-001,
          2.2397858945923091e-001, 3.3743115527307702e-002,
          -1.6269538099346226e-001, 1.2716997164363686e-001,
          -2.2388449241456065e-001, -1.2805910525715206e-001,
          -7.6291809924383752e-002, -1.3011766021341040e-001,
          7.6086746433839184e-002, -2.3038472043731315e-001,
          -1.5904920600732517e-001, 2.3695312281388717e-001,
          3.6717496172331887e-002, -2.9017280551544150e-001,
          -2.9420449308721069e-001, -5.4376565322700604e-003,
          -3.4790933267847178e-002, 3.0275982972740451e-002,
          4.0472036761869563e-002, -1.1703081723409625e-001,
          1.9240375308722765e-001, -7.7088396006906770e-002,
          -2.3259327561074055e-002, -1.2620236417125494e-002,
          -2.7475046458739905e-001, 2.2199400147507636e-001,
          7.0208059685079940e-002, -4.4675865650185012e-002,
          -1.0316123035431997e-001, 6.8651916262401455e-002,
          1.9324387581180641e-001, -1.7003987948622445e-001,
          2.2182798103433238e-001, 1.6487675366796214e-001,
          -3.6194771057244460e-002, 1.8053872605769497e-001,
          1.0003335725367722e-001, -2.4267017927140682e-002,
          1.2388325715715814e-001, 3.8958086741083142e-002,
          -7.6031078357113480e-002, -1.8880344335501406e-001,
          1.2849475740140545e-001, -1.3231172632981142e-001,
          6.3568833605450126e-002, -7.8957987436010110e-002,
          1.6572454812366974e-001, 1.3611353655809161e-001,
          4.4049881738402498e-002, 1.0201083162896424e-001,
          7.4795711423705002e-002, 9.4251025692553766e-003,
          2.4499206989114733e-001, -1.4941256952827869e-002,
          1.7287571037646030e-001, 2.4450173868533456e-002,
          3.6987927556846117e-001, -1.5779152216260603e-001,
          1.3207240268136961e-001, 1.5314475657358360e-003,
          3.7275596863381599e-001, 3.0956707410635148e-001,
          7.9356680819268666e-002, 8.2863490006801557e-002,
          1.2521533342883054e-001, -2.9424897808936040e-001,
          -1.1033528588579182e-001, -9.6716175303249760e-002,
          1.2402004469582560e-001, -1.6425740725865332e-001,
          -1.1217578682327395e-002, 1.0400857420617350e-001,
          2.5830795130330375e-001, -2.7526058594796749e-002,
          -9.7969688111103334e-002, 1.1236939119059659e-001,
          -7.9399091323848273e-003, 2.1132100558551381e-001,
          -5.0690992904341731e-002, 7.5374454310957628e-002,
          -2.4047734743317936e-001, -1.6642057152842482e-001,
          9.1319428847373665e-002, 6.3779554762107393e-002,
          -4.3322930654039471e-001, 9.8773138782892997e-002,
          -2.8096498344463500e-002, 8.5376414086842985e-003,
          -2.5554063129508686e-001, 1.0592649805339444e-001,
          1.2493868054956161e-002, -1.6729113077408755e-001,
          1.2114420949118102e-001, -2.2682028011057426e-001,
          2.4485112199591999e-001, -1.4873496085762907e-002,
          2.8828464565620171e-001, -1.6669194148637642e-001,
          -1.7105855358263933e-001, -1.6700320422366419e-001,
          -1.5901143302707470e-002, 9.7968655831830356e-002,
          -1.9696968166915456e-002, 2.3866184951937690e-002,
          -8.1591337728816646e-002, -7.3767966461572038e-003,
          -4.9233466227593718e-002, -1.3050452487793992e-004,
          -1.1242962666442091e-001, -4.0861874431493839e-001,
          -2.2151737452105782e-001, 9.6621865241848931e-002,
          -1.0211620149872541e-001, 1.1016602364541303e-001,
          -8.5740429901201162e-002, -3.4925990040655258e-001,
          4.3405491886613377e-002, -1.6992972523415378e-001,
          -1.4690346003845977e-002, -1.5051110746461532e-001,
          1.2612380350277796e-001, 3.0521664918339899e-005,
          4.4421406664632138e-002, 2.5989243717352123e-001,
          -4.5393921057823319e-002, -5.6421078654051188e-002,
          -1.8566549636904542e-001, -2.8395831491390250e-001,
          -2.3883396264451792e-001, -8.7036774157643590e-002,
          -2.0409161966348027e-001, -1.7258431316025391e-001,
          1.4375712455254164e-001, 8.4282118228985556e-002,
          4.1966773069101550e-002, -1.7911010901260700e-002,
          2.4434106946430270e-001, -1.6263562346920410e-001,
          -7.3412994861087183e-002, -2.9512068122462539e-002,
          3.0886383816489016e-001, -6.9495346031760524e-002,
          1.2334202748625368e-001, -2.0117216119286505e-002,
          8.9300173833717744e-002, 2.4065067242388455e-001,
          -4.3954360595127272e-002, -7.8062666290513874e-003,
          1.3895010147371900e-001, 9.0273638986428564e-003,
          -3.1427093183246324e-002, 1.5904150047860052e-001,
          -1.3859475650585626e-001, -2.8065299585180847e-001,
          -6.3981857593593899e-002, -9.8254676165453539e-002,
          9.8970176299882778e-002, -8.3267138140823121e-002,
          -6.7080141594742043e-002, 3.4141413579002300e-002,
          9.3814624607331878e-002, 7.9103564447031427e-002,
          -1.5287306875489490e-001, 1.8610523742142698e-001,
          1.3637754819776221e-001, -2.5694380066458702e-002,
          8.2428257456346618e-002, 1.6968753961451877e-001,
          1.7777288757358736e-001, -1.2487136054273460e-002,
          -3.3108506323155824e-002, -1.7127199176895752e-001,
          -2.6374594298357901e-001, -2.2154028951636320e-001,
          3.6871082187271886e-001, 2.0007644022468377e-001,
          -2.4427553134812624e-002, -1.7823619226415588e-001,
          1.4251352307493931e-001, 2.1508586045374853e-001,
          1.4818697520841637e-001, -3.6643549195896452e-001,
          -7.4691873641193940e-001, 8.1579238330262496e-002,
          1.1991022008915882e-003, 1.0139840305551439e-002,
          7.6913390027208602e-003, 8.7964534488953472e-002,
          -6.7236009959592211e-002, -5.4534360703123251e-002,
          -3.1293334083301143e-002, -5.0399846644743236e-003,
          -3.2277865444038989e-002, -7.8969188274416791e-002,
          -5.6484822373596880e-002, -8.3771068369930077e-002,
          -5.2131464041223390e-003, 5.4283668758369645e-002,
          -3.9005159777385640e-002, -5.9850692860596568e-003,
          1.0254160869324231e-002, 8.5659089008762540e-002,
          5.9539372589730952e-002, -1.3002488855775034e-002,
          6.2027546794295202e-002, 4.8970257304975597e-002,
          5.6800774127164048e-002, -1.0252466828567303e-001,
          -1.4800641853540932e-002, -1.0517850937525757e-002,
          1.1558086755430595e-001, -2.2442518662691572e-003,
          4.2908747495469579e-002, -4.0280434119145302e-002,
          -1.7718286776050220e-002, 6.5619167605433806e-002,
          2.6817984255249651e-002, 1.2814445406082214e-002,
          -4.2594841617570517e-002, -1.2293555650001475e-001,
          5.5689610672345603e-002, -7.7868373714574723e-002,
          3.3049460506042586e-002, 8.5417569477699955e-003,
          -5.5974213692566797e-002, -9.7441959205945158e-002,
          5.0115957144973883e-002, -4.7098989644781257e-002,
          -3.6540891240014237e-002, -5.8046126421673519e-002,
          -2.9590655446645336e-002, 9.0550388780361955e-003,
          8.4799133514933261e-003, -5.4443487468924356e-002,
          2.4771378837584621e-001, -1.4449419449618675e-001,
          -8.8103576232483050e-004, -9.5191912478446813e-002,
          -1.4463911435520822e-002, -5.3260335077956585e-002,
          -2.5121989174373322e-002, -8.6994854998853954e-002,
          -1.4894350443765036e-001, 3.1222060088139925e-002,
          -3.0964027267258540e-002, -6.4284840514650735e-002,
          -9.3785647466881391e-003, 6.1776661091789163e-002,
          -6.8969833383523679e-002, 6.8094045659446795e-002,
          -5.2884558077505466e-002, -2.0140061641827609e-002,
          -1.6635157826083442e-003, 1.4996174154397022e-002,
          -2.5686360536143420e-002, -1.2471906204502973e-002,
          5.3005127390106738e-002, 6.3121002973978288e-003,
          -3.1140887834146678e-002, -1.1552335728956656e-001,
          2.3634756757226962e-002, -5.2275061241301837e-002,
          1.4362926080757701e-001, 3.5038813134260272e-002,
          -8.5850965208106159e-002, 2.8281904499284111e-002,
          -2.2431369183481122e-002, 3.1150382603846075e-002,
          1.0519563809956769e-002, 1.9451998181433184e-003,
          -1.1284797849075379e-002, -1.5430716064182670e-002,
          -1.0255066587489639e-001, -4.7443101699617289e-002,
          7.8113585407233899e-002, 8.5112082640148544e-003,
          -1.4383419428760713e-001, -4.8383759835828780e-002,
          1.8914477426063916e-002, 4.3096964077354617e-002,
          -3.4038334551889551e-002, 1.8432420790693826e-001,
          1.1854482436602441e-001, -2.2665899416388430e-002,
          8.0685144365851853e-003, 4.6352741873571621e-002,
          2.6287952238684905e-002, 1.8075980782517251e-002,
          2.5670155257763533e-002, -4.6451314772373714e-002,
          2.3770584456169797e-002, -1.9347800150299826e-002,
          7.5649693702681611e-002, 5.1158341782072167e-002,
          1.3868315664649432e-002, -4.1456314341034792e-002,
          5.4879500776752056e-002, -3.2525700967287956e-002,
          -1.0053042704691363e-001, 3.3723128861108669e-002,
          8.6707937070349669e-002, 8.4133990018129115e-002,
          -1.0946711619919089e-001, 8.2717185757874179e-002,
          -5.7215015973153295e-002, -4.2130224411340471e-003,
          -3.5749138360315132e-002, 1.2683664414053176e-002,
          -2.2657723696350027e-002, 2.5423402141493126e-003,
          -1.0231134954808524e-001, 3.0484445557249388e-002,
          6.4956014811924229e-002, -2.0315183306560633e-001,
          -4.6451607024732382e-002, 9.0027712967305884e-002,
          4.3606363967029563e-002, -7.3880243657307818e-002,
          -1.0947808229455866e-002, -3.9114382255520337e-002,
          1.2416678946550127e-002, -2.7858373931312207e-002,
          1.3014128355361362e-002, 5.7540662396546323e-002,
          -3.5092086001693883e-002, 8.9484265797025883e-002,
          9.7365584803093853e-003, 3.1399513273339154e-002,
          -1.2805126455219235e-001, 3.6705681819105752e-002,
          1.0976581978641004e-002, -3.1640516185787199e-002,
          1.1784019475973793e-001, -8.4248592914591164e-002,
          -2.3575516405988876e-002, -5.9289935065228637e-002,
          -1.2119021409803671e-001, -8.1857152591783048e-004,
          -5.3403418161312069e-002, 5.5328866685811273e-002,
          1.2981002366842048e-001, 6.1404444698436846e-002,
          -5.6096560899011653e-002, -1.9928903829684028e-002,
          1.8889791492667240e-002, -3.7292121588478576e-002,
          -9.7421599039110116e-002, 2.9124244263251886e-002,
          -2.4454070156833695e-005, -6.6267058447223248e-002,
          -1.1235883422606048e-001, -5.1103925198037907e-002,
          -9.5403527572764171e-002, 4.4320247575944272e-002,
          -2.5697648436896394e-002, -1.0132937985095219e-002,
          -1.6418690954198598e-001, 1.0490939111184816e-001,
          -4.3257103021194850e-002, -3.7062565839413565e-002,
          -4.8717393424951648e-002, -6.5217806864491273e-002,
          -4.3809083941552820e-002, 1.8080298239929904e-002,
          -2.0194368100780600e-002, -5.0331678573594898e-002,
          6.7401193398672565e-002, 3.4283283411663548e-002,
          -1.7207840697646273e-002, 7.4668336918751715e-002,
          2.2484534466145029e-002, -1.4358999733456840e-001,
          -3.6702110375143510e-002, 1.0364589785753022e-002,
          1.1594669332177143e-001, -2.0899052459934179e-002,
          -5.6997146170047835e-002, -8.9639310556233351e-002,
          2.0332806441336736e-002, 1.9381453605618302e-002,
          8.5468204833827860e-002, 3.0693449355456450e-002,
          1.2919729406672985e-002, -2.8737992230633620e-002,
          -7.6500544857377375e-004, -6.2104776978351768e-002,
          2.8306097195653520e-002, -2.6053666432135344e-002,
          9.9904952038359807e-002, 9.1028810344297821e-003,
          -2.4613479927339315e-003, 1.1314530850829786e-001,
          2.3434904000249283e-002, -2.2916044877604992e-002,
          -4.0630188565330398e-002, -1.1063347416358608e-002,
          -3.1503576463281974e-002, 3.7285204859796750e-002,
          7.4829000583418095e-003, 1.0497871016337632e-001,
          -2.2232959469618559e-002, -5.2651174694839105e-002,
          4.6059171244882825e-002, -4.8086628185236721e-002,
          1.0430184411619244e-001, -1.9314490799375694e-002,
          -2.4618261965970081e-002, 7.9098268731008434e-002,
          -5.6514804729106694e-002, 6.5071048267749301e-002,
          5.9653498083345365e-002, -4.4831784513179034e-002,
          2.0493261961205073e-002, -1.6871426449338087e-001,
          5.5861724539357435e-002, 1.4016120523463454e-001,
          -1.1132683091543740e-002, 1.5041254740189516e-001,
          6.7623595119809012e-003, -2.8120166359326682e-002,
          -7.8740948156777624e-002, -3.0748228286735634e-002,
          -2.1974442210758682e-002, -1.6123841144281709e-001,
          5.5170243068186679e-002, 7.1045284777659048e-002,
          -1.4284867627673908e-001, 2.0199181418167768e-002,
          4.9419994168946699e-002, -3.6971639179086664e-003,
          3.9607920207923163e-002, 3.8537532251360168e-002,
          -2.2154127953950595e-002, -2.2839007338092507e-002,
          5.7849334758452763e-003, -9.8715348918311085e-004,
          -1.2668937799041971e-002, 5.0642823789258620e-002,
          4.4293090997433705e-002, -6.4489413962014686e-002,
          -1.0219555803836593e-001, 9.6330300659325588e-003,
          -1.1780543645055358e-001, 8.9869542592257677e-003,
          2.3945826817484167e-002, -8.3575640225281439e-002,
          4.9404702541618571e-002, -1.7625647361900722e-002,
          2.4958836114458871e-002, -1.7723408255521142e-002,
          2.3812935494592603e-002, -1.2722893512249345e-001,
          -5.0955095604423177e-002, 6.1075294520497751e-002,
          2.8068190766715333e-002, 6.6384096074061996e-002,
          2.2777090446105732e-002, 3.2311249049234859e-002,
          8.2387733619591133e-002, 5.2856007689947818e-002,
          -4.5046132017893536e-002, -1.2389224367424836e-002,
          -5.5473045556471007e-003, 7.5218047387240583e-002,
          -4.0906271030380595e-002, -7.1381578520545136e-002,
          3.4009781408240028e-002, -9.2024044810616448e-002,
          -5.2321772965420135e-002, 7.1796257960090745e-002,
          5.3907112177118462e-003, 1.6506518751971863e-001,
          6.1102160369522276e-003, 2.8346979045443560e-002,
          -4.6577564210532933e-002, -8.2172274841374418e-002,
          4.4189311129403740e-002, 5.7672261040198444e-002,
          -3.4823708390844040e-002, -1.6901964273778677e-001,
          -5.7876620138599254e-002, 6.5075543594014310e-002,
          1.1818537255981443e+000, 1.3506389726549359e-001,
          3.4924558599216685e-002, 2.0394778225480398e-001,
          -4.1269464229205167e-002, -8.1520358681062735e-002,
          4.8694822619253536e-002, -1.0992009501842030e-001,
          -1.9767846432624528e-001, -2.1855519536129706e-001,
          1.3029828340571681e-001, 7.7648064554264234e-002,
          1.3896379202473014e-001, 2.1542953454774380e-001,
          -3.0249500737570507e-002, 4.3986654962511994e-002,
          -7.0786565719279018e-003, 1.6734493278359273e-002,
          9.1471265454549602e-002, -3.4412542741497879e-003,
          6.9974210370257499e-003, -3.5976525515949956e-003,
          -4.4996287941681465e-002, 4.6236318485795680e-002,
          2.4548532976527415e-001, -1.1095129513962547e-001,
          1.1616921034640906e-001, -7.9050920778871825e-002,
          5.9482142966824691e-002, 1.0492127647255420e-001,
          -1.0750767804391036e-001, 5.6168319738929241e-004,
          4.1333353741214954e-002, -1.7345032412675901e-001,
          -3.2993527907906044e-002, -5.8818227054728348e-002,
          1.7598822625311442e-002, -1.1136424938245396e-001,
          -9.1656857658474297e-002, 1.6659887665814194e-001,
          3.2809511873577418e-002, -5.9818675552251614e-002,
          -1.0136342374824103e-001, 1.1593095114827245e-001,
          9.9342818683751888e-002, -3.7133456713475267e-002,
          1.4919776881982577e-001, 2.2514176427797711e-002,
          8.0641601094691262e-002, -1.1175711218310527e-001,
          -1.4597869138831784e-001, 1.9436764691773935e-002,
          -1.9834852063021427e-001, 1.1462782899122553e-001,
          7.8220386155988843e-003, 1.5312947219331877e-001,
          8.8165699120448346e-002, 4.0719226178536377e-002,
          2.5675739878813242e-001, -1.9592380019658184e-001,
          6.5916125855050633e-002, -9.0593630644298498e-002,
          -6.2549105563421734e-002, 1.6323634836815748e-001,
          7.7932926927234830e-002, 4.9471179765965198e-002,
          2.2472295468236765e-002, -2.9030877109219283e-001,
          -9.2698970382162141e-002, 1.6278750941776599e-001,
          -5.1874158253912969e-003, -3.1715311919512768e-002,
          -2.2254270775751154e-002, -1.3514439969571340e-002,
          3.4568468899016797e-002, -4.8514773378060205e-002,
          1.5036120997981458e-002, 5.4157727597248309e-002,
          -6.0625075854082666e-002, -4.4431093155141911e-002,
          -1.3591988673777658e-001, 1.0067595498606166e-001,
          -2.4850955003032190e-002, -2.4283069003701380e-001,
          1.5925902119182392e-001, -1.4598021572359790e-001,
          -1.9118702747482719e-003, -9.3519141572347239e-002,
          6.9089881035327948e-003, 2.8611633835182365e-002,
          1.0311299469840654e-001, 2.0234496328456800e-001,
          -1.5687492732999112e-001, -1.0033320085684187e-001,
          2.2071470660422116e-001, -8.0688123238250531e-002,
          -1.0666518164939670e-001, -3.2806372004696702e-002,
          -6.8347917906920477e-002, -2.6568200523027513e-001,
          -6.1750195010261820e-002, 1.7602350015581150e-001,
          -2.5242106004254101e-002, -1.6034719681091425e-001,
          4.9326960458245507e-002, -2.5351506379548507e-002,
          -1.1030671577043442e-001, -2.0849487289904729e-002,
          1.1341876744464816e-001, 4.5418505349776338e-002,
          -1.3039864457614209e-001, 1.0897592154147028e-002,
          -4.3319881767476635e-003, 9.9504934342458509e-002,
          -7.9450034418920734e-002, 1.4590922489120181e-001,
          2.1730001019121169e-002, 1.2587424406500181e-001,
          -2.4887032748742210e-001, 1.3462283918138182e-001,
          3.2586428397428935e-001, -2.7460495883528430e-001,
          1.9240542915545847e-002, 8.3891240385338101e-002,
          6.9307866346860592e-002, -8.4534270615001336e-002,
          -1.9123700851378686e-001, 6.0114068396708215e-002,
          4.3184343746973879e-002, -2.1344901392340629e-001,
          -3.3739865192165187e-002, 2.3958610768657063e-001,
          1.9300876727874852e-001, -5.9121673495835241e-002,
          6.2314814968746447e-002, 5.0197017094574747e-002,
          1.0592221292587675e-001, -6.2308896159276206e-002,
          -3.9911445352612443e-002, -1.2352334584953049e-001,
          -4.5789814846398776e-002, -2.9080298799194476e-001,
          3.9440283992938296e-001, -7.9398870229763857e-002,
          -9.5452992000969100e-002, -4.6351723876004176e-002,
          6.7460288660661116e-002, 3.5993348445970484e-002,
          -1.5994194526037145e-001, 1.0624039822553629e-002,
          -6.0795332024119753e-001, 7.4826799064451879e-003,
          3.2926638378556430e-002, -8.1649608859665240e-002,
          -5.2424773410150900e-003, 4.3411098107343027e-003,
          -3.2556727442732504e-002, 8.2130553970992448e-002,
          -7.0309931530974090e-002, 1.1212368548752983e-002,
          -1.4829120717165550e-002, -2.9128700872741876e-002,
          -3.3502912191501776e-002, -5.3488608527697407e-003,
          -4.2116736384177698e-002, 5.8133958495455483e-003,
          -3.3217711789273185e-002, 5.3486556582021269e-002,
          -3.0046754402653478e-002, -4.0844109128911558e-002,
          1.5952499185849556e-002, 2.5755976344225742e-003,
          2.7658662425720768e-002, -2.2334756145999399e-003,
          2.1522319600644452e-002, 1.2552304818621421e-001,
          6.7320501022804721e-002, 2.5369753304952277e-002,
          3.5727295677466089e-002, -1.6299698288873204e-001,
          -4.4920100285677250e-002, 2.9586023681169700e-002,
          -2.5377210594079463e-002, 8.5303127908091542e-003,
          -8.8707415283409575e-003, 2.1725002904711892e-002,
          -2.4604007548298352e-002, 2.9530577479824752e-002,
          6.0226913195704931e-002, -1.2914483574167326e-001,
          -1.2436721136264907e-002, 1.4635528010481614e-002,
          -3.2785357613830522e-002, -4.2990018472331137e-002,
          -4.9640516711429578e-002, -2.9543859035832933e-002,
          -2.3359814411022385e-003, -3.0959003812965638e-002,
          -4.7643812669431379e-002, -4.3641198511829841e-002,
          3.7022054547509897e-002, 3.3543413119517182e-002,
          -8.5956435722881086e-002, 8.9456584421429619e-002,
          1.5825086820797973e-002, -6.7875199805544115e-002,
          1.4952025602517578e-002, -4.4283163689175595e-003,
          1.2981832396060222e-002, -1.0931575903048049e-001,
          -3.4600302827030076e-004, 2.3673884573634451e-003,
          1.4130751626041613e-002, 7.3847684743802211e-002,
          -6.2123178141675131e-003, -9.9197070612745773e-003,
          2.1076916792695185e-002, 2.3808367521504739e-002,
          2.7584648671333558e-002, 3.9233484543703583e-003,
          -4.0785253282089401e-002, -2.9202444819861523e-002,
          4.9360754717442702e-002, 3.3088888972211912e-002,
          -6.2079081126604457e-002, -1.4213857103478880e-001,
          -1.8576662152242740e-002, -3.7457697506047799e-002,
          6.2611706556275390e-002, 1.5087223187156733e-002,
          -3.1098838677024170e-002, -8.1925009936080720e-002,
          3.3410772482074413e-002, -7.1587858670736457e-002,
          1.2772290515396623e-002, 4.6022568392673706e-002,
          4.4963226435252426e-002, -3.2553467028276786e-002,
          -2.9359765113366569e-002, 1.6863072219283976e-002,
          -7.4944033188375867e-003, -9.1562618226488632e-002,
          -8.2974412211768822e-002, -2.0212207068269358e-002,
          -9.0302326817152959e-002, 6.8960534476463789e-002,
          -7.4871328809769048e-003, 3.2680816548847434e-002,
          2.5733056640523447e-002, -1.5696711565364624e-001,
          -2.7177081035003564e-003, -1.4505718198334339e-002,
          2.4124542746644283e-002, -7.8234643825104630e-003,
          3.7338903460820284e-002, -8.8879983236688585e-003,
          1.0378494509916529e-002, 4.8419875802500165e-002,
          -4.2983895195335645e-002, 4.6752406198820404e-003,
          -6.7067036641982195e-003, 2.7298583766287434e-002,
          2.4990079264282258e-002, -5.9487482133262375e-002,
          3.2606146818946850e-002, -5.6636252424695853e-002,
          5.4910279372264593e-002, 7.2824709565112559e-004,
          -1.5626625071474159e-001, -1.1743736508694126e-001,
          -3.7698786838244076e-003, -9.0299278072379086e-002,
          -1.3015953822886358e-002, 3.4343440090653537e-003,
          4.0808427086852436e-002, -5.2887532121126866e-002,
          1.8499422237758681e-003, -2.0461829596959458e-002,
          9.1735890796148089e-003, 2.4859466382252487e-002,
          2.6096298189130628e-002, -7.3611499199071381e-002,
          -2.4045551888235376e-002, -6.3513653690973046e-002,
          -4.7083974194263925e-003, 2.1830429204361731e-002,
          -1.9400652469909921e-002, -2.8375301760185764e-002,
          4.4790418494975712e-002, 7.7389006916516734e-002,
          3.3092627086341794e-003, 1.4429655981187398e-002,
          7.9562650985792432e-002, 3.0258472573718557e-002,
          -1.0336974655019511e-002, -5.6977418825749941e-003,
          3.6676929381861983e-002, -5.0092270804556064e-003,
          -5.5729530062010521e-003, 1.7012131308672167e-002,
          3.9146737575257873e-001, -8.8814332238228502e-002,
          4.3190312408790232e-002, -5.0888926256755437e-002,
          -1.7745332728116299e-002, 6.8543860720598968e-002,
          -1.3784199035197909e-002, -2.0885094865980125e-001,
          1.4223992952383926e-002, 9.2702694530696159e-003,
          -1.0797841363566309e-001, 7.6010070817755668e-002,
          -2.4954649654387515e-002, -8.2980585340728594e-002,
          1.7772014158681949e-002, -8.3281965389858173e-002,
          -2.7393751043192031e-002, 1.7259931178495540e-002,
          -1.3794324825815205e-001, 3.9228325865619119e-002,
          -1.1875167357473869e-001, -1.3569647021671025e-002,
          -4.7486019208573295e-002, -4.0605893215524833e-003,
          -1.3663123963581220e-001, 2.8581390735285265e-002,
          -1.7706903019587131e-001, -1.8577030642722807e-002,
          -3.5654244210523794e-002, -7.6617293215608312e-002,
          7.4941110957002441e-002, -9.0547283640653783e-003,
          5.1379444381644414e-002, 1.0866530419043748e-001,
          7.1132207022996845e-003, 2.0079847912484291e-002,
          -4.2863727968057742e-002, 8.5956980627611410e-002,
          -6.7038126924935229e-002, 2.2649975999704183e-002,
          -1.0840818688268782e-001, 1.0979103312651294e-002,
          -2.2726101646520405e-002, -1.1807176702579560e-001,
          1.6655781507810574e-001, -6.3619951578175987e-002,
          -1.8138303682010758e-002, -2.9467671275720572e-002,
          4.7313347414082989e-002, 6.0917675829393669e-002,
          -3.7754195590711477e-002, -9.9307750188298780e-002,
          2.4765762436791627e-001, -1.3284705713142364e-001,
          -1.1816789760554218e-002, 5.3855143234813703e-003,
          -9.5573062709167073e-003, -1.4436701871563489e-002,
          -6.2541806186743376e-002, 7.3101614920571920e-002,
          -1.4226147312438581e-001, 1.0188179434204143e-002,
          -1.6127362932860115e-001, -2.7175415625790258e-002,
          -1.0716436222833996e-001, 4.3218397827290379e-003,
          8.8592104567689942e-002, 1.7810903943530015e-001,
          8.0422984853438552e-003, -8.1529738372176142e-002,
          1.6139005288148270e-001, -4.5619485363289011e-002,
          5.7523618478949219e-002, 3.2340496926491914e-002,
          -5.1771759576989332e-002, -1.3463216487400545e-002,
          4.4135656493995749e-002, 9.6905817648196807e-002,
          1.5071383636771615e-001, -7.2044684453008392e-002,
          1.0057114986431256e-001, -7.6844360411963422e-002,
          -1.1679090758477692e-001, 1.8043263331604537e-001,
          -3.9962018914094191e-002, 1.2881433237625026e-001,
          -9.0102123959895308e-002, 1.3561186633730313e-001,
          3.5912323369288487e-003, -1.1824595985134163e-001,
          -4.8936645065975906e-002, -9.3787140378201017e-002,
          1.3907408287444264e-001, -4.6096174993118411e-002,
          1.2297607884840303e-001, 1.3548996569483052e-001,
          8.6673376963803256e-002, -5.1598986909516781e-002,
          3.2916142919153846e-002, 2.2186619961053167e-001,
          2.4317407465985143e-003, -7.7358013532333542e-002,
          2.9480506681215213e-002, 2.9786258719117296e-002,
          -2.9860427503010597e-002, 3.7531603197087787e-002,
          5.0616744386706533e-002, 1.5789252824047620e-001,
          -3.9400767880843054e-002, 9.6442041108387708e-002,
          1.0311728453509797e-001, -3.3285351067810547e-002,
          -1.6038513316479087e-002, -5.3092113428673593e-002,
          1.9885380525742095e-003, -4.4518792724016223e-002,
          -9.2164757519620031e-003, -1.8313599891772041e-002,
          1.2259187466634415e-001, 5.8744771681342844e-002,
          8.3192354584877531e-002, 9.0496063263786536e-002,
          2.4861429984656808e-002, 2.4875649043088831e-002,
          -1.4712398882588329e-001, -3.0921637229892416e-002,
          1.4733003349139467e-001, -2.9679178204504660e-002,
          -8.3700220687727755e-002, 6.3309878793080809e-002,
          4.1317990091359690e-002, -2.0044255969106309e-001,
          -3.7026588208227143e-002, 4.9572485241765912e-002,
          -1.9789153418823607e-001, -1.0906419417447477e-001,
          -1.6299857376960000e-001, 4.7544436918227719e-002,
          -1.9703094645335855e-002, 9.4679010208678326e-003,
          5.1158491592148879e-002, 2.6170051397025450e-002,
          -2.4897866757431306e-001, -5.5064564481042404e-002,
          -2.8256512947400572e-002, 2.7513176006400075e-002,
          -1.2779918366147217e-001, -5.5253719802564633e-002,
          7.9381735999005734e-002, -2.9850594582129245e-002,
          -3.6837249306717279e-001, 1.8970475898841686e-002,
          1.5198870577917717e-002, -1.1581389640142867e-001,
          3.7346556921540479e-002, -4.2209194410149704e-002,
          1.0535727866309652e-002, 9.8891904981904588e-002,
          6.9675943659616824e-002, 1.1708178168702327e-001,
          -1.7634838074231596e-002, 5.1201096956487661e-002,
          -7.2158758925667560e-002, -8.7261781906348753e-003,
          -1.4151234624977256e-002, -1.3370009113275214e-001,
          1.4039939034373680e-001, 1.2271317872472177e-001,
          -4.3251814759633793e-002, -7.1287396229014241e-002,
          -3.3686253331435642e-002, -4.2710547992619932e-002,
          -2.3260535976638966e-002, -1.3285475867101168e-001,
          -3.6617170943870507e-002, 1.6606058083755562e-001,
          -2.8220989299607663e-002, 7.7569789969536104e-002,
          -5.8223490653815629e-002, -1.2361786853342345e-001,
          7.4907576706219559e-002, -2.5234497985513051e-002,
          -2.2456235669689482e-002, 7.6297338140239234e-003,
          -7.9112695868280375e-002, 1.0873298449284015e-001,
          -6.0211296786845288e-002, 1.5811249034070338e-001,
          -8.4814019230116389e-003, -1.1228163784066204e-001,
          -1.5990774427597701e-001, 4.0745074116060556e-002,
          8.4171362959891735e-002, 3.0578003795729690e-002,
          -7.9889039163458173e-002, -5.3935451675353574e-002,
          1.3132882257284666e-002, -6.3087093200780708e-002,
          3.2748805252978443e-002, -2.7244370378302536e-002,
          2.0731441117644994e-003, 4.5134577952595165e-002,
          1.6544912199698703e-001, -1.0415386644383873e-001,
          -9.1842902938913937e-002, -5.5059493748286894e-003,
          3.1986097227475335e-002, 2.8063123941362594e-002,
          -6.3833840745114778e-002, 8.0839740011041550e-002,
          4.2981181455636737e-002, 3.8339242713050621e-002,
          -1.1854804310770752e-001, 1.5964881260898964e-001,
          -4.2413083238141178e-002, -5.4542916187078315e-002,
          1.8072450131245943e-001, 9.3282781963317362e-003,
          1.4022466947283740e-001, 1.7336706493565113e-002,
          -1.8433012641089770e-002, 7.1858963248716837e-002,
          -9.7589790775342994e-003, -1.2836869842536012e-002,
          -8.2829098453784195e-002, -6.2692128044538387e-002,
          5.9061622448194080e-002, 8.4025198250389524e-002,
          2.1230557732529340e-002, -6.1932805372659050e-002,
          7.4003558275483198e-003, -6.5161297696255588e-002,
          7.7760094269440305e-002, -3.1475703957332270e-002,
          -2.7503041962919049e-002, 7.6470216792119253e-002,
          6.9607132951624590e-003, 5.3696122571812797e-002,
          2.8637126153388511e-003, 4.0195158781162955e-002,
          -8.7780086765091914e-002, -2.0022119278446564e-003,
          -3.7094230085951162e-002, 1.1553321389430402e-001,
          2.7860076624020617e-002, 4.0533641984629505e-002,
          -5.0846494559605949e-003, -2.6051438877578135e-002,
          5.9410301071953497e-003, -7.9510949345835025e-002,
          -1.3695148479021188e-001, -1.6304215298462623e-002,
          1.2010090469107728e-002, 2.8630687147757895e-002,
          -8.5213935527678142e-002, 1.2647957490860631e-002,
          1.5335343335326525e-002, 2.2856148056255438e-001,
          -7.2557769439860226e-002, -3.2398615373558586e-002,
          1.3248232800394203e-002, -3.5195743680717297e-002,
          -1.0139952715882358e-001, -6.5981813562752553e-002,
          2.4470202941439402e-002, -2.1281109729153019e-002,
          -3.8046670144401544e-002, -3.5541143777619931e-002,
          -5.0726697814106519e-002, -1.4723077364833398e-001,
          -2.1264427540646457e-004, -1.1837546857211801e-002,
          1.9821338004756844e-001, -4.3318934301331546e-002,
          1.3883374186816410e-002, 8.6847508026685546e-002,
          1.4311830694717739e-001, -3.8462934573388744e-003,
          1.0318343114302275e-001, -4.7500726788355124e-002,
          1.0153786117588845e-002, -5.2671833369010719e-002,
          1.3689576899504594e-001, -8.9290264942913245e-003,
          1.8095818490659668e-003, -1.5686967305108598e-002,
          -7.4970595800806644e-002, 4.9849158271689752e-002,
          -1.1788038315150083e-001, 9.9459958730760079e-002,
          6.5644325127652253e-002, -1.7462956430830311e-002,
          5.6740168487296516e-002, 1.3358153239581965e-002,
          -6.2313989480858242e-002, 1.3166024757000521e-002,
          -5.0698562979488229e-002, 1.7903445610767638e-002,
          4.9421634030094932e-002, 1.5661265621302066e-002,
          -5.6789464427267067e-001, 2.5105475673162299e-002,
          -1.0921522791752199e-001, -2.4979619583194432e-002,
          -9.3500520481492364e-002, -3.5253348341046140e-002,
          4.4360941693612460e-002, -1.1308120015965294e-001,
          1.0601919966374768e-001, 2.6662301567005255e-002,
          4.9772017315773430e-002, 2.3829204372357565e-002,
          4.3849577659429866e-002, -1.0553715203371065e-002,
          5.0603697489323078e-002, 6.4577725537967409e-002,
          5.2678966068343776e-002, -2.6333243175773624e-002,
          -5.0566939735962588e-002, -1.8751518783673444e-002,
          -1.2720175947103979e-002, 7.1334075161354149e-002,
          3.6963070800789303e-003, -3.5854427072812944e-002,
          -7.9086804831267773e-002, 1.1135678575675306e-002,
          -5.6117861391528925e-002, 2.6873659260544150e-002,
          -1.2488779616683766e-001, 2.6733850067374911e-002,
          9.2102942051961761e-002, 1.7415641585276524e-002,
          -1.6980822433098633e-002, -8.3129409596863851e-002,
          4.2458898694229998e-003, -3.8009842313553373e-002,
          1.6590087530308491e-002, 4.0529535065782614e-002,
          8.2101521708944331e-002, -4.8236202075505219e-002,
          -2.7722953119854121e-002, -7.5822416386064411e-003,
          2.1668187202109571e-001, 3.4046216423855038e-003,
          8.4764279616900660e-003, -3.9746464819069204e-002,
          -3.5520660946919212e-002, 6.6967067016963755e-002,
          1.1359109596490201e-001, 9.7529045430867958e-003,
          5.5259621475170315e-002, 4.3098096039876167e-002,
          1.1246773338796925e-001, 5.8785296728451541e-003,
          2.5039726661049734e-003, -4.9490235720228398e-002,
          7.3470383670024078e-003, -1.4071756274748170e-002,
          -6.0684770782781533e-002, 2.0899598249049148e-001,
          9.6886358775021428e-002, -2.7883554006463188e-003,
          9.6668467459476562e-002, -7.1616722301534028e-002,
          -3.3594130551935107e-003, -1.6874911305716746e-002,
          -2.5659472120448962e-003, 9.2625713025089332e-002,
          4.9334656719003708e-002, -5.7599976903546096e-002,
          9.6490753808716190e-002, 2.6747331286659470e-002,
          3.0614535425760078e-002, -9.7092963939247212e-002,
          5.2458158758997973e-002, 6.3242651066283281e-002,
          1.0034034275277137e-002, 9.5812965227779448e-002,
          -4.6792333470187943e-002, -3.5832031144915426e-003,
          -5.7168977913691840e-003, 1.1045840650869661e-001,
          -4.3809535729231699e-002, 8.4522733059506125e-002,
          -3.4650103570122931e-003, -4.7244442995844758e-002,
          -4.2479708935058293e-002, 1.0650585190255094e-002,
          7.9146140891583727e-002, -8.4804824008966068e-003,
          4.3867624280259830e-002, -2.6402613296565534e-002,
          4.9721279489128890e-002, 7.0462645589852296e-002,
          -7.8115244394785080e-002, -1.3443912174384701e-001,
          1.9413651827482092e-003, -7.9456132643481767e-002,
          4.3387205413294237e-002, 9.6965757448083945e-002,
          7.0273137600376859e-002, -1.9774280606736378e-002,
          -7.5466460329540824e-002, 6.6900527482961786e-003,
          -3.3871454543268606e-002, 4.3555694782470976e-002,
          2.6876415993266598e-002, -4.5319059792029610e-002,
          9.1026316325175730e-003, -2.9391641044409653e-002,
          7.1196608115440332e-002, -1.2024219596609152e-001,
          1.9680650332491816e-002, -1.4343949152415986e-002,
          3.4745759076440695e-002, 5.4778006701871239e-002,
          2.8186157141335374e-002, -4.2643088483135368e-002,
          6.5515676177228144e-002, 4.4236897242667016e-002,
          -5.9983462435209835e-002, -1.9266857856498676e-002,
          4.4808902426091771e-002, 2.0090877979571261e-002,
          -4.3320902864092362e-002, 1.2011926413670912e-001,
          1.0420963146120124e-001, 8.9240102862569823e-002,
          7.7066591418005802e-003, 6.6988022228076566e-002,
          -5.7539997418783566e-002, 3.2986679159771222e-002,
          1.8586809751756663e-002, -1.1618813509969855e-001,
          2.2223226887222707e-002, 5.0930323817852015e-003,
          5.4305645164286404e-002, 8.1698378896274598e-002,
          -2.0634797249404899e-002, 5.1451777212794571e-002,
          -8.2037212289071501e-002, 6.5673039180485213e-002,
          1.0266237803359526e-001, -9.0680121687777906e-002,
          6.8739972792572032e-002, 1.0748815833597353e-001,
          5.7741377732253629e-002, -1.9870667379355605e-001,
          3.1639136547409033e-002, -6.4894845231326367e-002,
          3.7195877347692435e-001, 9.9227298781708495e-002,
          -8.4812022354675803e-002, 1.2549250700853828e-001,
          -6.2771247556639501e-002, -5.6070439067300623e-002,
          7.5112969006778413e-002, -4.6457922645986145e-002,
          6.2204545034320956e-002, -1.2355241786577166e-001,
          7.0804944372421991e-002, 4.2719288121427276e-003,
          7.3765309829843209e-002, 5.5480781317033198e-003,
          -2.3585293326228201e-002, 3.8996110961667170e-002,
          -3.9403094735653385e-002, -1.3987407254102208e-001,
          5.3210382385104449e-002, 1.1123302353496078e-001,
          5.7762960237360210e-002, 2.1243477559016916e-002,
          -5.0540998304351194e-002, 1.0933203011586906e-001,
          9.5416900647472477e-002, -1.8942053641155746e-001,
          1.0854316326930877e-002, -3.9115211100415430e-002,
          3.2372942916657765e-002, 1.3637878698829087e-001,
          -5.6784163155158968e-002, -1.7756490892784180e-002,
          2.1879681624404932e-002, 1.3311222315836965e-002,
          7.9749197550483139e-002, -4.5774415200795407e-002,
          2.7177091441810308e-002, -1.0700305050296006e-001,
          1.7961970973556729e-002, 1.8132281962502908e-001,
          2.5270276838372640e-002, -4.2357282096037452e-002,
          1.0800443984962055e-003, 5.7807744470298704e-002,
          7.6885570024157440e-002, -1.1120484135227858e-001,
          1.6634956013572105e-002, 7.9038467396820536e-002,
          1.1627862883529606e-001, -3.6363336792259143e-002,
          8.5965628596711988e-002, -2.0168355954393629e-002,
          -3.5485848851640425e-002, -6.7352087540729932e-004,
          6.0480714392720819e-002, 5.2241558922176502e-002,
          -9.2637981289484778e-002, -8.2865101190170015e-002,
          -3.0432159775444528e-002, -2.2676938599571539e-002,
          -1.3136260001634167e-002, 3.8367999949236852e-003,
          1.4789278000047870e-001, -1.1598221375741030e-001,
          1.3055433876020336e-002, 6.6245908408350887e-002,
          -1.3243920793456907e-002, -4.4751129758223575e-002,
          -1.0665568540719261e-001, -8.0179869446902668e-002,
          2.6754323772935035e-002, 2.1874246105248175e-002,
          -7.4307844340112034e-002, -4.5966044423430920e-002,
          1.3413860493480820e-001, 1.3463537775052292e-001,
          9.7174297941523893e-002, -7.6917155206176618e-002,
          -3.0074665202228356e-002, -8.0681578534147355e-002,
          -3.2703847303213497e-002, 1.8217132942699796e-001,
          -1.2308740928414681e-001, -4.8932232758481915e-002,
          4.7667275552223144e-002, -1.5842190316244179e-001,
          -2.1418526801586488e-002, 4.9028847643939055e-002,
          7.6508284771910837e-002, -1.6413124542753395e-002,
          5.4881918446303996e-002, 1.3040401096402113e-001,
          6.4047302786398988e-002, -8.3316868797228161e-002,
          4.7569786052089006e-003, -7.3935693878429243e-002,
          3.5290509124126151e-002, 6.0873564680641173e-003,
          -1.6263844592250089e-002, 4.0691957719485403e-002,
          1.0708106327422288e-001, -1.6927961280064539e-002,
          -2.9421203051722467e-002, -6.7813254716486859e-002,
          3.2726443989578108e-002, -6.9821305616994903e-003,
          -3.4922553218269203e-002, -6.7365978641218044e-002,
          6.3577134578307271e-002, -3.1876550181160056e-002,
          -5.8053690778869065e-002, 1.6000874572008926e-003,
          5.8394788595901331e-002, 4.6536713001089983e-002,
          9.8928306803371911e-003, 1.1264757392682288e-001,
          -3.7875221710902116e-002, 5.9842413138614672e-002,
          1.1231493994807917e-001, 2.5161387557931719e-001,
          8.5908481991292279e-002, -9.0652455575400290e-002,
          -6.3574584051291710e-002, 5.4859834583257924e-002,
          1.8976828267373676e-002, -8.4317171747782721e-002,
          -1.0437603486372947e-001, 7.3198652564012451e-002,
          -7.2989046140541150e-002, 1.1021186981808599e-001,
          1.0221623269287040e-003, -6.5542363215211714e-003,
          1.3139645425858534e-001, -4.9420561656179113e-002,
          3.9712479196608905e-002, 2.6226164241514496e-002,
          1.1328945119298277e-001, -1.7215626899260972e-002,
          -6.1521853056734556e-002, -2.6730138050038012e-002,
          -1.1698816674024776e-002, 5.3815498029378484e-003,
          9.2155345940037436e-002, -5.6575642067232305e-002,
          1.5468354232772723e-002, 8.5817188054797391e-002,
          3.9916558602507819e-002, -1.0174716064046359e-001,
          -5.5004172258118815e-002, -3.4723983037578857e-002,
          6.3227355879412317e-001, -3.4380766813562599e-002,
          6.4239766296440390e-002, -8.2334632485834683e-002,
          -4.2845779263207380e-002, 5.7753088575845837e-002,
          -5.5198125551517194e-002, 4.8211067284721035e-002,
          7.9417127775071844e-002, 1.1416196581821986e-001,
          -1.0520631574125520e-001, 3.4919328093950860e-002,
          1.0498197593338067e-002, -2.8074342668321796e-002,
          -8.4342400884777069e-002, 5.3523412092567148e-002,
          -7.8599671135962008e-003, 6.4075325977999715e-003,
          1.1428529294829114e-002, 9.6884619367210954e-003,
          -1.0809121377504216e-001, 2.1929594994992033e-002,
          -9.6284127210007564e-002, 1.8488913738211061e-002,
          -1.7246233875318565e-001, 6.2596489740657818e-002,
          -1.3143150344995183e-001, 2.3658388073000605e-002,
          -7.8182550663277811e-002, -5.3731208886544625e-002,
          -3.6197732190947990e-002, 9.2456931499105485e-003,
          -5.5952204886608473e-002, 4.2679574588985428e-002,
          3.0417020289052726e-002, 3.8169860659723186e-002,
          -2.6086684512153152e-002, 7.3364834652610442e-002,
          -2.6270389627140324e-002, -9.1235082306788243e-002,
          -7.3070171624065164e-002, -1.8859620702377469e-002,
          -2.6426539869579418e-002, -5.3566717741843989e-002,
          -1.7679199348931387e-002, -5.4616784971187916e-002,
          -1.2409543208419256e-003, -1.5193009666445837e-003,
          5.1778164729280825e-002, 7.0464451424831084e-002,
          -3.3704625245984353e-002, -6.9768710457467797e-002,
          2.1117859369060565e-001, -1.0773195981675512e-001,
          4.0477594674046564e-003, 4.8494994559011514e-004,
          5.9899456393170014e-002, 8.1153260933097288e-003,
          -6.5941307679196551e-003, 1.3078075840233180e-001,
          2.1926948661685035e-002, 6.4671887534233129e-003,
          -4.4700295453654081e-002, -3.2862187852632729e-002,
          -5.8132572727912821e-002, -2.1262137789514014e-002,
          1.0873797086729271e-002, 8.1682734853604749e-002,
          9.5236067327514051e-003, 5.3722290214783530e-002,
          -2.9776264394683304e-002, -3.8427366834851845e-002,
          3.9280319460541439e-002, 4.8872147578108122e-002,
          -7.3148238176252545e-002, 7.6949234601262864e-002,
          1.5916563227637372e-002, 8.7974932676222542e-002,
          1.0866268655604598e-001, -5.8416441992848830e-002,
          -4.9566754540483577e-003, -9.5750421708675468e-002,
          4.1895135052254777e-002, 7.6102009576222193e-002,
          -1.0650429025926693e-002, 2.3600522594603362e-002,
          -7.5707525019875219e-004, 1.0598707964956625e-001,
          -9.2428391747711100e-002, -6.3985106379107759e-002,
          4.4656494230015942e-003, -8.4114048376722220e-002,
          1.3999078447169283e-001, -1.8865748665087306e-002,
          -7.8663152463235145e-002, 1.3092593179919618e-001,
          8.8238851720716577e-002, 1.1213970421260733e-002,
          5.3686318754185870e-002, 6.0206775744911685e-002,
          -2.7040145870447741e-003, -2.6495067255492000e-002,
          3.9350949445423646e-002, -1.1172380556967516e-002,
          -4.4227829136855655e-002, -1.8452029398624884e-004,
          1.0462526979382830e-002, -9.4332280213121344e-002,
          -1.1359111720374890e-001, 1.6113440345060619e-002,
          -1.2141495087505644e-001, -1.8605515056066703e-002,
          1.5639065995232068e-002, -8.6608078739847952e-002,
          1.1530877769514423e-002, -8.9522221476300026e-002,
          4.6792729478472274e-002, -4.1596139734983932e-002,
          1.9151341230158470e-001, -5.5199120737575560e-002,
          -1.7810855554447915e-002, 1.1662558770294305e-001,
          3.2530451041852073e-003, 1.0179754280295109e-002,
          -1.7749194788054944e-002, 5.3935354665476228e-002,
          -1.9661322311632003e-002, -2.5938173766760341e-002,
          9.3906400477124282e-003, -2.5370514700680309e-002,
          2.6991209012342237e-002, -2.7958246958106604e-002,
          -7.7001292219594619e-002, -4.9758244865356412e-002,
          -9.9903926245840047e-002, -3.9390121433754990e-002,
          -9.8941390038780636e-002, 1.8811776881254426e-002,
          3.2596393222446576e-002, 2.9191631559290911e-002,
          4.8289133579915870e-002, 1.0965912783493684e-001,
          -1.7433684560943297e-001, 4.0294129039080036e-003,
          4.9135398826452396e-002, 6.7395740473504315e-002,
          -9.7233303032030149e-002, -1.3912529471604287e-001,
          -2.6190740451446384e-002, 1.3346372753825234e-001,
          1.2101793270338836e+000, 6.4698453744609266e-002,
          -3.6957654290406809e-002, 9.4839917048179373e-002,
          -1.9153334414237631e-002, -1.6852920068757957e-001,
          -2.0677068646390379e-005, 2.3880386332966339e-001,
          7.5239002022810419e-002, 1.3131717867691671e-002,
          5.9252603607104601e-004, 3.5253533866694213e-002,
          3.9200028358688216e-002, 1.4631914559689588e-001,
          -6.9337051626317911e-002, -7.3432067013390862e-002,
          -9.9269446862736782e-002, -1.2486605808212416e-001,
          -3.1997562568108866e-002, 7.3197288872328625e-002,
          -1.1135750214145720e-001, -4.1504238406510269e-002,
          -3.6419311240346593e-002, 5.1562058758732335e-002,
          -1.0773214394693885e-001, 1.1281552451294156e-001,
          7.7288025784404801e-002, -1.7858206475444444e-001,
          -2.5012466229123859e-001, -2.1981687051786800e-001,
          -2.3845724060973152e-002, -3.5194230400406756e-002,
          -9.0512164926459415e-002, 2.0295066898074504e-001,
          1.0759777372128285e-001, 1.1765570062143943e-001,
          -6.0772433596731873e-002, -5.0393954521279150e-002,
          -2.1201790724428321e-002, 1.5106053334174455e-001,
          -1.6632073269087472e-001, 1.4379529638723333e-002,
          -1.2923436204861146e-003, 2.8079418681206218e-002,
          -1.5489822613039671e-002, -1.1487750430817507e-001,
          1.2603652771767726e-001, 5.2053870832223063e-003,
          1.0691595136667097e-001, -8.0967521122422715e-003,
          4.8628488089643138e-002, -3.3134434182016345e-003,
          1.8881781330312791e-001, 9.4384964110906088e-003,
          6.7020253736920438e-003, 1.2034620545432837e-002,
          5.4559746115254493e-002, -1.0938494398439501e-001,
          7.3913221704512949e-002, 5.5289034580457065e-002,
          -8.0616854257014925e-002, 1.2991515171527970e-001,
          -1.1761891222533924e-001, -8.3857998826690171e-003,
          -1.7760718700176295e-001, 1.5740142324960982e-001,
          1.0910034563756013e-001, -1.4445537052917611e-003,
          -8.1605516902145903e-002, 9.3107809766082655e-002,
          -1.3086083918356570e-001, 6.7551844074090872e-002,
          -2.4671573126234983e-002, -8.1040256332581398e-002,
          7.0930433167581436e-002, 6.5905896394684860e-002,
          6.7608430135578490e-002, 1.7157143001542061e-001,
          2.3537008453809086e-002, -1.8360188803537059e-001,
          6.0219221078542905e-003, 9.8203147681388742e-002,
          5.8692244288738607e-002, 1.5679139362090769e-001,
          2.0070732879390082e-002, 1.4774024644955112e-002,
          5.3730540773375843e-002, 5.0337829098597991e-002,
          -1.3574713735867817e-002, 1.3652662385026898e-001,
          -5.6351801495057807e-002, 3.1700013723987536e-002,
          -1.1559067366371932e-001, 1.6034716047298833e-001,
          1.3710020390820971e-001, -4.5022997337285729e-002,
          1.8417389111646770e-001, 4.8513525626351674e-002,
          1.3245609081412255e-001, 1.2262926248425001e-002,
          -9.0408515138519899e-002, -5.9527121738130011e-003,
          -7.1882813792591871e-002, -1.5551582438802627e-001,
          -1.9477545255915446e-001, 6.3671574155320584e-002,
          1.3700767589389649e-002, -4.3510284763218311e-002,
          -5.1294500575363909e-002, -5.8593504387232549e-002,
          -1.3827645100377434e-001, 2.7465879221297625e-002,
          -7.7670073204494192e-002, -1.0669716643837474e-001,
          1.8210832725790476e-002, 1.4678736261944195e-001,
          -1.6761352139950650e-001, 1.3918520319145830e-001,
          5.8513307883421767e-002, -8.7849397842294702e-002,
          4.4670169166593089e-002, -2.5175465086311268e-002,
          -2.3699642752886555e-002, 6.9370030151258491e-002,
          5.2964586359085998e-002, -1.3925431714912463e-002,
          2.2694350214089869e-002, 1.4514974357450477e-001,
          -1.2360148957433710e-001, -2.7558184969407561e-002,
          5.8908416944214642e-002, -4.2724856017388520e-002,
          1.3428759534909843e-001, 1.9271582093520545e-001,
          4.7456921401139066e-002, -1.0673801938136199e-001,
          -1.6347559802464853e-001, 2.6685681396480393e-002,
          -1.0211653087983047e-001, -2.6840787150405439e-002,
          7.5477499002617174e-002, 1.3088921761756572e-001,
          -2.6262848659735737e-003, -1.7611755846482699e-001,
          -5.8475396580878893e-002, 1.3373987598091505e-001,
          -8.4645431997718817e-002, -1.1181458690518192e-001,
          -8.2277470257718421e-002, 1.5551088932493479e-001,
          3.0922871500920485e-001, -6.7444954716371922e-002,
          7.9381736318893058e-004, -2.2005107300739644e-002,
          -4.4756373989596823e-002, 2.4023071861051872e-002,
          -1.3398514926071600e-002, -1.3147055751824538e-001,
          -7.5034009607620383e-002, -3.9699796919177306e-002,
          -3.5762031161867269e-002, 3.9650834297465007e-002,
          -1.8865820620459318e-002, 3.7374721388319578e-002,
          -4.2682567047451159e-002, 2.5320541891042662e-002,
          -1.3802971029239189e-003, -4.8586918156862557e-002,
          9.5089490399472400e-004, 1.1892961999035253e-002,
          -5.0181555249274118e-002, 1.2715309938012113e-002,
          -4.8799420394273506e-002, 3.9302821212513668e-002,
          -8.0067444262805348e-002, 1.6187488243245734e-003,
          -3.7829671647588929e-002, 1.4907128031287267e-002,
          7.9618917164943209e-002, 9.7489017048912278e-003,
          -6.9680825325766402e-002, -4.0694415406631289e-002,
          4.9495479496347673e-002, -3.9061198025168750e-003,
          2.0466117231777287e-002, -3.7769464360119104e-002,
          3.2799744527556257e-003, 6.5266523514385194e-002,
          -3.3465836018333528e-002, -2.3401134004274959e-002,
          -1.7940295955047796e-002, -2.6973182009282379e-002,
          -1.0904025804937079e-001, -1.1836176495615204e-002,
          9.3806666693569712e-002, -3.8686705982870877e-002,
          2.3371031372796433e-002, 1.8515690152832637e-002,
          5.1971915689985028e-002, 9.4822284422474049e-002,
          -4.5392524893873284e-002, -4.2055553395779349e-002,
          3.0252975746563202e-002, -4.4673876331409276e-002,
          4.7075382061060926e-002, 4.7036925720860462e-002,
          4.1660898074863735e-002, -2.3686568973797780e-002,
          2.1462437322497165e-002, -4.9559373317800894e-002,
          -2.6018381350969708e-002, -2.7070492045420107e-002,
          -2.9199522791229986e-002, -3.4377879527995467e-002,
          -4.5320407404390972e-002, 2.0595526322657588e-002,
          -1.6086467223347802e-002, -2.2885763429299596e-002,
          -2.3213581756767309e-002, -1.0257882957808273e-001,
          8.4383059280184858e-002, -7.5857413800537052e-002,
          2.3845566979353795e-002, 1.4212596501419341e-002,
          1.2943146785379210e-002, -3.2162506834025877e-002,
          -1.4746719187655716e-002, 8.2064387335970004e-002,
          1.0125639944066146e-001, 1.3344858048407677e-002,
          2.3123560195375009e-002, -3.7735992036889453e-002,
          -7.8261721013358640e-002, 6.7580328881309687e-002,
          1.0575222756167074e-002, 7.5740187654578281e-002,
          -5.6262923473246962e-002, 7.3393443304447118e-003,
          -1.2434467402013451e-002, -6.8630479072034123e-002,
          5.8791613916676824e-002, -7.9601649723733212e-003,
          6.7682560492478228e-002, -4.4312398375814556e-002,
          3.1927133603502057e-002, 3.5546454333040246e-002,
          4.4496210125348538e-002, 8.3810095885768175e-003,
          -1.5529025504501346e-003, 2.1959330485249773e-001,
          -1.1385294048537225e-002, 3.0479860008300361e-002,
          -9.2762231108994442e-003, 1.5282776092179259e-002,
          3.0773857124761651e-002, 3.9156458033611771e-002,
          -2.0141223877617912e-002, -2.8603734559227385e-002,
          -1.3728125058069779e-002, 7.3081308976119211e-002,
          -6.7080357703093854e-002, 1.2311130588934247e-002,
          1.6996416517997808e-002, -3.3480525948938397e-002,
          -4.3960521256443215e-003, 5.6100852261062638e-003,
          8.7627775055420598e-004, 1.6015814115407596e-002,
          4.4062493975032646e-002, 7.1787439063652744e-002,
          1.1650886235720712e-001, 1.4291812413530020e-001,
          -7.4123415040319544e-003, 3.4791829975473594e-002,
          -7.8511694292274323e-002, -4.8779164178212174e-002,
          -2.2125795222206819e-002, 1.8553050643964241e-002,
          -1.0086653645025829e-002, -3.5248964893600028e-002,
          9.9568350527389649e-003, 9.7244101256177833e-004,
          -8.7591751029019158e-002, 2.5017375293515075e-002,
          -3.0943355224954776e-002, -3.8706886628898013e-002,
          -4.2572833913411719e-002, -2.2238198233303964e-002,
          3.8955623807589018e-002, 7.6662415165176051e-002,
          3.5268406138965903e-002, -8.8345913962031342e-002,
          -1.6214964877482540e-002, -7.3182795887233101e-002,
          -2.8960491523227067e-002, -1.9745962253830636e-002,
          -1.9893935173983499e-002, -1.5915265748136488e-002,
          -3.7965230019769793e-002, 4.6911391118166813e-003,
          -4.1802814390719251e-001, -8.6563021956313282e-002,
          -1.5676173046342329e-001, -1.7762196681558573e-001,
          -5.3967444459079243e-002, 1.1097091817262808e-001,
          1.1778787825113794e-001, -1.0598292318888758e-001,
          1.7877996386059053e-001, -2.3147358846209269e-002,
          4.6292923737643002e-002, 1.1688687666410601e-001,
          9.5463285302844286e-002, -5.3601290847679756e-002,
          7.4253990282020843e-002, -1.0416910451989548e-002,
          6.4343920260043458e-002, -9.7182646539350687e-002,
          4.0299865817316642e-002, 8.4747751738826121e-002,
          3.7490964058568242e-002, 1.1908360310295031e-001,
          -1.8275125023667693e-001, 6.5390295394711015e-003,
          1.0682454809155376e-001, -7.6612605891997823e-002,
          -7.5678042180982175e-002, 1.3022912859241784e-001,
          -7.3393137583009735e-002, 3.3932528216295853e-002,
          8.5193027746229236e-002, 1.3196893693713377e-003,
          1.6769533283964059e-003, 6.2149609962720245e-002,
          6.7123580460563053e-003, -4.2560148459442344e-002,
          2.4395762905663736e-002, 4.7828603081562372e-002,
          -2.1931220173857485e-002, 1.7407876250731348e-002,
          -1.1648065611389345e-002, -5.3115170520010184e-002,
          2.9109860560610373e-001, 1.8775688539442623e-003,
          1.0495338706505759e-001, -5.2633168402682659e-002,
          -1.2953155287830750e-001, 1.6408676473905257e-001,
          1.1697912564436554e-001, 7.0309797300641047e-002,
          1.6013563356971536e-001, -7.4867786877551357e-002,
          2.2747033350959274e-003, -6.3091849140326728e-002,
          -6.1007770819966271e-002, 6.6561184153184516e-002,
          -2.2200933994509552e-004, -6.3812927171716757e-002,
          -1.5412037975226711e-001, 2.7656484630507550e-001,
          -5.2328149714652647e-003, 8.1931231979924704e-002,
          1.9734220369982644e-001, -1.3905670718188456e-001,
          2.3032309406442859e-002, -9.0407647910839231e-002,
          2.8529544006314387e-002, -5.7280264995114162e-002,
          4.5318182950003970e-002, -1.2984862129708863e-001,
          4.4941734560308068e-002, 2.5078985966206394e-002,
          -1.1524439651849186e-001, -8.4786297115964276e-002,
          6.5187146641106114e-002, 1.8766342596225091e-001,
          1.9390835065762890e-001, 8.3365660451519396e-003,
          -3.5746238765220616e-002, 1.4786954713731851e-001,
          -9.6868555549690191e-002, 2.2096777066507242e-001,
          -9.3612837622151626e-002, -6.0641924495145438e-002,
          5.2172758597265256e-003, -9.0150183681365806e-002,
          -1.6570852842621060e-002, 1.5593163233315022e-001,
          5.9168553838508962e-002, -2.8905025870770124e-002,
          1.2267159058638043e-001, 1.9025321194482875e-001,
          1.6299139927821141e-001, -1.9709669861757734e-002,
          -1.0314769905342098e-002, 8.2590908456078999e-002,
          2.1084490786967065e-002, -1.2384261025756221e-001,
          -5.0292977761976212e-003, 4.7360142776759109e-002,
          1.2594784463758327e-001, -1.2885108274083198e-001,
          -6.0868628038149098e-003, 1.0277908825451007e-001,
          -5.1962311510909208e-002, -6.8852268553149576e-002,
          -5.4614183970938909e-002, -4.9615271286225227e-002,
          -5.5905950100639250e-002, 1.0420177110126390e-002,
          1.1090499554385237e-001, -2.6190406872084698e-001,
          2.0999767369047247e-002, -1.4840398828804099e-002,
          -4.4822697944465112e-002, 1.3009504353117127e-001,
          4.6219098824191666e-002, -8.7979663524004978e-002,
          2.1868230130241587e-001, 1.3107304713796769e-001,
          -9.4100487907593608e-002, 1.7139782067875656e-001,
          2.4087600731262138e-002, 1.3816943542884529e-002,
          -6.6680608060406543e-002, 6.2508724615592537e-002,
          1.2772243328039967e-001, -6.0978863657277026e-002,
          -1.4340954383705572e-002, 2.1683210907587966e-001,
          -1.0758642132595119e-002, -4.2075382226126355e-002,
          -7.8603249723429497e-002, -1.2382846071356411e-001,
          -4.6040552379635218e-002, 1.5379118968099201e-001,
          1.1448841911812620e-001, 9.1855388032089591e-002,
          3.1660145486394856e-002, -4.2966956216477684e-002,
          2.5446912633994432e-002, 2.5023903681589732e-001,
          -1.9630135053293554e-001, 8.4460964468883001e-002,
          1.3236422763750461e-001, 4.0881573477976080e-002,
          5.0340832623845769e-002, -1.3258923628562075e-001,
          3.2633837696451951e-003, 2.5499360542561512e-002,
          -6.5990818702034926e-001, 1.6790621053338747e-001,
          -1.3106693276512206e-002, 1.7557597106834807e-001,
          -7.8372374145911985e-002, -3.4212105583147884e-002,
          -4.6868838505341723e-002, 2.3477557830523196e-001,
          -2.7177152592837071e-002, -1.6973857766816411e-001,
          1.7950646796102393e-001, -1.1193436974864954e-001,
          1.8131832446748802e-001, 1.6861719702923045e-001,
          -3.9098831355674650e-002, 1.4604062402615892e-001,
          -7.1265515417203301e-002, -8.8701764579304621e-002,
          1.4306846091161671e-001, 6.3992532393453372e-002,
          1.6620778240022105e-001, -8.5302792741642330e-004,
          5.5546525050314419e-002, 1.5583569381662807e-001,
          8.0646451298910987e-002, -1.3670808234784851e-001,
          2.5202841436168699e-001, 5.4364982771565899e-003,
          -4.1338143064095700e-003, 9.4407921486010377e-002,
          -2.2500640753914691e-001, 2.4604839666524079e-002,
          -7.6664429606373277e-002, -1.0839105252751202e-001,
          4.5747081479864754e-002, -4.2373752292798807e-002,
          4.5530392207856908e-002, -2.6077557860223327e-001,
          2.3828770349401396e-002, 7.6263718906061803e-002,
          1.2146869378015036e-001, -4.7335435717868662e-002,
          -1.1055548652499218e-001, 4.7414263126546299e-002,
          -1.1929408314613339e-001, -4.8052591803854787e-002,
          6.0071067012204299e-002, 7.5254649128490966e-003,
          9.9802166099540998e-002, -1.1810353675517798e-001,
          -9.6529488295709551e-002, 5.8653406496617780e-002,
          -1.1781222919136421e-001, 1.1570852294378690e-001,
          1.0372872695148497e-001, 4.4794768743690608e-002,
          2.9595519290223006e-002, -4.0283212443967986e-002,
          1.7730172124872140e-001, -7.1603558053481772e-002,
          6.5647080758129250e-002, -6.6893754515829129e-002,
          1.2042233421742328e-001, -1.3091754938660267e-003,
          1.5569280553327461e-001, 1.5406730170093880e-002,
          -9.9097946723522290e-002, -9.7390805020938928e-002,
          -1.8311583990695848e-001, 1.3550526799510534e-001,
          -1.6728883803665726e-001, 2.4268498705349296e-002,
          -7.2295731602054936e-002, -9.3372292172097342e-004,
          1.1377833368102044e-001, -5.0899921399076294e-002,
          -2.8872101463048579e-002, -1.5333877928401865e-001,
          5.1771785027797772e-002, -3.1438722488607539e-002,
          -7.3863012521246954e-002, 7.1429901690121422e-002,
          2.3599981720069323e-002, -4.0779037579111804e-002,
          1.5003833211694803e-001, -2.2615772818419169e-001,
          8.6482575887302154e-002, -1.2517474076286705e-001,
          -1.2200100544395587e-001, 3.7023029657554246e-002,
          9.8046474155232294e-002, 6.1981371956686931e-002,
          -1.4731955951438114e-001, -4.0386436997987038e-002,
          9.3146758944890357e-002, -1.0068893060407039e-001,
          -5.2126039314056620e-002, 6.3421617005504555e-002,
          9.6001491754278707e-003, -5.6983566416040514e-002,
          7.3027493948969097e-002, 1.5741941177383231e-001,
          -2.4294083257908584e-002, -1.4601439876835523e-001,
          7.2963353111761095e-002, -5.2881654919668515e-002,
          -6.4593531881437169e-002, -1.5756310941382620e-001,
          8.6908199638160918e-002, -8.7108575177283376e-002,
          -1.7280866777505957e-001, 4.9932599371045459e-002,
          7.5014323058868945e-002, 6.0030252405008346e-002,
          4.7599746115909301e-002, 1.1694492665726164e-001,
          -3.8704391519737813e-002, 1.3370218486681198e-001,
          -1.4996759306200835e-001, 2.9542226351749436e-002,
          1.3878255104453507e-001, -2.4256363607739553e-001,
          -1.3933203732278190e-001, 4.6519593184063485e-002,
          1.7816886544890939e-001, -4.5760939000510675e-002,
          -2.3348531685105825e-001, 4.9427658210692740e-002,
          1.9212347900866605e-002, -5.9145090526553430e-002,
          -1.4931483160614688e-003, 1.3869490744895219e-001,
          1.2937307896077127e-001, -3.2933450501541742e-002,
          1.6542300980433267e-001, 1.1060363897341138e-001,
          2.0762804752774064e-001, -1.2016248086041355e-001,
          -4.7645598562382985e-002, -4.0336068687143713e-002,
          -6.1253954676550051e-002, -1.4342058557596521e-001,
          1.8848556358773980e-001, -2.4776725855044589e-003,
          1.5140166227323249e-002, 7.4219464758515527e-002,
          6.3343383890302168e-002, 9.3275378667662849e-004,
          -1.6140061912079670e-001, -6.2126654720078202e-002,
          -1.5973385364833792e+000, -1.5559723018343186e-001,
          -8.9079702684925516e-002, 9.0588556044489104e-003,
          -1.4501892190804822e-002, -2.5383815901210451e-002,
          1.5514755047044101e-001, 1.3764501105520757e-002,
          -3.9165791358948286e-002, -3.0063841452778448e-002,
          3.3874849418358131e-002, 3.6581890428261057e-002,
          9.2788551460000701e-002, -1.0252058669382511e-002,
          1.7679668310055729e-001, 9.7964107518060034e-002,
          4.8091780043311855e-002, 7.4842268861535749e-002,
          1.2461966334103455e-001, -1.9729240168798873e-002,
          5.3245201929471228e-002, 6.3507818227078239e-002,
          -1.2790427923195114e-003, -3.2278804191526185e-002,
          1.1881520097727055e-001, -2.7372685151216369e-001,
          -6.8457901817092673e-002, 6.9268578021906863e-002,
          1.2669149424723997e-001, 2.4146060610434494e-001,
          1.8481584269887791e-001, 3.6642644470394836e-002,
          1.0954182434422922e-001, -1.5646193140483355e-001,
          -9.4712988976306131e-002, -1.6907424612366020e-001,
          9.6936682897347054e-002, 5.5186880978266038e-002,
          1.9557776731182128e-001, 2.5911928348669022e-001,
          1.4568810693121084e-001, -9.6843344137563740e-003,
          8.0330763637344080e-002, 6.3552029700936583e-002,
          3.8769188048689070e-002, 1.8653137194742159e-001,
          -6.7278010905751473e-002, 1.0424792808487605e-001,
          -9.9087510317745001e-002, 8.0330794897358060e-002,
          1.2777385546175271e-001, 1.6884762217735313e-001,
          -2.6872592849374122e-001, 1.4859459370114331e-001,
          9.9438056599373437e-002, -4.8801765734652773e-002,
          -3.7432158825582776e-002, 5.1435612974969978e-002,
          -1.1155592208314719e-001, -4.4009959032512381e-003,
          2.2739213097769820e-001, -1.1827202558562802e-001,
          2.0890872789797174e-001, -2.5340585304032034e-002,
          1.6375023685850829e-001, -6.9527969589038535e-002,
          -1.1481268318712538e-001, -4.0121083057629112e-002,
          7.6745073078337431e-002, -1.3108758761309999e-001,
          1.4127058555180544e-002, -5.5643628211862861e-002,
          -3.8171460773254944e-002, -4.0936427663764603e-002,
          2.8041843317978096e-002, -3.1849664026110516e-002,
          -1.0428579754192049e-003, -1.4808910945528939e-001,
          -1.8670510530836287e-001, 2.4363214552950602e-001,
          -1.9987145884048038e-001, 3.1475791591168001e-001,
          -6.2316413044138430e-002, -1.8259862670318022e-001,
          -8.3327339034800094e-002, -1.2548176958341975e-001,
          -9.5643004402313880e-002, -1.3156593280424836e-002,
          2.1446412202936371e-001, -1.0556191829831424e-002,
          1.6068970792940332e-001, 1.5708508238794752e-001,
          6.2498415271405740e-002, -1.0699589026409392e-001,
          -1.8991228969020396e-001, -5.8848543578159445e-003,
          -1.6982133570856797e-001, -9.2691033211526733e-002,
